// Auto-généré par export_weights.py — NE PAS ÉDITER
// Modèle : TinyCpaTCN  (3× Conv1d k=9 + Linear)
#pragma once

namespace TcnWeights {

// Conv1d  1→16, k=9
static const float conv0_weight[144] = {
    0.12978362f, -0.15893485f, 0.20868962f, 0.49757835f, 0.34897903f, 0.58819652f, 0.11180735f, 0.00712706f,
    -0.26602262f, 0.02449739f, -0.25952116f, -0.17207150f, -0.18432368f, -0.03484103f, -0.47398239f, -0.19261020f,
    -0.44894436f, -0.14307295f, -0.15836464f, 0.41274554f, 0.52616405f, 0.19417752f, 0.14916365f, -0.20059662f,
    -0.28913039f, 0.10136834f, 0.23353007f, -0.13586687f, -0.27045941f, -0.30282605f, 0.27456641f, 0.15776710f,
    0.42501590f, 0.19314739f, 0.29878476f, 0.18027963f, 0.28172889f, -0.02995057f, -0.11440010f, 0.33754715f,
    -0.08293569f, 0.33979818f, 0.32432666f, 0.13047513f, 0.14915247f, -0.21863939f, 0.17041518f, -0.34983689f,
    -0.29130948f, 0.20985264f, -0.11071298f, -0.09696727f, 0.02876771f, -0.05967561f, 0.12187863f, -0.28663203f,
    0.01962737f, 0.06164725f, -0.36060718f, 0.12149284f, -0.00456965f, 0.41579372f, 0.27723300f, 0.43219763f,
    0.63202757f, 0.52323693f, 0.44945353f, -0.26943532f, 0.24613251f, -0.12308049f, -0.19891134f, -0.15875676f,
    -0.36264119f, -0.33549434f, -0.39182371f, -0.13636996f, 0.26247820f, 0.29316285f, 0.46584368f, 0.30884933f,
    -0.49038944f, 0.16061836f, -0.15827264f, 0.28659281f, -0.13750890f, -0.40143004f, -0.53141791f, -0.16539341f,
    -0.30313596f, 0.19301367f, -0.05700791f, 0.17641021f, -0.35413054f, 0.04517248f, -0.54414171f, -0.46355644f,
    0.26466388f, -0.02755512f, -0.15037508f, -0.11548936f, 0.47675544f, 0.57387239f, 0.28938496f, 0.24041358f,
    -0.21419306f, 0.25673899f, 0.19233306f, 0.12324047f, -0.46130875f, -0.40444648f, -0.66963184f, -0.23021835f,
    0.13553689f, -0.13670403f, -0.00115345f, -0.25788894f, 0.28838414f, 0.25843751f, -0.03510221f, 0.24737357f,
    0.15796441f, 0.39014959f, 0.19909360f, -0.17732809f, -0.23637383f, 0.32698604f, 0.24115416f, -0.13230932f,
    -0.54750353f, -0.63734519f, -0.49101165f, -0.31405252f, 0.25538692f, 0.05237921f, 0.15827033f, 0.16684121f,
    -0.33132866f, 0.18560262f, 0.05540190f, -0.16702822f, 0.31717977f, 0.00193469f, 0.08999372f, -0.06147723f
};

static const float conv0_bias[16] = {
    -0.03086707f, -0.04433076f, 0.26569578f, 0.37166542f, 0.09581868f, 0.03917733f, -0.04242852f, 0.13646068f,
    -0.19284865f, 0.33058473f, 0.16839148f, -0.08081153f, 0.17836544f, 0.25828975f, 0.06341040f, -0.29004619f
};

// Conv1d 16→32, k=9
static const float conv2_weight[4608] = {
    -0.13674748f, -0.03818095f, -0.06896203f, 0.02767746f, 0.31835571f, 0.38936749f, 0.14030145f, 0.11595252f,
    0.07059070f, -0.14901233f, -0.20502800f, -0.35937464f, -0.50644565f, -0.11033237f, -0.05487329f, -0.02097943f,
    0.02172925f, -0.03057885f, -0.01101497f, 0.09850296f, -0.07989693f, -0.08950099f, -0.03222113f, 0.12720023f,
    0.19913942f, 0.25646093f, 0.03933242f, 0.10216623f, 0.10257859f, 0.13241750f, 0.19899546f, 0.17978455f,
    0.08850631f, 0.11886548f, 0.03913195f, 0.07229262f, 0.11546110f, -0.02314789f, 0.02430354f, 0.12551452f,
    0.06599917f, 0.07908607f, 0.06112204f, 0.11191567f, 0.11275355f, -0.06548837f, -0.08545957f, -0.06905113f,
    -0.09656154f, -0.17071517f, -0.15979116f, -0.10645735f, -0.04536721f, 0.10733530f, 0.23953933f, 0.20338497f,
    0.17492755f, 0.15220976f, 0.00745933f, -0.01587089f, 0.08234426f, -0.05338485f, -0.02260375f, 0.05750956f,
    0.04587596f, 0.06847735f, 0.04101618f, 0.04151529f, 0.11433753f, 0.07672214f, 0.26058525f, 0.15108380f,
    0.06891245f, 0.11171192f, 0.18144661f, 0.14741555f, 0.17180239f, -0.00977934f, -0.13894837f, -0.29235655f,
    -0.35078707f, 0.11711617f, 0.06552635f, -0.02828724f, -0.06754453f, -0.09928916f, -0.03656645f, 0.02369898f,
    0.05358491f, 0.00512887f, -0.05246200f, 0.02307533f, -0.08678285f, -0.06818692f, -0.12578923f, -0.11459366f,
    -0.05929688f, 0.04590764f, 0.13076627f, 0.03411590f, -0.06258034f, -0.04808682f, 0.01071701f, -0.03753873f,
    0.16096571f, 0.41884926f, 0.17913750f, 0.20095339f, 0.05526979f, 0.02422595f, 0.01827327f, 0.02412920f,
    0.06518159f, -0.05586820f, -0.23563895f, -0.32228231f, -0.25172910f, 0.11511590f, 0.09452873f, -0.01273318f,
    0.11027550f, 0.04591872f, 0.18948357f, 0.16519848f, 0.19581205f, 0.09420163f, 0.05076278f, 0.02430477f,
    0.02652819f, -0.07934483f, -0.28904498f, -0.43659917f, -0.26602799f, 0.02814729f, 0.02406659f, -0.05083056f,
    -0.08295152f, 0.00892073f, -0.06843620f, -0.05364744f, 0.01664896f, -0.07953160f, 0.03921618f, 0.01279648f,
    0.06172984f, -0.05364216f, -0.28077877f, -0.61316776f, -1.11122262f, -0.19308938f, -0.13182150f, -0.02904329f,
    -0.00636390f, 0.18803537f, 0.15435418f, 0.29391834f, 0.29936677f, 0.17451766f, 0.09084754f, 0.17823194f,
    0.09182698f, 0.04756045f, 0.10150417f, 0.04440919f, 0.06239576f, 0.08601296f, 0.06111524f, -0.08207064f,
    -0.08088561f, 0.00539851f, 0.05015975f, 0.12113742f, -0.03612376f, -0.10349322f, -0.07519316f, -0.04860327f,
    0.11509849f, 0.00646793f, 0.06412236f, 0.13674471f, 0.01268203f, -0.08675321f, -0.11214007f, -0.13652237f,
    0.02125693f, 0.00329422f, 0.04022614f, 0.13970880f, 0.10258164f, 0.14004961f, 0.14657199f, 0.17135260f,
    0.10384595f, 0.09567723f, 0.18367055f, 0.11675654f, 0.11599270f, 0.10153641f, -0.19022305f, -0.22991434f,
    -0.11673452f, -0.06412385f, 0.07484527f, 0.03746438f, 0.09468910f, 0.13091542f, 0.07077143f, 0.07971865f,
    -0.04584729f, 0.02168954f, -0.01712705f, -0.18992355f, -0.13717340f, -0.37122205f, -0.27530786f, -0.11262447f,
    -0.04010516f, -0.13236955f, -0.14997846f, -0.06254610f, 0.04850779f, 0.06981012f, 0.09689596f, 0.19665036f,
    0.18783993f, 0.07151166f, 0.16454913f, 0.24818370f, 0.19307190f, 0.14381205f, 0.05977988f, 0.11153084f,
    0.15288404f, 0.19005805f, 0.08522114f, 0.08859310f, 0.12826183f, 0.20055673f, 0.18891397f, 0.09503184f,
    0.12641621f, -0.00703927f, -0.01042611f, -0.05684947f, -0.03424178f, -0.01651896f, -0.01369319f, -0.75130665f,
    -0.49245450f, -0.38926640f, -0.15031672f, 0.00696817f, 0.03222843f, 0.02635293f, 0.02078697f, 0.08254923f,
    0.16659078f, 0.21935089f, 0.21558701f, 0.17973316f, 0.08876130f, 0.04827697f, 0.04033885f, 0.00669491f,
    -0.03331362f, -0.06648990f, -0.14055450f, -0.04714782f, -0.00202449f, 0.11721766f, -0.01351230f, 0.11018153f,
    0.10035848f, 0.19078872f, 0.36629719f, 0.32209602f, 0.12712151f, -0.01685079f, -0.05730475f, 0.06501517f,
    -0.07049973f, 0.06334759f, 0.00740327f, -0.02710681f, 0.03066618f, 0.05115644f, 0.01740646f, 0.03465028f,
    -0.36576939f, -0.39865085f, -0.29153919f, -0.13044010f, 0.11991293f, 0.16786857f, 0.16525817f, 0.00185364f,
    -0.16208602f, 0.00866624f, 0.02421481f, -0.11951325f, 0.06273715f, 0.08879680f, 0.03812085f, 0.10695345f,
    0.12181357f, -0.05733462f, 0.38471982f, 0.20649932f, -0.14222319f, -0.30157876f, -0.15917803f, -0.04747847f,
    0.25846985f, 0.39557576f, 0.23210432f, -0.17584701f, -0.15605904f, 0.08653692f, 0.11185136f, 0.13000581f,
    -0.09712451f, -0.09150901f, -0.03948759f, -0.04060864f, -0.15024246f, -0.04185104f, 0.02594566f, 0.09864972f,
    0.06821422f, -0.00082204f, -0.13965848f, -0.16023713f, 0.12927191f, 0.04103110f, 0.05775351f, 0.04517012f,
    0.00363864f, 0.02670281f, 0.06077943f, 0.00514490f, -0.00830388f, 0.01068642f, -0.06175872f, 0.29811516f,
    0.35337695f, 0.27504408f, 0.03720596f, -0.18481117f, -0.08057003f, -0.11905462f, -0.02362702f, 0.46082461f,
    0.09326398f, -0.24327791f, -0.30161628f, -0.28885078f, -0.11785627f, 0.09348578f, 0.20121795f, 0.17783560f,
    -0.23519620f, -0.03421167f, 0.22345769f, 0.66386044f, 0.74438947f, 0.30131462f, -0.10428084f, -0.30548880f,
    -0.46800765f, 0.17788175f, 0.14896554f, 0.19395320f, 0.08297603f, -0.11982618f, 0.00224924f, 0.20878330f,
    0.58172256f, 0.74576849f, 0.02031134f, 0.14919426f, 0.15207197f, 0.07980049f, -0.02338132f, -0.11412582f,
    -0.15266438f, -0.00743818f, 0.27462748f, 0.00594058f, 0.02414731f, -0.22328764f, -0.32922357f, -0.30990285f,
    -0.22981006f, -0.08869173f, 0.16487105f, 0.30508026f, -0.01387911f, -0.06677943f, -0.05509755f, 0.05461284f,
    0.09245367f, 0.11889506f, 0.00559827f, -0.20527744f, -0.20958753f, 0.25370905f, 0.00368747f, -0.07261778f,
    -0.17419362f, 0.04886653f, 0.15672119f, 0.14674553f, 0.06787077f, -0.06625048f, -0.00487088f, 0.17542301f,
    0.19432302f, 0.23435654f, -0.02631176f, -0.19874215f, -0.24047020f, -0.29745618f, 0.01080740f, -0.07413693f,
    0.02814188f, -0.05436050f, 0.07398794f, 0.07214866f, -0.04489989f, 0.07904807f, 0.03940503f, -0.07877217f,
    0.15392984f, 0.14860073f, 0.15023771f, -0.01663639f, -0.20083998f, -0.54316485f, -1.01832628f, -0.29454604f,
    -0.04006598f, 0.04927921f, 0.14572932f, 0.02816384f, 0.17484781f, 0.30542865f, 0.29854909f, 0.12882628f,
    0.15943654f, 0.14777343f, -0.04727089f, -0.04412934f, 0.07059499f, 0.14231195f, 0.05053295f, 0.15230943f,
    0.03098239f, -0.05848135f, -0.08431645f, 0.07076302f, 0.05434724f, -0.10596692f, -0.15951252f, -0.14841028f,
    -0.13096449f, -0.00760474f, 0.01692220f, 0.16900040f, -0.08818171f, -0.04766395f, -0.05239688f, -0.10552046f,
    -0.14926478f, -0.09241460f, -0.08194403f, 0.03165938f, 0.13041022f, 0.09224030f, 0.16133733f, 0.16634394f,
    -0.00100241f, 0.08561327f, 0.09995708f, 0.20502478f, 0.34368858f, 0.09130791f, -0.21818905f, -0.23353912f,
    -0.19659503f, -0.16904843f, -0.08288618f, 0.11233494f, 0.08264342f, 0.20850818f, 0.23690529f, -0.00224701f,
    0.08854165f, 0.05879382f, 0.13143653f, 0.11922731f, -0.08821417f, -0.12956475f, -0.32819292f, -0.35431919f,
    0.07686031f, -0.03358405f, -0.05744850f, -0.16132106f, -0.28185442f, -0.23685527f, 0.01329232f, 0.15825261f,
    0.36014691f, -0.01174032f, 0.04121221f, 0.06462287f, 0.15334070f, 0.13675369f, 0.23598193f, 0.17215526f,
    0.09927529f, -0.02402775f, 0.00506216f, 0.06703778f, 0.06115139f, 0.15154465f, 0.12420929f, 0.24177510f,
    0.26529545f, 0.10227271f, 0.07126264f, 0.06190734f, 0.00073324f, -0.02648912f, -0.02430769f, -0.00793214f,
    0.09802311f, -0.05959736f, -0.40118814f, -0.20949753f, 0.15027514f, 0.02678341f, 0.13725263f, -0.00864281f,
    0.10105336f, 0.00506680f, 0.04980876f, 0.16810228f, 0.29147646f, -0.08750746f, 0.00750049f, -0.00111467f,
    0.12569280f, -0.00339621f, -0.06246389f, -0.09143197f, -0.20594457f, -0.10849140f, 0.05109996f, 0.09326442f,
    0.04655606f, -0.02094408f, 0.09191006f, 0.28593519f, 0.46566197f, 0.38136697f, -0.02958292f, -0.07494535f,
    -0.00572944f, -0.04031624f, -0.00029263f, -0.07379635f, 0.03259096f, 0.05440906f, -0.06380688f, -0.06657510f,
    0.04054749f, -0.10579160f, -0.02049586f, 0.16672419f, 0.26058069f, 0.36952037f, 0.31464881f, 0.15705080f,
    0.19016302f, -0.08226883f, -0.12300441f, -0.09452905f, -0.28170484f, -0.36436933f, -0.13902199f, -0.07749822f,
    -0.03084515f, -0.01678748f, 0.03229376f, 0.12183230f, -0.01405017f, -0.01002250f, 0.07001816f, 0.10219477f,
    0.24457340f, 0.30827615f, 0.12597683f, -0.01610639f, 0.16446757f, 0.16017228f, 0.17532575f, 0.19967426f,
    0.09548573f, 0.19168136f, 0.06421923f, -0.00807206f, 0.07715392f, 0.05947935f, 0.19003759f, 0.09898775f,
    0.14676692f, 0.17080055f, 0.05049275f, -0.00197277f, 0.08181588f, 0.01546193f, -0.12553978f, 0.00152656f,
    0.01692007f, -0.01122059f, -0.11997860f, -0.08964494f, -0.01405014f, 0.07588267f, 0.16525383f, 0.26548865f,
    0.30546716f, 0.16477735f, 0.12278161f, 0.02101010f, 0.01940804f, 0.03736201f, 0.00361017f, 0.08206665f,
    0.06102883f, 0.00444133f, 0.13791728f, 0.13174035f, 0.13261679f, 0.11659531f, 0.21113651f, 0.30717966f,
    0.00867558f, 0.10647014f, 0.13912132f, 0.18453024f, 0.29531261f, 0.08743367f, -0.15311231f, -0.19740161f,
    -0.37706262f, 0.12670942f, 0.06541520f, 0.10709617f, -0.07161530f, -0.13613270f, -0.02888522f, -0.06734943f,
    -0.00511202f, 0.09254539f, 0.01745460f, -0.02296388f, -0.03908359f, 0.03196813f, -0.06609127f, -0.18388335f,
    -0.12802368f, -0.08160330f, 0.09172215f, 0.06038775f, -0.01819792f, 0.09136006f, 0.07546538f, -0.03171236f,
    0.22821788f, 0.54790032f, 0.45619756f, 0.25696763f, 0.02522761f, 0.10509787f, 0.06550676f, 0.01102197f,
    -0.04340521f, 0.05092435f, -0.10153347f, -0.17605570f, -0.28342986f, 0.03835180f, 0.06690148f, 0.07289083f,
    -0.00799646f, 0.15996872f, 0.08163130f, 0.09400913f, 0.14517909f, 0.14943542f, 0.06117870f, 0.13032006f,
    0.10273916f, -0.08656399f, -0.14706045f, -0.36814618f, -0.62415183f, -0.24354780f, -0.03632467f, -0.01071292f,
    -0.07052566f, 0.03867192f, 0.09228524f, -0.05308884f, 0.01532277f, -0.00768323f, -0.07204415f, 0.05923904f,
    0.18503496f, 0.68090802f, 0.56263489f, 0.22878051f, 0.12782338f, 0.04233083f, 0.09009884f, 0.13960057f,
    0.13585325f, -0.42195836f, -0.18761359f, -0.17909570f, -0.03257207f, 0.01554681f, -0.10894164f, -0.01477168f,
    0.01573680f, 0.08873574f, -0.04385838f, -0.01096942f, 0.10532884f, 0.29930797f, 0.20484291f, 0.18244447f,
    0.08284658f, 0.03540573f, 0.04690976f, 0.14628372f, 0.13012151f, 0.14397886f, 0.01722874f, 0.00414598f,
    -0.03839220f, 0.08591615f, -0.03029850f, -0.06442003f, 0.12540437f, 0.12286241f, 0.01840991f, 0.06999328f,
    -0.03357972f, -0.01951439f, 0.04843796f, -0.01858984f, 0.01818930f, -0.00046984f, -0.04547839f, -0.09989648f,
    -0.18337460f, -0.05589222f, -0.00106261f, 0.06280982f, 0.14112705f, 0.14703250f, 0.04959373f, -0.03486735f,
    0.06721042f, -0.07610456f, 0.03768537f, 0.03808583f, 0.05343035f, 0.01911416f, -0.05275086f, 0.02173893f,
    0.07842306f, 0.07314710f, 0.15781000f, 0.31623280f, 0.25591558f, 0.16583447f, 0.10211740f, 0.05532829f,
    0.19985606f, 0.09406443f, -0.05112276f, -0.23451997f, -0.39201456f, -0.43552399f, -0.13833153f, 0.56155056f,
    0.43124720f, -0.18632333f, -0.08404450f, -0.01698994f, 0.08639097f, 0.13249741f, 0.07159666f, 0.08034138f,
    -0.01226542f, 0.00150161f, -0.11137693f, -0.30757436f, -0.17611191f, -0.16584796f, 0.00153266f, 0.08630593f,
    0.02065033f, 0.03716441f, -0.01211004f, 0.02744977f, 0.02323758f, 0.14599234f, 0.26769447f, 0.33606482f,
    0.21742468f, 0.15281209f, 0.01593422f, 0.01166938f, 0.07128078f, -0.04671067f, -0.06574941f, -0.20004395f,
    -0.28400514f, -0.23329800f, -0.10475884f, -0.00024625f, 0.08878168f, 0.05079746f, 0.13193393f, 0.16564533f,
    0.23756482f, 0.16899990f, 0.16607462f, 0.04274661f, 0.03551779f, 0.05104565f, -0.12992491f, -0.37111941f,
    -0.49854654f, -0.29690143f, -0.03201691f, 0.04677664f, 0.11413310f, 0.11374458f, 0.06668624f, -0.03017222f,
    0.03691043f, -0.08439564f, -0.05417531f, 0.04141007f, -0.04857948f, -0.07658305f, -0.05644729f, -0.00764285f,
    -0.01057562f, -0.00029555f, 0.02509802f, 0.04908548f, -0.00227419f, 0.00364188f, 0.08194106f, 0.03388549f,
    0.03102669f, -0.08059471f, -0.00875247f, 0.06686202f, 0.05870975f, 0.01027913f, 0.00170610f, -0.00603899f,
    -0.01665387f, 0.05125109f, -0.00888529f, -0.05210476f, -0.06105149f, -0.03619316f, 0.03033737f, 0.01489497f,
    -0.03607988f, -0.04704818f, -0.00241113f, 0.00897625f, -0.02216901f, -0.02391833f, 0.03846508f, -0.06866880f,
    0.01155255f, -0.05490369f, 0.01638740f, -0.00954831f, -0.00229520f, -0.08096975f, -0.04157053f, 0.05032254f,
    0.03671356f, -0.05706987f, -0.03196069f, 0.07793125f, -0.03673285f, 0.01315194f, -0.08102082f, 0.07005809f,
    -0.06236343f, -0.04810118f, -0.02309179f, 0.05192656f, 0.07551224f, 0.01217398f, -0.08042662f, -0.02838317f,
    -0.02529454f, -0.08069174f, 0.05979494f, 0.00924659f, -0.04801684f, 0.05590535f, 0.06409458f, -0.00799198f,
    -0.00353190f, 0.02593821f, -0.07109716f, -0.01664179f, -0.02362094f, -0.04863574f, 0.07652909f, -0.04171413f,
    -0.03132098f, -0.03240048f, -0.05183927f, 0.05091418f, -0.03409554f, -0.03936526f, -0.06852196f, -0.06703056f,
    -0.05346493f, 0.02490890f, -0.06014640f, 0.01565628f, -0.07195472f, -0.01744033f, 0.01504939f, -0.05005576f,
    -0.05741834f, 0.05309191f, 0.05992424f, -0.06011757f, 0.07084204f, 0.04951059f, -0.07040214f, 0.05108010f,
    -0.00161984f, -0.04413928f, -0.00175143f, 0.02741949f, 0.06427170f, 0.06071737f, 0.06092031f, 0.06828690f,
    -0.06443603f, -0.06439253f, -0.02515937f, 0.04763474f, 0.04091945f, 0.03763700f, -0.05359053f, -0.07307642f,
    -0.06625211f, -0.05214527f, -0.01652912f, 0.02197444f, -0.01494416f, -0.02095835f, -0.04235078f, -0.01881772f,
    -0.08111033f, 0.00796974f, 0.07539480f, -0.05144455f, -0.03831412f, -0.05222668f, 0.04167857f, 0.04761855f,
    -0.02355225f, -0.07992388f, -0.05142834f, -0.07369047f, 0.07782666f, -0.08310163f, -0.06402874f, -0.04884225f,
    -0.05091403f, -0.06381620f, 0.04882336f, 0.07610605f, -0.06886852f, 0.03875215f, -0.06824224f, 0.00109944f,
    -0.00118757f, 0.07452222f, 0.13853279f, 0.18262029f, 0.25036508f, 0.18217316f, 0.10962466f, 0.15074022f,
    0.05038023f, -0.10932846f, -0.36592093f, -0.37063664f, -0.20277689f, -0.10046625f, -0.00809609f, -0.01623439f,
    0.01941472f, -0.04370854f, 0.00936769f, 0.09164594f, 0.08286510f, 0.14012988f, 0.07539954f, 0.12932611f,
    0.14404550f, 0.08148757f, 0.03702018f, 0.12144434f, 0.07964791f, 0.13552038f, 0.08021905f, 0.17889741f,
    0.03737278f, 0.07899334f, 0.10225847f, 0.00429775f, 0.12437804f, 0.09006672f, 0.05122193f, 0.14309576f,
    0.14232065f, 0.10048494f, -0.00461926f, 0.11238506f, 0.03511560f, -0.00501672f, -0.03313521f, 0.00325345f,
    -0.10619771f, -0.08903489f, -0.09000790f, 0.05440493f, 0.06289432f, 0.13738979f, 0.23053947f, 0.09980682f,
    0.02535199f, -0.00818647f, -0.02793547f, -0.02244012f, -0.01900158f, 0.11225275f, 0.10111752f, 0.14270306f,
    0.04059922f, 0.11949840f, 0.04116804f, 0.06380516f, 0.12271728f, 0.22565041f, 0.22746681f, 0.19810218f,
    0.20907024f, 0.13331063f, 0.08427069f, 0.03624507f, 0.05098028f, -0.10459317f, -0.34072578f, -0.29738384f,
    0.10368207f, 0.09142765f, -0.00108214f, -0.12845396f, -0.04446148f, -0.01018137f, 0.08861957f, 0.03147774f,
    0.04493175f, 0.08115857f, 0.02002917f, 0.00829889f, -0.15175717f, -0.16185056f, -0.14064039f, -0.02639436f,
    -0.03837494f, 0.06892072f, 0.09154376f, -0.01342755f, 0.10289528f, 0.01808441f, 0.12426743f, 0.11794455f,
    0.29049990f, 0.16759825f, 0.15982416f, 0.08678460f, 0.05003930f, 0.03661830f, 0.02994405f, -0.03085839f,
    -0.11632796f, -0.21493663f, -0.25600180f, -0.07273588f, -0.10738308f, 0.04787459f, -0.02123014f, -0.00280677f,
    0.13981955f, 0.13945869f, 0.10050078f, 0.13117006f, 0.13478874f, 0.01075487f, 0.07241624f, -0.05478618f,
    -0.13151655f, -0.31940094f, -0.34324551f, -0.19903344f, -0.04918811f, 0.14868456f, 0.07932065f, 0.01288425f,
    0.05862053f, 0.03075954f, 0.07796122f, -0.08274405f, 0.06577279f, 0.06011908f, -0.07102554f, 0.05222202f,
    0.49203044f, 0.71960741f, 0.28023893f, 0.06024140f, -0.01282135f, 0.06576862f, 0.06218102f, 0.04191215f,
    0.11429656f, -0.37923789f, -0.15187973f, -0.11343592f, -0.03804678f, 0.05473539f, 0.04350742f, 0.00510563f,
    0.06752293f, 0.16470292f, -0.15215436f, 0.01134528f, 0.25708279f, 0.36673781f, 0.19949988f, 0.14418513f,
    -0.01449519f, 0.06356748f, -0.01052428f, 0.24428651f, 0.22340195f, 0.10180897f, 0.02920194f, -0.04698708f,
    -0.06882761f, 0.06827545f, 0.02377104f, 0.04333149f, 0.12346002f, 0.09455530f, 0.06754032f, 0.01088111f,
    -0.06264754f, 0.07757928f, 0.04151305f, -0.03201229f, -0.06474194f, 0.01383470f, -0.05674582f, -0.11709796f,
    -0.06393719f, -0.02552681f, 0.05917656f, 0.09620476f, 0.07957234f, 0.06335194f, 0.01866510f, 0.05083554f,
    -0.03477746f, -0.04718326f, 0.07808706f, 0.11244283f, 0.07565702f, 0.06031778f, 0.06075321f, -0.00296657f,
    -0.04187314f, 0.15040360f, 0.24439824f, 0.33777025f, 0.18245204f, 0.10142250f, 0.09465830f, 0.06928495f,
    0.18084888f, 0.14865115f, -0.10539407f, -0.19475816f, -0.37976038f, -0.43518373f, 0.08599902f, 0.54587609f,
    0.50527912f, -0.10321484f, -0.13535015f, -0.01043437f, 0.00030111f, 0.00553304f, 0.05380402f, 0.09213389f,
    -0.08152542f, 0.00601747f, -0.19125587f, -0.24495503f, -0.22482604f, -0.00841650f, 0.13269882f, 0.08816991f,
    0.11814286f, 0.11307304f, 0.01400228f, -0.06610435f, -0.10003547f, 0.05822196f, 0.19210577f, 0.26070145f,
    0.15352505f, 0.14948401f, 0.09334964f, -0.06067552f, 0.03631813f, -0.01208867f, -0.01477727f, -0.20772499f,
    -0.28813034f, -0.13018562f, 0.04461612f, 0.06226968f, 0.11852333f, -0.10580398f, 0.16780107f, 0.28157601f,
    0.17899841f, 0.12920476f, 0.11164848f, 0.14443497f, -0.01145173f, 0.07408983f, -0.03586337f, -0.37458408f,
    -0.57572788f, -0.33212283f, -0.09913232f, 0.03484365f, 0.17103948f, 0.14210249f, -0.01774281f, -0.07103377f,
    0.07185899f, 0.06305520f, -0.05938504f, -0.05503055f, 0.01593361f, 0.07490855f, 0.06205314f, -0.04863886f,
    -0.00004768f, -0.14737524f, -0.29500970f, -0.26149347f, -0.11826385f, 0.08976836f, 0.27360919f, 0.15923859f,
    0.05102402f, 0.02197555f, 0.14959943f, 0.10617489f, 0.01327858f, 0.02966501f, 0.08169088f, -0.03686200f,
    0.03562571f, -0.00996851f, 0.29689354f, 0.26335099f, 0.17577176f, 0.02545508f, -0.13483483f, -0.19073947f,
    -0.02059853f, 0.10733467f, 0.29305056f, -0.21431951f, -0.19089958f, -0.11502036f, -0.08223750f, 0.09147019f,
    0.19270998f, 0.12125117f, -0.00034649f, 0.05422163f, 0.09057700f, -0.09668433f, 0.08547032f, 0.14193054f,
    0.12884496f, 0.20224176f, 0.17179939f, 0.19099292f, 0.12861972f, -0.27111709f, -0.10286515f, -0.00616904f,
    -0.03396594f, -0.00704488f, 0.02544606f, 0.00740697f, -0.12793973f, -0.08105811f, -0.30937266f, 0.05963733f,
    0.10312127f, 0.27032566f, 0.26525933f, -0.03652014f, -0.12155528f, -0.00931198f, -0.09148946f, 0.45430952f,
    0.25719962f, 0.06702337f, -0.16037184f, -0.25644779f, -0.19987419f, -0.18672879f, -0.04978002f, 0.05980768f,
    -0.41706103f, -0.45159164f, -0.25758308f, -0.13585041f, 0.22737093f, 0.50447124f, 0.34382784f, 0.10122906f,
    -0.23548318f, -0.04537527f, 0.07689700f, 0.10208429f, 0.15386970f, 0.00749774f, -0.01362323f, -0.16088390f,
    -0.09439234f, 0.10210740f, -0.19568342f, 0.00257559f, 0.02527827f, 0.05620784f, 0.11498338f, 0.01365153f,
    -0.11575703f, -0.22597499f, -0.23889354f, 0.26270670f, 0.01234096f, 0.01140915f, 0.00619314f, -0.23112012f,
    -0.12264413f, -0.09759124f, 0.00898398f, 0.10357040f, -0.08251046f, -0.12066837f, -0.18509874f, -0.09491499f,
    0.06765610f, 0.18467453f, 0.11993516f, 0.04065711f, -0.01478773f, 0.34320682f, 0.17944652f, 0.06474279f,
    -0.18255828f, -0.04196297f, -0.01020294f, 0.12479108f, 0.08601838f, 0.23142308f, -0.28984952f, -0.13830468f,
    0.00873845f, 0.16924246f, 0.16590109f, -0.04244675f, -0.09449667f, -0.17819311f, -0.17442077f, -0.07817584f,
    -0.08586187f, 0.03350998f, -0.03099865f, -0.03924750f, 0.02088021f, 0.02894289f, 0.00723614f, -0.03609417f,
    -0.00074196f, -0.13650794f, -0.33996466f, -0.75467700f, -0.30211613f, -0.08895939f, -0.08008366f, -0.00066485f,
    -0.01702571f, 0.16683327f, 0.32181498f, 0.26405922f, 0.12866634f, 0.13091929f, 0.06633636f, 0.09818168f,
    0.06005123f, 0.02175579f, 0.06230040f, 0.11062213f, 0.13383266f, 0.00271490f, -0.03413885f, -0.13078736f,
    0.00652618f, 0.08043921f, 0.09852514f, 0.05340426f, -0.13027604f, -0.09188906f, -0.03659182f, -0.01115467f,
    0.11683127f, 0.03975931f, 0.11352146f, -0.00626471f, -0.01342211f, -0.02076382f, -0.13005109f, -0.03006772f,
    0.01039232f, 0.06414216f, 0.05084950f, -0.00221246f, 0.12522565f, 0.18499611f, 0.07401375f, 0.02999330f,
    0.12685998f, 0.04679435f, 0.12755376f, 0.10353876f, -0.04802313f, -0.03914622f, -0.12013788f, -0.03299437f,
    0.04836034f, 0.01254888f, 0.05621328f, 0.13186671f, -0.02814772f, 0.08459745f, -0.01999863f, 0.01965826f,
    0.05162154f, 0.04638260f, -0.08771724f, -0.19504480f, -0.21352510f, -0.21647270f, -0.16682607f, -0.07601681f,
    -0.06425391f, -0.07605017f, -0.04859306f, -0.01001711f, 0.13366532f, 0.13308202f, 0.21165781f, 0.12238542f,
    -0.16269244f, 0.01482502f, 0.13856515f, 0.06867333f, 0.14185481f, 0.14349110f, 0.01985852f, 0.12687287f,
    0.04291169f, 0.07241184f, 0.09443952f, 0.13817763f, 0.14088932f, 0.17683131f, 0.10652462f, 0.10356140f,
    0.01925000f, -0.04326802f, 0.10478118f, -0.02796368f, -0.03698829f, 0.12772797f, -0.16114199f, -0.53346753f,
    -0.23544124f, -0.25094339f, -0.01481090f, 0.04203120f, 0.05871242f, 0.10523546f, 0.07364599f, 0.07370198f,
    0.12975393f, 0.21869951f, 0.12440956f, 0.08400307f, 0.09860189f, 0.03955054f, -0.00483244f, -0.05993803f,
    -0.09136525f, -0.01651585f, -0.06360442f, -0.01251889f, -0.05790588f, 0.08362333f, 0.13943566f, -0.00241719f,
    0.05932071f, 0.19861946f, 0.36143297f, 0.04042871f, -0.03079197f, -0.07719387f, 0.07077483f, 0.03270656f,
    0.02090267f, -0.03473835f, -0.00385067f, 0.07054572f, -0.06786701f, -0.00047181f, 0.05403752f, -0.07676549f,
    -0.03180173f, 0.07642723f, -0.00076348f, 0.07413883f, -0.01062739f, 0.05257165f, -0.04366700f, 0.00605864f,
    0.06870366f, -0.07384092f, -0.01106903f, -0.04203784f, -0.06322967f, -0.01644826f, -0.07076445f, 0.07212219f,
    0.02699559f, 0.05914406f, 0.06267445f, 0.03648639f, -0.05555709f, -0.02954187f, -0.02525692f, -0.04519362f,
    0.02186695f, 0.03527969f, 0.06295845f, -0.04445144f, -0.06734547f, -0.06130143f, -0.01829673f, 0.07503031f,
    -0.02454671f, -0.08928204f, -0.06100903f, -0.00640352f, -0.07057807f, 0.04862622f, -0.05905346f, 0.05797332f,
    -0.04953016f, 0.06909250f, 0.04054268f, -0.03548591f, -0.03330860f, 0.03307012f, -0.04182100f, 0.01957213f,
    -0.01722926f, -0.05173018f, 0.05055061f, -0.08595955f, 0.03575859f, 0.07370911f, -0.03207847f, 0.01529261f,
    -0.06108755f, -0.05511940f, 0.04968491f, -0.02752532f, 0.06611363f, -0.08233343f, -0.06348629f, 0.01657575f,
    -0.06616406f, -0.05211769f, 0.00016009f, -0.05896180f, -0.06040276f, -0.01519730f, 0.04848354f, -0.01523989f,
    0.03651366f, 0.03839887f, 0.03650134f, 0.00727480f, -0.07151239f, -0.07054643f, -0.04740375f, 0.03710029f,
    0.07248434f, -0.06057220f, 0.03539146f, 0.00697833f, 0.06278767f, -0.03933338f, 0.03811657f, -0.06856709f,
    0.03687996f, -0.04508790f, -0.00914997f, 0.01128942f, 0.04454100f, 0.05750765f, 0.06895129f, 0.03256236f,
    0.03911260f, -0.04267389f, 0.00119151f, -0.05998978f, 0.00749093f, 0.00839575f, 0.03381766f, 0.02076041f,
    -0.04667120f, -0.04541533f, -0.05808684f, 0.03133199f, -0.07066147f, -0.01409881f, 0.00821525f, 0.05107957f,
    -0.03777283f, -0.08859180f, 0.07353466f, -0.06807940f, -0.06987364f, -0.06488351f, 0.04358967f, 0.00197872f,
    -0.06544425f, -0.01456059f, -0.08179321f, 0.03355954f, 0.02804226f, 0.05038584f, 0.03628638f, -0.05805665f,
    0.05765627f, 0.04616811f, 0.06313761f, -0.04643004f, 0.02685622f, -0.00113459f, 0.04691695f, -0.03926964f,
    0.04570401f, -0.03957909f, 0.06034959f, -0.07268953f, 0.01900677f, -0.07636940f, -0.01350511f, -0.05044092f,
    0.03981961f, 0.02261773f, 0.03199148f, 0.20452896f, 0.25102699f, 0.17314273f, 0.19302748f, 0.18759939f,
    0.08557855f, -0.18925729f, -0.26244113f, -0.46555880f, -0.13535602f, -0.08577430f, -0.06522626f, -0.02688692f,
    -0.00566511f, -0.04272911f, 0.11638094f, 0.11988738f, 0.08530718f, 0.12983964f, 0.03466206f, 0.21708374f,
    0.15902460f, 0.15387778f, 0.06520321f, 0.12847570f, 0.13978133f, 0.09816650f, 0.20482470f, 0.16886625f,
    0.08316100f, 0.04424684f, 0.00829242f, 0.11819223f, -0.00089214f, 0.05049747f, 0.12627217f, 0.16813046f,
    0.13406493f, -0.02955191f, -0.03025286f, 0.03216532f, 0.04848743f, -0.12811275f, -0.03481632f, 0.03538346f,
    0.03872658f, 0.00496911f, 0.01720006f, 0.09209374f, 0.06370474f, 0.14444394f, 0.13864405f, 0.18689516f,
    0.09034916f, 0.05362083f, 0.07297780f, -0.04210593f, 0.09829389f, 0.04497327f, 0.04511092f, 0.02853303f,
    -0.02589353f, -0.01338978f, 0.06046129f, 0.03461319f, 0.11142201f, 0.17369458f, 0.12316986f, 0.09315017f,
    0.18278162f, 0.16763161f, 0.14886829f, 0.01850009f, 0.03573561f, -0.17639193f, -0.29375038f, -0.42498913f,
    -0.21327376f, 0.08734762f, -0.04132795f, -0.11235513f, -0.14808905f, 0.00371185f, 0.08009368f, 0.10769326f,
    0.09611396f, 0.00578975f, -0.07412841f, -0.08141217f, -0.05297378f, -0.16522527f, -0.09865754f, -0.16789258f,
    -0.04478537f, 0.05370464f, 0.14922649f, 0.03076000f, 0.05248093f, 0.01523728f, 0.10684478f, 0.26255840f,
    0.23893209f, 0.24795389f, 0.07930318f, 0.11261301f, 0.05357890f, -0.08180625f, -0.06608531f, -0.09867503f,
    -0.12150725f, -0.12502632f, -0.19970515f, -0.23865746f, -0.13564304f, -0.01183866f, 0.03186326f, -0.01771991f,
    0.17370784f, 0.04822036f, 0.18770880f, 0.06782029f, 0.03903278f, 0.14755477f, 0.08649726f, 0.01118792f,
    -0.06229320f, -0.19346830f, -0.48601845f, -0.36981577f, -0.10389856f, 0.13015077f, 0.06248411f, 0.03265524f,
    -0.03108780f, -0.06057069f, -0.02402036f, 0.06120196f, 0.06705183f, 0.05123141f, -0.04812869f, 0.04454080f,
    0.08446290f, 0.02667792f, 0.00130281f, -0.36958423f, -0.70548290f, -0.54952145f, -0.05977189f, 0.07751667f,
    0.09746106f, 0.07560260f, 0.04648829f, 0.24742146f, 0.22603473f, 0.11910187f, 0.11105377f, 0.08456434f,
    0.15976074f, 0.07616097f, 0.04554134f, 0.04704337f, 0.18007402f, 0.05346484f, 0.11680220f, 0.03271043f,
    -0.13230242f, 0.02087771f, -0.00283635f, 0.05981745f, -0.06821740f, -0.08377178f, -0.06283506f, 0.04821058f,
    -0.01882129f, 0.05042477f, 0.14705700f, 0.08088809f, -0.06476445f, -0.01161769f, -0.13436440f, -0.07781417f,
    -0.05318740f, 0.07527789f, 0.09310901f, 0.00528587f, -0.00046080f, 0.03131516f, 0.13616906f, 0.10336442f,
    0.10582403f, 0.13664220f, 0.13416885f, 0.07981214f, -0.00989293f, 0.08396249f, -0.23211840f, -0.26818088f,
    -0.04342606f, 0.02707931f, -0.00689233f, 0.14343834f, 0.06296878f, 0.13865116f, 0.09053665f, 0.08134981f,
    0.06266887f, 0.06398833f, -0.10555711f, -0.03184376f, -0.19163845f, -0.31813830f, -0.43634334f, -0.35407850f,
    0.09354234f, -0.15869530f, -0.05639653f, -0.20312823f, -0.02182192f, 0.01234799f, 0.11642150f, 0.26183155f,
    0.22732162f, 0.06010615f, 0.09301347f, 0.09824822f, 0.11319908f, 0.18242747f, 0.08126197f, 0.09076964f,
    0.11259099f, 0.06962398f, 0.01100286f, 0.05807175f, 0.03338559f, 0.14572136f, 0.22117025f, 0.08572972f,
    0.03495228f, 0.08627483f, -0.03241084f, 0.08753752f, 0.01188480f, 0.00520375f, 0.06671209f, 0.22978970f,
    -0.38197124f, -0.28595233f, -0.18891102f, -0.10777964f, 0.12709753f, 0.09981734f, 0.08187956f, 0.12212157f,
    0.03266039f, 0.04786794f, 0.08731440f, 0.18252522f, 0.14500339f, 0.04110882f, 0.03661839f, 0.04715210f,
    -0.00603753f, -0.16131675f, -0.20161225f, -0.03172154f, -0.02496516f, -0.03259634f, 0.00072860f, 0.04516913f,
    0.07591977f, 0.01263187f, 0.24113630f, 0.28371927f, 0.09862648f, 0.05347184f, -0.04873196f, 0.01932847f,
    -0.07659029f, -0.02160735f, 0.04690745f, 0.04490908f, 0.03195667f, -0.07500003f, -0.07361788f, -0.04611920f,
    0.13001205f, 0.08198473f, -0.19289586f, -0.56646907f, -0.93985832f, -0.34886783f, -0.01094290f, -0.02134613f,
    -0.01537310f, 0.10754444f, 0.08880774f, 0.17749521f, 0.20625769f, 0.15208505f, 0.13087595f, 0.11321147f,
    0.23580568f, 0.11123754f, 0.07459967f, 0.10883653f, 0.02259045f, 0.11445086f, -0.02135350f, -0.11782388f,
    -0.03560963f, 0.06318717f, 0.08932722f, -0.08910391f, -0.08117135f, -0.11641604f, -0.04006281f, 0.06206236f,
    0.01801288f, 0.09443963f, 0.04435836f, 0.11226609f, -0.08748900f, -0.10664161f, -0.10996516f, -0.11279006f,
    -0.09887667f, 0.01389967f, -0.00143989f, 0.10023514f, 0.03609126f, 0.19029431f, 0.09716843f, 0.14130177f,
    0.13746375f, 0.10030597f, 0.03627906f, 0.09305925f, -0.06440672f, 0.07369413f, -0.23146123f, -0.11681629f,
    -0.11007885f, -0.07000652f, -0.05198297f, -0.02343218f, 0.11590759f, 0.12374573f, 0.06491374f, 0.02026623f,
    0.04679818f, -0.06819776f, 0.00943443f, -0.06747551f, -0.15098840f, -0.21487489f, -0.31838408f, -0.17949931f,
    -0.03799500f, -0.05836539f, -0.06568140f, -0.09039340f, 0.03360028f, 0.12894608f, 0.16909465f, 0.17177297f,
    0.15780914f, 0.02225963f, 0.01351080f, 0.20062764f, 0.12008373f, 0.04557898f, 0.10178574f, -0.00911380f,
    0.02232211f, 0.10072703f, 0.10191129f, 0.14545837f, 0.05666900f, 0.19825718f, 0.20645730f, 0.11585331f,
    -0.00328513f, 0.00814575f, -0.01770687f, -0.06064010f, -0.04117510f, 0.11912165f, 0.06691401f, -0.40347403f,
    -0.41980287f, -0.28547660f, -0.17323974f, 0.00805354f, 0.12344941f, 0.18397811f, 0.04800815f, 0.15020840f,
    0.01079345f, 0.13830489f, 0.24260642f, 0.09648713f, 0.13727364f, -0.03496464f, 0.07809655f, -0.02973462f,
    -0.04368528f, -0.06017172f, -0.15911646f, -0.14068867f, -0.04974072f, -0.02463453f, 0.14179344f, 0.00949510f,
    0.09561805f, 0.06450501f, 0.11455350f, 0.20663345f, 0.09862229f, 0.01235905f, -0.09625477f, 0.00014522f,
    -0.02579628f, 0.02241804f, 0.00385810f, -0.04843197f, 0.06232148f, -0.05794415f, 0.00335304f, -0.00007282f,
    -0.08036843f, 0.05989787f, 0.10050689f, 0.15222342f, 0.21049702f, 0.21707574f, 0.14221257f, 0.17475255f,
    0.16105233f, -0.15499508f, -0.32851502f, -0.33012769f, -0.12202241f, -0.02428201f, -0.06947902f, 0.05038405f,
    0.00433919f, 0.01736130f, 0.04463506f, -0.04183117f, -0.01907498f, 0.13037138f, 0.16224790f, 0.13449194f,
    0.08674724f, 0.00839036f, 0.02558795f, 0.14639679f, 0.13216358f, 0.06862794f, 0.11320692f, 0.12406501f,
    0.13941161f, 0.01642290f, -0.02297060f, 0.08356404f, 0.09178371f, 0.00271486f, 0.14360462f, 0.02137727f,
    -0.00974577f, 0.04541978f, 0.07401406f, 0.00138362f, 0.05395954f, -0.05898522f, -0.10613310f, 0.00585967f,
    0.01555403f, -0.11106536f, 0.05288776f, -0.03265401f, 0.04146276f, 0.18593788f, 0.16255359f, 0.08600617f,
    0.02585387f, 0.09356853f, 0.06742742f, 0.03378577f, 0.05679636f, -0.05864034f, 0.09493016f, 0.09124428f,
    -0.02381690f, 0.00442164f, 0.13837638f, 0.14657398f, 0.05096291f, 0.21776074f, 0.21388969f, 0.05369336f,
    0.08871551f, 0.20476794f, 0.09665684f, 0.09580655f, 0.04044152f, -0.19301519f, -0.18328610f, -0.26550865f,
    -0.10590988f, 0.05416725f, 0.07322432f, -0.06574428f, -0.12622905f, 0.00885088f, 0.05298461f, 0.04764001f,
    0.08295039f, 0.05442206f, 0.04250851f, -0.07716022f, -0.10872561f, -0.22544320f, -0.19715574f, 0.01569328f,
    -0.02895614f, 0.07385242f, 0.01129442f, 0.05286553f, -0.02640108f, -0.04340997f, 0.02147325f, 0.26889098f,
    0.16990332f, 0.17757481f, 0.18629374f, -0.00371689f, 0.01282604f, 0.04063123f, -0.07231466f, -0.04814467f,
    -0.04145257f, -0.21122682f, -0.26442036f, -0.15280834f, 0.01690834f, 0.01502401f, 0.02521353f, -0.00072524f,
    0.07355456f, 0.18427002f, 0.02744021f, 0.02705367f, 0.13302931f, 0.09660695f, 0.02315356f, 0.02514993f,
    -0.07876565f, -0.23675896f, -0.42045861f, -0.17694093f, -0.08736501f, 0.04705693f, 0.17386343f, 0.07524803f,
    -0.04725973f, 0.05700800f, 0.03175360f, -0.07068091f, 0.04094279f, 0.00826390f, 0.03978362f, -0.01340709f,
    0.14605699f, 0.12222070f, 0.05513047f, -0.11814095f, -0.48098961f, -0.95556754f, -0.33118740f, -0.08883081f,
    0.04619395f, 0.06878381f, 0.07175063f, 0.17125519f, 0.19053644f, 0.32784399f, 0.17741251f, 0.19798808f,
    0.14624836f, 0.25507262f, -0.04250973f, 0.13779400f, 0.13275047f, 0.08866265f, 0.08560448f, -0.06337189f,
    -0.14656559f, -0.18440594f, -0.09545687f, 0.09104842f, -0.02650447f, -0.01714501f, -0.07249614f, -0.05168580f,
    0.02349791f, -0.02371250f, 0.03046583f, 0.04564762f, -0.10869898f, -0.08043978f, -0.17984521f, -0.13536674f,
    -0.20643415f, -0.02255673f, 0.04148472f, 0.07039613f, 0.13815369f, 0.12154164f, 0.06611325f, 0.18436719f,
    0.03145113f, 0.04665210f, 0.16430108f, 0.14174400f, 0.06521463f, 0.08207535f, -0.30423617f, -0.24032147f,
    -0.18778902f, -0.04740052f, 0.00026195f, 0.09342544f, 0.12636805f, 0.18076807f, 0.11571889f, 0.01634094f,
    -0.01282140f, 0.08774877f, 0.04818166f, -0.03116347f, -0.10941520f, -0.22729176f, -0.32789984f, -0.36902547f,
    0.00675495f, -0.22642197f, -0.17084944f, -0.10817099f, -0.07881533f, -0.03385969f, 0.10910790f, 0.22834978f,
    0.32749677f, 0.03795042f, 0.04994253f, 0.09102793f, 0.17546140f, 0.22630049f, 0.17585836f, 0.11598098f,
    0.06935140f, 0.06227772f, 0.02651012f, 0.02068137f, 0.00732928f, 0.06728903f, 0.23164171f, 0.18644486f,
    0.09268822f, -0.04365879f, 0.05796281f, 0.13475595f, -0.04564417f, 0.10416359f, 0.00041790f, 0.08690576f,
    -0.13207385f, -0.31244507f, -0.19152415f, -0.23206618f, 0.09975158f, 0.10123071f, 0.12340058f, 0.14404939f,
    0.00950256f, 0.06531980f, 0.12307535f, 0.32803208f, 0.20409992f, -0.08264919f, 0.10564074f, 0.10966276f,
    0.03929054f, -0.09813529f, -0.04700584f, -0.21011902f, -0.14911668f, -0.07881394f, 0.04542575f, 0.06608669f,
    0.08967327f, 0.04875769f, 0.10982801f, 0.31943104f, 0.34658584f, 0.06550650f, -0.03780567f, 0.04168792f,
    -0.02570349f, -0.02735422f, 0.04628437f, -0.06200799f, 0.01920521f, -0.03174117f, 0.03753956f, 0.06219596f,
    0.12602505f, 0.19161172f, 0.04139005f, -0.17569003f, -0.34307304f, -0.61342245f, -0.35673273f, -0.05026644f,
    -0.03236743f, 0.02062964f, 0.09367892f, 0.07964953f, 0.06207637f, 0.12774378f, 0.23395994f, 0.20834295f,
    0.18476424f, 0.12009922f, -0.06629778f, 0.00795372f, 0.05052216f, 0.09540217f, 0.02202082f, -0.06460936f,
    -0.15388991f, -0.10642587f, -0.07023352f, 0.11181814f, 0.06263892f, -0.01542685f, -0.09338756f, -0.06045806f,
    0.00338075f, 0.02459629f, 0.11160067f, 0.02855960f, -0.05841260f, 0.00229465f, -0.17816292f, -0.15451290f,
    -0.23299749f, -0.11046401f, 0.02715102f, 0.03865502f, -0.01173249f, 0.11605001f, 0.10456719f, 0.18327373f,
    0.06727769f, 0.08246025f, 0.13709372f, 0.22013922f, 0.08958032f, 0.09922481f, -0.19144975f, -0.28226185f,
    -0.18411641f, -0.12492590f, 0.01013309f, 0.04283451f, 0.08634537f, 0.11798376f, 0.09547085f, -0.06320757f,
    -0.02667594f, 0.05232980f, 0.11165123f, 0.05945978f, -0.04483579f, -0.08947126f, -0.35925758f, -0.43403608f,
    0.00603428f, -0.10067584f, -0.13425960f, -0.17286749f, -0.05101673f, -0.02906908f, 0.05691670f, 0.19186376f,
    0.29308420f, 0.07086759f, 0.02266103f, 0.15084392f, 0.18580087f, 0.20039831f, 0.12555015f, 0.07313338f,
    0.06930584f, 0.11755967f, 0.12093703f, 0.13225637f, 0.11682661f, 0.08315942f, 0.24279267f, 0.28140089f,
    0.16956496f, -0.04803007f, 0.07408451f, -0.00330505f, 0.09973588f, 0.08505999f, 0.07685055f, 0.02667182f,
    -0.22337724f, -0.20674537f, -0.19742088f, -0.12450726f, 0.08143062f, 0.12922160f, 0.11157335f, 0.09241048f,
    0.08559385f, 0.11029997f, 0.18771365f, 0.23553956f, 0.24003173f, -0.03268065f, 0.11322109f, 0.07431811f,
    0.08286057f, -0.11386190f, -0.15327956f, -0.16290762f, -0.17173861f, 0.00545754f, 0.04537215f, 0.03342167f,
    0.00608451f, 0.03086060f, 0.07537168f, 0.26987165f, 0.39533663f, -0.05955429f, -0.10932392f, 0.04720710f,
    -0.05013210f, -0.03544071f, -0.03483734f, 0.01692408f, -0.08114352f, -0.06648602f, -0.00258804f, -0.08867043f,
    -0.09029697f, -0.02426166f, 0.07410777f, 0.15613239f, 0.14413054f, 0.13095540f, 0.11671922f, 0.15169731f,
    0.18421616f, -0.04980591f, -0.19379373f, -0.42722192f, -0.32138923f, -0.11982895f, -0.00147771f, -0.01547190f,
    -0.02125908f, 0.01781483f, 0.04862397f, 0.00819697f, 0.07795379f, 0.03643715f, 0.04093527f, 0.14568688f,
    0.11257449f, 0.05440858f, 0.13598429f, -0.00773082f, 0.07627741f, 0.13774669f, 0.19814897f, 0.03321528f,
    0.10399002f, 0.14775868f, 0.00174658f, -0.00984531f, 0.05374910f, 0.01706904f, 0.10301553f, 0.08907420f,
    0.00850728f, 0.07352063f, 0.09446871f, -0.03132853f, 0.00657716f, -0.14271986f, -0.09283529f, -0.05426339f,
    -0.08565441f, -0.08067922f, 0.00718198f, 0.01930120f, 0.04165921f, 0.15225689f, 0.23134166f, 0.27915594f,
    0.22132601f, 0.15793036f, 0.00213184f, 0.00706731f, 0.00405345f, -0.00148685f, -0.07055680f, 0.07451349f,
    0.15627787f, 0.08662672f, 0.08905429f, 0.14720576f, 0.15009777f, 0.06477779f, 0.17217591f, 0.08517898f,
    0.02904705f, 0.20541999f, 0.26331112f, 0.11154447f, 0.10981415f, 0.05833618f, -0.14070360f, -0.22387518f,
    -0.35303262f, 0.05822581f, 0.09988511f, 0.03973686f, -0.12312612f, -0.10510594f, -0.05705765f, 0.10099771f,
    0.01153497f, 0.09702897f, 0.06774619f, 0.01504362f, -0.05410995f, -0.10402811f, -0.18528560f, -0.19236721f,
    -0.09047274f, -0.00658467f, -0.01102054f, 0.05996801f, -0.00296734f, 0.12371920f, 0.04004467f, 0.01156626f,
    0.29087025f, 0.27689832f, 0.18510786f, 0.18614030f, 0.00997019f, 0.06592155f, -0.04363017f, -0.00526107f,
    -0.02459942f, -0.02054622f, -0.14042932f, -0.30822989f, -0.16666886f, 0.04514822f, 0.13142657f, 0.05459807f,
    0.07794785f, 0.10538339f, 0.15813875f, 0.16567329f, 0.12281608f, 0.11862443f, 0.00143031f, 0.04966175f,
    0.03237303f, -0.06134553f, -0.25875857f, -0.56834012f, -0.33061105f, 0.08757885f, 0.13979936f, -0.01636357f,
    -0.00516839f, 0.05766237f, -0.01692311f, -0.05627160f, -0.05603228f, -0.02233200f, -0.03615107f, -0.01042846f,
    0.04097992f, 0.05451229f, -0.13933152f, -0.58638966f, -1.26716721f, -0.26987761f, -0.04857022f, 0.04775418f,
    -0.01479267f, 0.06088518f, 0.04767913f, 0.18334287f, 0.24929932f, 0.12492971f, 0.12667900f, 0.16850072f,
    0.14880782f, 0.10012308f, -0.04507975f, 0.04218672f, 0.11483365f, 0.16860873f, -0.03392897f, -0.12369049f,
    -0.05328301f, 0.00631469f, 0.06481872f, -0.03647735f, -0.04844613f, -0.12229869f, 0.01080226f, -0.06162099f,
    0.00229372f, 0.08481243f, 0.12426624f, 0.11504342f, -0.02507921f, -0.12466007f, -0.14532758f, -0.17250845f,
    -0.03001109f, 0.02633748f, 0.01703015f, 0.14225386f, 0.09124432f, 0.06707858f, 0.08547804f, 0.06223526f,
    -0.00910769f, 0.07106864f, 0.14591217f, 0.07748755f, 0.08855716f, -0.08759219f, -0.20607300f, -0.20044704f,
    -0.15630542f, -0.02046155f, 0.05083330f, -0.01760128f, 0.14293709f, 0.11948285f, 0.14785729f, -0.00310245f,
    -0.02132154f, 0.02558879f, 0.00045609f, -0.05647738f, -0.23605072f, -0.35157773f, -0.49247843f, -0.11320086f,
    -0.10974974f, -0.15943538f, -0.12891473f, -0.08434080f, -0.12685373f, 0.06164867f, 0.08236391f, 0.11581311f,
    0.16721848f, 0.04020458f, 0.03175430f, 0.15619664f, 0.17142309f, 0.15911350f, 0.08831479f, 0.08848882f,
    0.10655460f, 0.11156411f, 0.11039461f, -0.01590949f, 0.12737705f, 0.17331558f, 0.13187633f, 0.06880878f,
    0.05527574f, 0.04051797f, -0.01271261f, -0.05252679f, -0.05011312f, 0.06027979f, 0.14935423f, -0.08617393f,
    -0.27537620f, -0.21114685f, -0.20040375f, 0.03848432f, 0.09676502f, 0.04580792f, 0.02699129f, -0.00628994f,
    0.14411081f, 0.14992867f, 0.18670030f, 0.13451068f, 0.03978428f, -0.07317936f, 0.04561300f, -0.01152311f,
    -0.09186243f, -0.03507365f, -0.10460218f, -0.02969393f, -0.09746107f, 0.01953716f, -0.02594721f, 0.00752532f,
    0.13057050f, 0.09036183f, 0.20561549f, 0.22963248f, -0.00388211f, -0.06037023f, -0.09334020f, -0.07888095f,
    0.05234759f, 0.07227174f, -0.03709252f, 0.07960296f, 0.02270382f, 0.01151476f, 0.07609812f, -0.06938977f,
    -0.07272741f, -0.21969707f, -0.16152371f, 0.23257986f, 0.37235257f, 0.26059040f, 0.03521112f, -0.38113612f,
    -0.29880732f, 0.07681430f, -0.09573547f, -0.07786021f, -0.06940828f, 0.08141363f, 0.27835247f, 0.31067133f,
    0.15340750f, 0.06064360f, 0.08876427f, 0.32630223f, 0.13305740f, -0.22631879f, -0.55094963f, -0.18854962f,
    0.25864056f, 0.42620376f, 0.09805138f, -0.15700817f, -0.16336419f, -0.00800580f, -0.00799961f, -0.01937155f,
    -0.02993531f, -0.12350859f, -0.04294019f, -0.13037309f, -0.39138597f, -0.32691425f, 0.01471722f, 0.15549190f,
    0.18063301f, 0.13474107f, -0.05178005f, -0.19491673f, 0.10084254f, 0.13747093f, -0.06901715f, -0.03716644f,
    0.09829131f, 0.21021155f, 0.05966256f, -0.01103115f, -0.04030991f, 0.06760938f, 0.07611458f, 0.21039794f,
    0.23243345f, 0.04032598f, -0.09943065f, -0.10577726f, 0.12971163f, 0.15344143f, 0.25889468f, 0.06805927f,
    0.07452033f, -0.10819984f, 0.05704890f, 0.08953191f, -0.15245679f, -0.05458271f, 0.11402637f, 0.22644164f,
    -0.03788871f, -0.45665732f, -0.04952381f, 0.30014101f, 0.22372496f, 0.07813764f, -0.03953619f, -0.27736187f,
    -0.65099585f, 0.08956553f, 0.27464658f, 0.20502952f, -0.12878299f, -0.44334579f, -0.31049508f, 0.16120259f,
    0.28679484f, 0.24951559f, -0.18489641f, 0.12105325f, 0.32052225f, 0.21464515f, -0.16313007f, -0.43153593f,
    -0.21364979f, 0.18667033f, 0.50791597f, 0.02009277f, 0.24553496f, 0.32105893f, 0.10357177f, -0.21578644f,
    -0.17326982f, 0.00580545f, 0.44206187f, 0.69902027f, 0.20563047f, 0.06823899f, -0.13641158f, -0.06182851f,
    0.27927187f, 0.40153533f, 0.05277316f, -0.09806238f, -0.28795576f, 0.00212399f, -0.12099957f, -0.21629553f,
    -0.21968640f, 0.02060838f, 0.25498018f, 0.08140081f, -0.01286858f, -0.11823665f, -0.06183691f, -0.13650219f,
    0.16753820f, 0.33926892f, 0.19728518f, -0.24702699f, -0.30307940f, -0.13698560f, 0.37390155f, -0.06936674f,
    -0.05424094f, -0.04446444f, -0.05487564f, 0.00861865f, -0.05858894f, -0.06419650f, 0.01329937f, 0.04739559f,
    -0.27626416f, -0.65533185f, -0.79811430f, -0.13231285f, 0.01753710f, 0.01240262f, 0.02044627f, 0.01480606f,
    0.05437968f, 0.32902083f, 0.27120355f, 0.14545235f, 0.08618250f, 0.19782118f, 0.21248822f, 0.07976834f,
    0.07150085f, -0.06474581f, 0.13754684f, 0.04622521f, 0.00441441f, -0.10707673f, -0.18527423f, -0.05299329f,
    -0.01087173f, 0.15972909f, 0.16111490f, -0.15870652f, -0.00180078f, 0.04029480f, 0.09219512f, 0.05211850f,
    0.12522170f, 0.06726660f, -0.01476389f, 0.06788296f, -0.14726503f, -0.19628528f, -0.01652006f, -0.00232245f,
    0.09070056f, 0.03258904f, 0.04016643f, 0.07445112f, 0.09146535f, -0.02161758f, 0.03276555f, 0.02402567f,
    0.15766285f, 0.08340485f, 0.07324314f, 0.03262692f, -0.05658188f, -0.01282515f, -0.11242525f, 0.00768230f,
    0.16375451f, 0.12583742f, 0.17529044f, -0.01971876f, -0.00163093f, -0.04273694f, 0.13182113f, 0.00952469f,
    -0.06661360f, -0.02853934f, -0.18471426f, -0.26491621f, -0.22469501f, -0.12374504f, -0.01194914f, 0.09108160f,
    -0.22992511f, -0.16315468f, -0.03364202f, 0.12050673f, 0.22179304f, 0.25190392f, 0.21002178f, -0.08070731f,
    -0.25048330f, 0.22843245f, 0.19013585f, 0.05734749f, 0.09597378f, 0.02845920f, 0.12818548f, 0.13695027f,
    0.14593829f, 0.07821515f, 0.11367971f, 0.07112265f, 0.17053802f, 0.06848520f, 0.11923212f, 0.01309244f,
    -0.01625894f, -0.00647605f, -0.04444255f, -0.01090191f, -0.03101146f, -0.51735765f, -0.32063270f, -0.24589776f,
    -0.20480332f, -0.06565385f, 0.02707419f, -0.05708868f, 0.09877506f, 0.06921701f, -0.01977124f, 0.14267474f,
    0.17285797f, 0.26471233f, 0.11400325f, 0.06963599f, -0.01057372f, 0.07053728f, -0.06078449f, -0.18658115f,
    -0.20314725f, -0.16350889f, -0.00173344f, -0.04317449f, -0.00596207f, 0.12421278f, 0.07054444f, 0.18271172f,
    0.24768619f, 0.31641889f, 0.08795409f, 0.06834270f, -0.06550658f, 0.02575802f, 0.00340516f, -0.04732900f,
    0.04911991f, -0.06746543f, 0.07263567f, 0.07602163f, 0.05898573f, 0.05976096f, 0.05224542f, -0.01263321f,
    0.05402956f, -0.06467377f, 0.00812335f, -0.08202893f, -0.00842372f, 0.05679677f, -0.03727490f, -0.03424457f,
    0.02979856f, -0.00716189f, 0.03944228f, -0.07319116f, -0.01158161f, 0.05672670f, -0.00114013f, -0.07249808f,
    -0.04879352f, 0.00483895f, 0.04913788f, 0.03216606f, -0.02596321f, -0.05558739f, 0.00334844f, -0.07245382f,
    -0.06220549f, -0.00089759f, -0.07741942f, 0.05812300f, -0.00215065f, -0.02604754f, 0.02559227f, -0.00593887f,
    -0.00117574f, -0.04151900f, 0.04014578f, -0.08025040f, -0.07498918f, -0.03033920f, 0.01508922f, -0.07489319f,
    0.05874417f, 0.02723349f, -0.06549931f, -0.06756175f, -0.06581717f, 0.02446591f, 0.02698839f, 0.05479992f,
    0.05109575f, -0.03207868f, 0.00087982f, 0.04432415f, 0.01214129f, 0.04328074f, -0.07787108f, 0.03929093f,
    0.05874843f, 0.00128268f, -0.01151223f, 0.05425168f, 0.00773036f, -0.07581396f, 0.03990062f, 0.04534171f,
    0.02692583f, -0.00270202f, -0.05665258f, -0.05706098f, 0.03257043f, 0.02323183f, -0.08246069f, -0.01510423f,
    0.02682478f, -0.04638737f, -0.07502514f, 0.06815607f, -0.06577606f, -0.00681203f, -0.06305873f, -0.02057266f,
    -0.07492375f, -0.07548642f, 0.05552099f, -0.04140564f, -0.03604198f, 0.04329927f, -0.05578485f, -0.08186727f,
    0.00247722f, -0.06145892f, -0.08261925f, 0.03886109f, -0.04320046f, -0.04802140f, 0.06697593f, 0.00035373f,
    0.01432394f, 0.07874276f, 0.03962468f, 0.00294354f, 0.01202004f, -0.02639903f, 0.00511372f, -0.04462850f,
    0.01031280f, 0.00442589f, -0.04576039f, 0.01253320f, -0.03371488f, 0.06084803f, -0.02757521f, -0.06221249f,
    -0.02250534f, -0.03946767f, -0.02113847f, 0.06724707f, 0.03638507f, 0.07525247f, 0.00085356f, 0.06417383f,
    0.03936940f, -0.08104884f, 0.07688279f, 0.00399826f, -0.01644929f, 0.06455965f, -0.04409187f, -0.03486126f,
    -0.06825238f, -0.04155744f, -0.00877591f, -0.02173011f, -0.04711040f, -0.02463604f, -0.06114984f, -0.00366089f,
    0.03333079f, 0.00583258f, -0.04613700f, 0.06372757f, 0.00820925f, -0.06608470f, 0.07551218f, 0.04361681f,
    0.04993591f, -0.30853701f, -0.71179122f, -0.78656298f, -0.09237840f, 0.03098801f, 0.07289696f, 0.10078158f,
    0.07710452f, 0.28172153f, 0.53251547f, 0.26599300f, 0.10576101f, 0.07271376f, 0.09001679f, 0.08057793f,
    0.01935921f, 0.00132271f, 0.08984592f, 0.21544941f, 0.13756378f, 0.02363907f, -0.13303405f, -0.19154739f,
    -0.00900078f, 0.10878088f, 0.05624757f, -0.03539607f, -0.01646036f, -0.05690449f, -0.04010537f, 0.11510168f,
    0.02845504f, 0.12818328f, 0.07758201f, 0.10182138f, -0.09316073f, -0.10123363f, -0.03219565f, -0.08719756f,
    0.01498994f, 0.00500738f, 0.11642372f, 0.09510580f, 0.03380351f, 0.14796993f, 0.10382792f, 0.16323555f,
    0.15563443f, 0.20873906f, 0.10339669f, -0.01970941f, -0.00685729f, 0.02909377f, -0.10546474f, -0.12508349f,
    0.03314768f, 0.19956265f, 0.14838029f, 0.14490426f, 0.01555306f, -0.04636235f, 0.00371040f, 0.07155652f,
    -0.03528575f, -0.02425999f, -0.11225333f, -0.26550540f, -0.40606567f, -0.29434079f, -0.01860711f, -0.08314667f,
    -0.17352358f, -0.16419555f, -0.18965143f, 0.07120129f, 0.19125403f, 0.18798020f, 0.44163129f, 0.17582661f,
    -0.16621007f, 0.10382938f, 0.17524628f, 0.11141066f, 0.19457348f, 0.01915749f, 0.03708746f, 0.09508982f,
    0.07246254f, 0.14682940f, 0.00874557f, 0.03175576f, 0.18793394f, 0.24519391f, 0.14327900f, 0.10164671f,
    -0.06386347f, 0.07682302f, 0.07889283f, 0.08122220f, 0.10090730f, -0.08507916f, -0.56934035f, -0.32525089f,
    -0.24900633f, -0.15973994f, 0.01610265f, -0.02000394f, 0.03619271f, -0.00323681f, 0.04114179f, 0.09389167f,
    0.24172588f, 0.34701478f, 0.15721196f, 0.15473637f, 0.00189449f, 0.02622436f, -0.02056821f, -0.12467000f,
    -0.07200106f, -0.19006293f, -0.06426992f, -0.05015896f, -0.00866082f, 0.03116522f, 0.09707828f, 0.05429279f,
    0.25911182f, 0.53979540f, 0.44751650f, 0.09115856f, -0.01842108f, 0.02353853f, 0.06180342f, 0.05887005f,
    0.00463206f, 0.02072182f, 0.03026528f, -0.02875934f, 0.07506627f, -0.05117152f, 0.00774518f, -0.07560402f,
    0.12298699f, -0.13945252f, -0.38568780f, -0.59490830f, -0.59442002f, -0.02680709f, -0.06696017f, -0.00162522f,
    -0.06381529f, 0.09681254f, 0.15040399f, 0.23123260f, 0.19397698f, 0.15820841f, 0.10544577f, 0.18598251f,
    0.20315351f, 0.08909515f, -0.00950073f, 0.06025744f, 0.04033434f, 0.00244618f, 0.08064726f, 0.02868247f,
    0.00431681f, 0.11819061f, 0.01950543f, 0.00959311f, 0.06255911f, 0.06816718f, 0.03085148f, 0.06631448f,
    0.02829619f, 0.05540431f, 0.09828967f, 0.04720831f, -0.04933414f, -0.17771755f, -0.11008229f, -0.00124177f,
    -0.01937370f, 0.07881465f, -0.02298476f, 0.01594894f, 0.07429005f, 0.07637542f, 0.13122945f, 0.14017870f,
    0.02223933f, 0.14964488f, 0.08445722f, -0.00275485f, 0.03049571f, -0.04025376f, -0.14441226f, -0.02618163f,
    -0.00598963f, -0.02087263f, -0.06651909f, -0.00467618f, 0.05305972f, 0.06601395f, 0.09833638f, -0.04314829f,
    0.03932846f, -0.04723164f, -0.13060899f, -0.05583043f, -0.09224831f, -0.21986204f, -0.26001361f, 0.04336033f,
    -0.09811354f, -0.07605717f, -0.12325153f, -0.04286789f, 0.08107312f, -0.00448561f, 0.10019320f, 0.14199089f,
    -0.06935783f, 0.12664564f, 0.14492169f, 0.17835076f, 0.11330320f, 0.02024561f, 0.02927073f, 0.12529139f,
    0.03415526f, 0.05165428f, 0.06827069f, 0.07332947f, 0.18176572f, 0.21388042f, 0.18180034f, 0.00937993f,
    -0.01155160f, 0.01733380f, -0.02843389f, 0.05623729f, 0.10387106f, 0.10006034f, 0.07318024f, -0.64359128f,
    -0.40535653f, -0.27871299f, -0.13164590f, -0.03117808f, 0.04661284f, 0.05553441f, 0.07279158f, 0.10240137f,
    0.13223463f, 0.15658197f, 0.22212763f, 0.05072989f, 0.12483751f, 0.03847732f, 0.08122540f, 0.03691345f,
    -0.08210669f, -0.10827343f, 0.01653547f, -0.03806924f, -0.03470023f, 0.03385033f, 0.00006544f, 0.00456554f,
    0.10033500f, 0.07178035f, 0.25605994f, 0.18074924f, 0.09688263f, -0.08084083f, -0.06578635f, -0.00796863f,
    0.06525797f, -0.06799614f, 0.04391868f, -0.01837488f, 0.04703566f, 0.05586125f, 0.06543113f, -0.05669579f,
    0.24548979f, 0.29192954f, 0.23621294f, 0.02777520f, -0.09200740f, -0.01009534f, 0.03283530f, 0.02237412f,
    0.17131519f, 0.03927778f, -0.04654801f, 0.06237454f, -0.03178818f, 0.02317471f, 0.00572798f, 0.00894046f,
    -0.03168019f, 0.18372098f, -0.17809284f, -0.21249969f, 0.09469354f, 0.33277443f, 0.29037571f, 0.19176090f,
    0.06956356f, 0.02925299f, -0.01072830f, 0.25294369f, 0.31151468f, 0.06035803f, 0.01123544f, -0.22084939f,
    -0.21934846f, -0.03885930f, 0.12094556f, 0.06678940f, 0.01145050f, 0.02354313f, 0.01527315f, -0.04767671f,
    -0.13407218f, -0.10472544f, 0.00524288f, -0.00974225f, 0.00880019f, 0.28547812f, 0.15745300f, 0.11216512f,
    -0.01694419f, 0.11559933f, 0.06165574f, 0.04521043f, 0.21240529f, 0.06291208f, 0.06467470f, -0.13069277f,
    -0.21648438f, -0.09375949f, 0.06792647f, 0.29650480f, 0.20377778f, 0.08438988f, 0.16287504f, -0.32801533f,
    -0.13259143f, -0.03304892f, 0.13672201f, 0.20132487f, 0.07434711f, 0.08546031f, -0.05349441f, -0.18856494f,
    0.34803540f, 0.22689247f, -0.09186847f, -0.44229051f, -0.73410767f, -0.43716764f, -0.06899434f, 0.25392470f,
    0.43397748f, -0.13625087f, -0.07208067f, -0.01857888f, 0.04131440f, 0.11103568f, 0.05217532f, 0.06011188f,
    -0.21964058f, -0.32483861f, -0.06538872f, -0.02958718f, -0.10440639f, 0.07688004f, 0.18387088f, 0.14289843f,
    0.07979766f, 0.15632665f, -0.04372777f, -0.05352714f, -0.00832360f, 0.09112046f, 0.10780741f, 0.16269524f,
    0.18065016f, 0.03024714f, -0.01657345f, -0.08845089f, 0.32414111f, 0.35574907f, 0.14625666f, -0.11703108f,
    -0.18485600f, -0.11933707f, 0.12396016f, 0.06870800f, 0.09849661f, -0.14464045f, -0.00368047f, 0.21325141f,
    0.24061660f, 0.19889395f, 0.14469016f, 0.02120451f, -0.07800834f, -0.05529074f, 0.05246677f, -0.07810717f,
    -0.04713390f, -0.11080430f, -0.03192929f, 0.19684677f, 0.25693643f, 0.26424912f, 0.13866709f, 0.07930168f,
    0.04385484f, -0.06431498f, -0.00471961f, 0.03925268f, 0.02484420f, -0.03410964f, -0.04253484f, 0.01806144f,
    0.03836170f, -0.07053438f, -0.44613075f, -0.73021829f, -0.23595126f, -0.05765652f, -0.04600678f, 0.00133286f,
    0.03719255f, 0.22137927f, 0.27319199f, 0.13792379f, 0.06532029f, 0.07250270f, 0.08042081f, 0.15574236f,
    0.10043263f, 0.11519703f, -0.01165123f, 0.09299175f, 0.05421704f, 0.10711966f, 0.00650543f, -0.04152853f,
    0.07389938f, 0.08646346f, 0.05918335f, -0.09536828f, -0.06486057f, -0.10186616f, 0.02478795f, -0.04699129f,
    0.12510629f, 0.11685298f, -0.01082324f, 0.10331471f, -0.14945529f, -0.17985922f, -0.06095270f, 0.02025257f,
    -0.02461106f, 0.12291491f, -0.00335779f, 0.02171995f, 0.07846922f, 0.15889798f, 0.14295788f, 0.15542282f,
    0.18170226f, 0.10905054f, 0.12527108f, 0.06698865f, 0.05626128f, 0.03161645f, -0.09293902f, -0.04304647f,
    -0.07810707f, -0.05069718f, 0.07929584f, -0.05600085f, 0.05516176f, -0.00790012f, 0.08179192f, 0.07710032f,
    0.05221793f, -0.11553947f, -0.18289436f, -0.10848665f, -0.19906650f, -0.22980620f, -0.03150395f, -0.07224075f,
    -0.04450282f, -0.03250458f, 0.00579298f, -0.05513364f, 0.08448376f, 0.05078411f, 0.15480527f, 0.12301646f,
    -0.15184374f, 0.09929429f, 0.15581173f, 0.11877200f, 0.11008283f, -0.01010297f, 0.09312309f, 0.07160764f,
    0.12660635f, 0.13757867f, 0.08317462f, 0.14150655f, 0.13016285f, 0.14111230f, 0.14500014f, 0.02892792f,
    0.01559131f, 0.08058964f, -0.02765051f, -0.10459387f, 0.02118784f, 0.07599180f, -0.16861391f, -0.60770321f,
    -0.31894407f, -0.16287607f, -0.15754926f, -0.11140346f, 0.15076476f, 0.16150783f, 0.01025088f, 0.09978317f,
    0.04325753f, 0.16639629f, 0.04498411f, -0.00229032f, 0.02582377f, -0.05065455f, 0.06266560f, 0.03497952f,
    -0.16443838f, -0.17201574f, -0.00330320f, 0.04475174f, 0.03977538f, -0.01451349f, 0.16057521f, 0.04319531f,
    0.05377069f, 0.15885843f, 0.24774206f, 0.04834916f, 0.03978616f, -0.08498951f, 0.06917921f, -0.00124775f,
    0.07836975f, -0.01874605f, 0.00684925f, -0.06569227f, -0.03175963f, 0.02995944f, -0.03884919f, 0.01607913f,
    0.08876510f, 0.31186798f, 0.34859943f, 0.22383329f, -0.04696102f, -0.17081398f, 0.01368348f, 0.01473379f,
    0.28599104f, -0.04945510f, 0.13230900f, 0.22923771f, 0.28740329f, 0.02056829f, -0.06363682f, -0.11093871f,
    -0.09562784f, -0.08062867f, -0.04955823f, -0.34479854f, -0.23387502f, 0.08606082f, 0.28437781f, 0.12114400f,
    0.01976867f, -0.30155382f, -0.17564039f, 0.08273584f, 0.03748135f, 0.08207114f, 0.03398262f, -0.05392303f,
    0.00303563f, 0.14436151f, 0.02085800f, 0.06702520f, 0.01323673f, 0.16069630f, 0.04522213f, 0.02217111f,
    -0.09267309f, 0.00608382f, 0.13156770f, 0.11993957f, 0.03845307f, 0.01564248f, 0.18009201f, 0.26397201f,
    0.03972059f, 0.06989779f, 0.04895399f, 0.09180816f, 0.21961220f, 0.09167366f, 0.07712483f, -0.08225983f,
    -0.24730232f, -0.35125729f, -0.01830575f, 0.30820674f, 0.07260642f, -0.05142164f, -0.25951934f, -0.01009000f,
    -0.06303379f, 0.00270607f, -0.00793951f, 0.07565035f, 0.12355339f, 0.05645304f, 0.02098322f, -0.05975740f,
    -0.11508544f, 0.27354398f, 0.20684952f, -0.13375914f, -0.50438362f, -0.75912261f, -0.25677955f, 0.18061057f,
    0.45341313f, -0.07083375f, -0.16171865f, -0.21702415f, -0.04254739f, 0.15118302f, 0.16839346f, 0.10585345f,
    -0.16811037f, -0.37125656f, 0.17554317f, 0.01897695f, -0.09202896f, -0.23888330f, 0.08393096f, 0.13069113f,
    0.25390738f, -0.00690758f, -0.23383412f, 0.18567033f, 0.11294506f, -0.08766311f, 0.02133195f, 0.22697480f,
    0.35140547f, 0.15342897f, -0.05307264f, -0.16827884f, 0.02229732f, -0.02733390f, 0.30353457f, 0.32088375f,
    0.03296270f, -0.18504225f, -0.12991379f, 0.20233306f, 0.21536627f, -0.16535930f, -0.05518609f, 0.11741811f,
    0.07319839f, 0.11109786f, -0.10256630f, -0.11435676f, -0.08583375f, 0.05478933f, 0.19915970f, 0.35349661f,
    0.11161271f, -0.06282733f, -0.14487840f, 0.15608013f, 0.30671024f, 0.29671502f, 0.16893727f, -0.05343705f,
    0.02961832f, 0.00346634f, 0.03969218f, -0.02698159f, 0.02766824f, -0.03540669f, 0.01397524f, -0.06365857f,
    0.12012351f, -0.00940625f, -0.16077033f, -0.48038048f, -0.96650994f, -0.28327775f, 0.06858075f, 0.02564563f,
    0.06820567f, 0.06389425f, 0.21045394f, 0.26106089f, 0.42586660f, 0.16992387f, 0.19658552f, 0.21682353f,
    0.15540363f, 0.15365949f, 0.08268786f, 0.13252796f, 0.16666847f, 0.04072531f, 0.04730036f, -0.14110149f,
    -0.05915032f, 0.04110241f, 0.00628530f, -0.00441997f, -0.13016811f, -0.15474734f, -0.08613090f, 0.08738330f,
    0.07234746f, 0.08850177f, 0.07909657f, 0.00475586f, -0.07074653f, -0.21275058f, -0.21206753f, -0.26215515f,
    -0.04631779f, 0.11957958f, 0.10923515f, 0.17738982f, 0.12989123f, 0.11916386f, 0.14355737f, 0.12054255f,
    0.04669787f, 0.15395072f, 0.16398737f, 0.17169301f, 0.12490346f, 0.03799862f, -0.30298540f, -0.07224397f,
    -0.03477606f, 0.14184234f, 0.03955314f, 0.05554088f, 0.08035775f, 0.09299740f, 0.07862337f, 0.12941378f,
    0.14495061f, 0.05447647f, -0.08681185f, -0.13731553f, -0.15371107f, -0.27921364f, -0.52150089f, -0.17774960f,
    -0.00124975f, -0.10954063f, -0.11314541f, -0.13048410f, -0.01622558f, 0.07372190f, 0.29501316f, 0.32096523f,
    0.21914905f, 0.01580013f, 0.13984708f, 0.21423756f, 0.24170777f, 0.09722022f, -0.02876082f, -0.04655750f,
    0.09226334f, 0.10791740f, 0.04152330f, 0.03884885f, 0.03248382f, 0.19555454f, 0.29001206f, 0.18885088f,
    0.09784072f, 0.02678354f, -0.03916968f, 0.05432237f, 0.01700962f, -0.00412259f, 0.17261192f, -0.02152365f,
    -0.37194711f, -0.22196877f, -0.06335890f, 0.06076561f, 0.03331775f, 0.04182772f, 0.02736199f, 0.05535256f,
    0.09322485f, 0.12770574f, 0.29669678f, 0.31731740f, 0.12049545f, -0.01042993f, 0.08794787f, 0.07868212f,
    -0.02411811f, -0.13030413f, -0.19266154f, -0.09748726f, -0.06427213f, -0.02373942f, 0.04776438f, 0.09919903f,
    0.07243139f, 0.11462305f, 0.38408157f, 0.55949974f, 0.10816404f, -0.09596929f, -0.02459811f, 0.01808891f,
    -0.06288333f, 0.02593746f, -0.06061738f, 0.07303698f, -0.03751136f, 0.06407706f, 0.05504320f, 0.01230019f,
    -0.10551516f, 0.04653045f, 0.15964243f, 0.20699997f, 0.25666580f, 0.24754000f, 0.15817973f, 0.03943430f,
    0.17290047f, -0.08338971f, -0.32930440f, -0.50092989f, -0.12769535f, -0.13726129f, -0.08647579f, 0.00280729f,
    0.00737302f, 0.01795514f, 0.11528309f, 0.01974373f, -0.05537037f, 0.11986046f, 0.14777389f, 0.23163472f,
    0.09675667f, 0.15674432f, 0.08265673f, 0.15175864f, 0.14094475f, 0.12727691f, 0.21326414f, 0.09774716f,
    0.14458455f, -0.03378069f, 0.09306712f, 0.00698562f, 0.14694707f, 0.11356609f, 0.19099672f, 0.06268225f,
    0.15032016f, -0.03276512f, -0.02094167f, -0.01141927f, -0.03729389f, -0.01387272f, -0.01352600f, -0.04060630f,
    -0.00720303f, -0.02162673f, -0.00557645f, -0.05554598f, 0.10295815f, 0.13304372f, 0.27756417f, 0.17274015f,
    0.14888793f, 0.02322320f, -0.05535505f, 0.02574939f, 0.02778670f, -0.02918098f, 0.01632546f, -0.01401214f,
    0.05910713f, 0.08401418f, -0.00564740f, 0.12291771f, 0.19739237f, 0.18314885f, 0.16245392f, 0.19228135f,
    0.18226102f, 0.10138345f, 0.19493429f, 0.06018414f, -0.09864569f, -0.13278401f, -0.28645870f, -0.28138161f,
    -0.13978408f, 0.12108222f, -0.03735949f, -0.03065610f, -0.16636683f, -0.10876111f, -0.00085048f, 0.06260628f,
    0.01083602f, 0.09103637f, 0.02947816f, -0.04681953f, -0.13432270f, -0.07128019f, -0.13921538f, -0.04119826f,
    -0.00345815f, 0.07711478f, 0.16693623f, -0.02541683f, 0.00295331f, -0.01234112f, 0.15655959f, 0.29949188f,
    0.33802107f, 0.25084636f, 0.11375072f, 0.14359450f, -0.04407583f, -0.04914193f, -0.07373945f, -0.07532653f,
    -0.03500888f, -0.16663483f, -0.14713645f, -0.17980808f, -0.00596094f, 0.09190968f, -0.03334426f, 0.00422190f,
    0.14110771f, 0.15092282f, 0.19930549f, 0.16608942f, 0.12014645f, 0.07932319f, 0.05141388f, 0.07605812f,
    -0.04221230f, -0.18615916f, -0.40600210f, -0.27627173f, -0.11747134f, 0.07139442f, 0.06525964f, -0.01778691f,
    0.00888334f, 0.02318977f, 0.08550541f, 0.00228626f, -0.05726513f, -0.00040760f, -0.00550526f, -0.01902087f,
    0.14342283f, -0.00532582f, -0.10057054f, -0.37662581f, -0.49899247f, -0.22984765f, -0.06560666f, -0.06056383f,
    0.04743488f, 0.09606161f, 0.07799146f, 0.09993442f, 0.11133865f, 0.12421211f, 0.07186737f, 0.09705185f,
    0.13803554f, 0.18516167f, -0.06684087f, 0.00665611f, -0.00801177f, 0.10946733f, 0.04407080f, -0.07048851f,
    0.00035761f, -0.06679028f, -0.01863254f, 0.00014694f, 0.06496193f, -0.03465938f, 0.01609483f, 0.03710762f,
    0.01100386f, 0.09170961f, 0.05294309f, 0.03078258f, -0.10286600f, -0.09620477f, -0.19118614f, -0.19358377f,
    -0.01406596f, -0.03231285f, -0.00416061f, 0.11453488f, 0.09917388f, 0.17637694f, 0.15104148f, 0.09719013f,
    0.02819162f, -0.00037289f, 0.02356564f, -0.01584806f, 0.02673984f, -0.03127956f, -0.18949282f, -0.15355799f,
    -0.04392431f, 0.06382268f, 0.03158148f, 0.00573215f, 0.08341020f, -0.02017520f, 0.06831760f, 0.02514418f,
    -0.07076695f, 0.03346675f, 0.01231130f, 0.00015915f, -0.17435606f, -0.22728641f, -0.28208053f, -0.22120899f,
    0.08041618f, -0.02120965f, -0.11918391f, -0.02827868f, -0.01840912f, 0.14637531f, 0.18968233f, 0.19935365f,
    0.21610326f, 0.03848188f, 0.04914880f, -0.00151220f, 0.15437502f, 0.05163152f, 0.00510035f, 0.02067309f,
    0.12225247f, 0.14492524f, 0.12756972f, -0.04591924f, 0.10478375f, 0.13054085f, 0.11743077f, -0.00738554f,
    0.10506435f, -0.00840373f, 0.05817034f, 0.00543857f, 0.02319780f, 0.05078975f, 0.02250351f, -0.02363968f,
    -0.40194929f, -0.21419705f, -0.20034201f, -0.14091329f, 0.06776585f, 0.08730802f, 0.02512270f, 0.10136140f,
    0.06080583f, -0.02204796f, 0.15341496f, 0.06554861f, -0.01270575f, 0.05957871f, -0.03709844f, 0.00476133f,
    -0.05386875f, -0.14337744f, -0.03162265f, 0.00315504f, -0.02920318f, 0.00093328f, 0.11194821f, 0.03839048f,
    0.04351350f, 0.14456022f, 0.05974587f, 0.13045779f, 0.04354941f, 0.00241165f, 0.03018290f, 0.03662565f,
    -0.02796318f, -0.07366034f, -0.01783849f, -0.03472120f, 0.07344174f, -0.03615446f, -0.04671065f, -0.05114893f,
    -0.06495214f, -0.01560875f, 0.10446081f, 0.18217582f, 0.28199703f, 0.29190969f, 0.05178467f, 0.05353474f,
    0.14902021f, -0.02569942f, -0.16834690f, -0.31162947f, -0.45843980f, -0.14946501f, -0.02621667f, -0.00014512f,
    0.00548950f, -0.09466938f, 0.08411885f, 0.09808494f, 0.06289809f, 0.05431324f, 0.04517516f, 0.21582375f,
    0.25036815f, 0.19471683f, 0.11799271f, 0.05202539f, 0.12492655f, 0.22117560f, 0.08938457f, 0.06564124f,
    0.09719779f, 0.04631521f, -0.00586781f, 0.07789037f, 0.03568591f, -0.00545527f, 0.06936981f, 0.10073171f,
    0.09233134f, -0.02802504f, 0.10543924f, 0.03880798f, 0.06099657f, 0.01071766f, -0.05661895f, 0.04737299f,
    -0.08080772f, -0.10805217f, 0.00564969f, 0.01372231f, -0.02737313f, 0.04723816f, 0.16305575f, 0.25665095f,
    0.12081759f, -0.01172568f, -0.03087776f, 0.01206301f, 0.07439526f, -0.00146637f, 0.00830045f, 0.08443210f,
    0.11317448f, -0.00875890f, 0.13511479f, 0.14098389f, 0.02462722f, 0.09075264f, 0.26093438f, 0.19975983f,
    0.07348917f, 0.14955474f, 0.27448866f, 0.18191633f, 0.04343365f, -0.13177197f, -0.22029853f, -0.23731366f,
    -0.32046548f, 0.06347026f, 0.03125969f, 0.03872102f, -0.03084952f, -0.10727584f, 0.05496506f, -0.00887176f,
    0.09863053f, 0.00483198f, -0.02022505f, 0.06521308f, 0.00690656f, -0.16927825f, -0.19571890f, -0.16352119f,
    -0.06015085f, 0.03221564f, 0.09712792f, 0.02448591f, 0.08323735f, 0.10160818f, 0.02053431f, 0.13527657f,
    0.27201504f, 0.33704668f, 0.20687526f, 0.15653150f, 0.01568672f, 0.01878764f, 0.07550949f, 0.08649933f,
    -0.02502135f, -0.02032530f, -0.18702644f, -0.22048599f, -0.18847683f, 0.04774132f, 0.01106870f, 0.06316501f,
    0.02173625f, 0.17531331f, 0.14600617f, 0.18711466f, 0.11334091f, 0.03717789f, 0.07407176f, 0.09879190f,
    -0.02825644f, -0.14069064f, -0.32083374f, -0.50222790f, -0.15677091f, -0.06153989f, 0.06036874f, 0.00264702f,
    0.05460225f, 0.01289900f, -0.07776183f, 0.04120151f, 0.07456680f, 0.01365513f, 0.07231115f, -0.02045229f
};

static const float conv2_bias[32] = {
    0.10974118f, 0.03232451f, 0.28403229f, 0.09388404f, 0.05417852f, 0.11383415f, -0.06928362f, 0.00751332f,
    -0.01261804f, 0.14056990f, 0.11002823f, -0.06748620f, 0.12685454f, -0.02418195f, 0.03640825f, 0.14256994f,
    0.09197573f, -0.00395947f, 0.02663881f, -0.02143171f, -0.01003776f, 0.10881722f, -0.07759328f, 0.10591943f,
    0.12801962f, -0.06883207f, 0.06391729f, -0.10209177f, 0.08308252f, 0.02501711f, 0.06351033f, 0.01766372f
};

// Conv1d 32→16, k=9
static const float conv4_weight[4608] = {
    0.06877247f, -0.02022637f, -0.08168571f, -0.21443251f, -0.20591830f, -0.06535777f, 0.02549771f, 0.06187609f,
    0.11048020f, -0.00099929f, 0.07949501f, -0.01144311f, 0.05374919f, 0.28693068f, 0.32900655f, 0.10738168f,
    -0.01288228f, -0.07839824f, 0.22675326f, 0.00602979f, -0.19456246f, -0.18046495f, -0.13165988f, 0.01447672f,
    0.20984091f, 0.25918645f, 0.11801974f, -0.05040277f, 0.14809804f, 0.18427424f, 0.25300255f, 0.16505526f,
    0.05157844f, -0.10438497f, -0.06781729f, -0.02985006f, -0.04372537f, -0.05351471f, -0.14606857f, -0.27866986f,
    -0.28354985f, -0.04326973f, -0.03782102f, 0.08039112f, 0.07561699f, -0.01732280f, 0.01975745f, 0.03548919f,
    0.02282626f, 0.06105426f, -0.11057149f, -0.19611961f, -0.19298005f, -0.04384214f, 0.00771723f, -0.03304118f,
    -0.02310916f, -0.01782826f, 0.05178513f, -0.02034802f, -0.05673485f, -0.00787170f, 0.02855161f, 0.05085119f,
    -0.02897397f, 0.00802549f, -0.06914742f, -0.23824915f, -0.16286473f, -0.13687660f, -0.04901224f, 0.06932254f,
    0.04123162f, -0.00823934f, 0.05436527f, 0.07385122f, 0.10211379f, -0.06383184f, -0.24075532f, -0.20358190f,
    -0.15672982f, -0.04061915f, -0.16217096f, -0.09181624f, -0.05517051f, 0.07143975f, 0.08407056f, 0.22926931f,
    0.14090870f, 0.00733765f, 0.04327350f, 0.00916373f, -0.04146443f, 0.08866291f, 0.04547323f, 0.18800111f,
    0.12122069f, 0.01222248f, -0.00588201f, -0.03100884f, -0.03560821f, -0.02398655f, -0.02860624f, 0.03920036f,
    -0.01883730f, 0.01359074f, -0.03136174f, -0.04622804f, 0.01807776f, 0.04924941f, -0.00526695f, -0.12385701f,
    -0.23330818f, -0.17226389f, -0.12351957f, -0.03897079f, 0.01100788f, -0.01542925f, 0.05235405f, 0.04679948f,
    0.16895539f, 0.15545073f, 0.16976492f, 0.01392769f, -0.08739714f, -0.09873113f, -0.02681053f, 0.05685813f,
    0.07774202f, 0.07004981f, 0.19538873f, 0.12233036f, 0.01314800f, -0.03381875f, -0.10380803f, -0.03828592f,
    -0.03355087f, -0.02728518f, -0.13382269f, -0.21449597f, -0.15765403f, -0.12332337f, -0.03621995f, 0.08037820f,
    -0.02220056f, -0.00748395f, 0.09136028f, 0.19557221f, 0.22499430f, 0.06566044f, -0.02401873f, -0.00220716f,
    -0.01171473f, -0.00186391f, -0.02458692f, 0.10654867f, 0.17106546f, 0.18699667f, 0.03590165f, 0.00991914f,
    -0.01477806f, -0.06584395f, -0.07251716f, -0.03550762f, 0.01694173f, -0.15153129f, -0.24198228f, -0.13823739f,
    -0.05425749f, 0.07045388f, 0.04704172f, -0.00842849f, 0.00303801f, 0.04283676f, -0.01263057f, 0.19457372f,
    0.18885514f, 0.03351100f, -0.08309736f, -0.03857391f, 0.21939582f, 0.18716393f, -0.13601895f, -0.17417458f,
    -0.11119604f, 0.15401262f, 0.22185200f, 0.18187307f, -0.10942255f, 0.05448759f, 0.01227197f, -0.05159837f,
    0.03715897f, 0.07708506f, 0.14688632f, 0.17666814f, 0.18572059f, 0.11246136f, 0.03920723f, 0.01191003f,
    -0.02672983f, 0.03682427f, -0.04555334f, -0.05754641f, 0.04787817f, -0.04658245f, 0.03783178f, -0.03382624f,
    -0.01730849f, 0.03839479f, 0.06523760f, 0.06561292f, 0.25341341f, 0.33909497f, 0.13418555f, -0.05753152f,
    0.01735802f, 0.05834135f, 0.04233694f, 0.08345718f, 0.10900621f, 0.13407372f, 0.17998658f, 0.01844832f,
    0.01938232f, -0.01120553f, 0.04074935f, 0.14976378f, 0.20964548f, 0.11020079f, -0.00813924f, -0.20699252f,
    -0.15383263f, -0.05218564f, 0.02614570f, -0.00362749f, -0.01582648f, 0.02686383f, 0.04940724f, 0.21584214f,
    0.12426072f, -0.00513258f, -0.03347132f, -0.12569442f, 0.00378073f, 0.13346437f, 0.19704454f, 0.01919404f,
    -0.15667513f, -0.12829757f, 0.06063771f, 0.12300061f, 0.01621894f, 0.06310424f, -0.03502548f, 0.10518643f,
    0.23389585f, 0.24981330f, 0.14354037f, -0.01650405f, -0.07447796f, 0.00856395f, -0.01704152f, 0.04006021f,
    -0.16050708f, -0.15476124f, -0.16500740f, -0.08139405f, -0.05546340f, 0.01651212f, 0.01324174f, 0.05536441f,
    0.05203751f, 0.02054074f, 0.16245481f, 0.12528399f, 0.03513141f, 0.02371053f, 0.00550383f, 0.04284789f,
    0.00522242f, -0.09798524f, -0.11984772f, -0.20632747f, -0.18381800f, -0.00907611f, -0.01456089f, 0.06161482f,
    -0.00946563f, -0.01980326f, -0.13219248f, -0.20126353f, -0.32712296f, -0.42747974f, -0.18042625f, 0.00869954f,
    -0.00136883f, -0.12664844f, -0.10304870f, -0.12132917f, 0.16323231f, 0.22778489f, 0.24434417f, 0.13885674f,
    0.03370050f, 0.00616696f, 0.10066778f, -0.09441324f, -0.34678790f, -0.25054321f, -0.14045024f, 0.05905284f,
    0.17886288f, 0.18734646f, 0.01346699f, -0.18101570f, 0.00068583f, 0.26313877f, 0.32579818f, 0.24324326f,
    0.07649603f, 0.00624520f, 0.00664669f, -0.01960971f, 0.02155184f, -0.07901125f, -0.15287514f, -0.34387335f,
    -0.46594667f, -0.40230763f, -0.11886099f, -0.04862062f, -0.09106838f, -0.00535672f, 0.12828831f, 0.08727527f,
    0.08238412f, 0.00438272f, -0.04299561f, -0.26520482f, -0.31290808f, -0.34877789f, -0.05328107f, -0.04842009f,
    0.02788365f, 0.05630816f, 0.02641696f, 0.04747235f, 0.04017497f, 0.02584271f, 0.05863944f, 0.02308883f,
    -0.01819488f, -0.05926864f, -0.08076021f, -0.23854010f, -0.26995778f, -0.37981719f, -0.21943764f, -0.11462709f,
    0.08026089f, 0.12238710f, 0.07669819f, 0.10182470f, 0.08615506f, -0.07756592f, -0.24255618f, -0.37070763f,
    -0.37535802f, -0.15730050f, -0.17684554f, -0.24842107f, -0.15951464f, 0.02108509f, 0.04083497f, 0.16491112f,
    0.06250858f, -0.02322500f, -0.15611413f, -0.17317095f, -0.14042869f, -0.04077230f, 0.11866931f, 0.18114090f,
    0.18440737f, 0.02104566f, 0.01409802f, -0.04495285f, 0.02948019f, 0.01146345f, 0.05400585f, -0.03206519f,
    0.03602822f, 0.00365695f, -0.01508124f, -0.04712864f, -0.02242063f, -0.03968149f, -0.05725119f, -0.15392351f,
    -0.25636521f, -0.22764009f, -0.42584151f, -0.21749735f, -0.11707663f, -0.01801634f, -0.11672319f, -0.20778373f,
    0.16601597f, 0.17970072f, 0.20938599f, 0.04739451f, 0.07883065f, -0.04851659f, -0.07939148f, 0.00552267f,
    -0.07374212f, 0.02914779f, 0.23365940f, 0.10525326f, 0.05591940f, 0.07930277f, -0.02770322f, 0.04796913f,
    -0.05138955f, -0.03367142f, -0.03986606f, -0.13983256f, -0.17644122f, -0.30203229f, -0.29199028f, -0.01430325f,
    -0.04889216f, -0.10046431f, 0.12583159f, 0.29076010f, 0.19624472f, 0.10231129f, 0.02994487f, 0.02634172f,
    0.02581259f, 0.03601088f, -0.03737068f, 0.09552589f, 0.18634552f, 0.12753205f, 0.09744910f, -0.00182097f,
    -0.03363423f, 0.03799094f, -0.00722648f, -0.01774766f, 0.01120059f, -0.10548341f, -0.21793593f, -0.35336751f,
    -0.34704226f, -0.07238109f, 0.00260401f, -0.03738387f, 0.04399658f, 0.02443280f, -0.11442508f, 0.27456579f,
    0.21157983f, 0.08850251f, 0.04298707f, 0.01924448f, 0.06626102f, 0.14419347f, -0.00563785f, -0.19964775f,
    -0.12666059f, 0.09898854f, 0.21589476f, 0.06095469f, -0.00350212f, -0.19688457f, -0.21306534f, -0.16444336f,
    -0.11201479f, -0.14749081f, 0.24240308f, 0.24091747f, 0.13951099f, 0.13080999f, -0.05614849f, -0.00001414f,
    0.01476989f, -0.00259799f, -0.01083853f, 0.05153786f, -0.01255243f, 0.05772793f, -0.02443884f, -0.28532246f,
    -0.14670710f, -0.10257787f, -0.15455164f, 0.15310515f, 0.31682453f, 0.29937601f, 0.11020418f, 0.01059131f,
    -0.23216069f, -0.27154818f, -0.24416497f, 0.03416757f, 0.08155582f, 0.15406901f, 0.13611478f, 0.08774155f,
    -0.01338380f, 0.02859447f, 0.08095451f, 0.20059772f, 0.18320186f, 0.07912152f, -0.04282350f, -0.16733834f,
    -0.23723514f, -0.08206981f, -0.22694185f, -0.26970428f, -0.25578153f, -0.02586474f, -0.00735527f, 0.10674177f,
    0.13959937f, 0.07794572f, 0.06633420f, -0.13899252f, 0.01234153f, 0.08545818f, 0.13171549f, 0.00065474f,
    -0.09797586f, -0.10799580f, 0.01788364f, 0.11913899f, -0.12699048f, -0.12488193f, -0.10880212f, 0.15932964f,
    0.22259332f, 0.23048928f, 0.13580549f, 0.02083613f, -0.06940050f, 0.10390561f, 0.01361433f, -0.00965642f,
    -0.10615654f, -0.17210333f, -0.30092135f, -0.35132819f, -0.22645158f, -0.12469863f, -0.15115587f, -0.05515757f,
    -0.07891969f, 0.11181492f, 0.11599224f, 0.15787508f, 0.04648164f, 0.04089330f, 0.06499070f, -0.00938277f,
    -0.05073406f, -0.04924895f, -0.15858063f, -0.31383768f, -0.43363073f, -0.34612030f, -0.12134825f, -0.07803710f,
    0.03762068f, 0.04858415f, -0.02756932f, 0.00818062f, 0.00165922f, -0.01844894f, -0.05359905f, 0.03916738f,
    0.02612125f, -0.03698008f, 0.05077511f, -0.04843531f, 0.04602685f, 0.00140655f, -0.01463157f, 0.05718587f,
    0.01813425f, -0.00168396f, -0.03649918f, 0.00906988f, 0.05494249f, -0.03844007f, -0.05569906f, -0.03054281f,
    -0.00231600f, -0.04097714f, -0.05743963f, -0.01544733f, 0.01437600f, 0.05513381f, -0.00235627f, -0.04134553f,
    0.01393734f, -0.01478176f, -0.04669044f, 0.02080342f, 0.05269890f, 0.01114904f, -0.01168707f, -0.00188305f,
    -0.03559137f, 0.01369028f, -0.00445855f, 0.02360597f, 0.02400018f, -0.05647944f, -0.01936766f, -0.05947014f,
    -0.02897911f, -0.03303827f, 0.00662156f, -0.01954476f, 0.04453119f, -0.04155571f, 0.01697553f, -0.02381959f,
    0.05761900f, 0.05868030f, 0.00110906f, -0.01982384f, 0.05293516f, 0.04505599f, -0.03934454f, -0.02278494f,
    -0.02587632f, 0.05394191f, -0.02895720f, 0.00089612f, 0.05531916f, -0.02222810f, -0.04556234f, -0.04652457f,
    0.02527621f, 0.04078633f, -0.01522876f, 0.04459291f, 0.05102643f, -0.04970861f, 0.05628665f, -0.02715026f,
    0.03333992f, -0.01282137f, -0.01823966f, 0.03776461f, 0.02485664f, 0.01087586f, 0.03738433f, -0.04738037f,
    0.04591572f, -0.00625405f, 0.02647107f, -0.04530063f, -0.01920302f, 0.00094302f, 0.01091416f, 0.03523451f,
    -0.01714103f, 0.05012947f, 0.01107479f, 0.04908310f, -0.01647824f, 0.01214116f, 0.03911717f, 0.04343943f,
    0.01154837f, 0.00307641f, 0.00355677f, -0.05294382f, -0.02420371f, -0.04737185f, 0.02303915f, 0.02582232f,
    -0.03055073f, 0.02236572f, -0.03511021f, -0.03290766f, -0.02480127f, 0.03307896f, -0.05247063f, -0.05372938f,
    -0.04517002f, 0.02999013f, -0.00680211f, -0.03410386f, 0.00427372f, -0.00927313f, -0.02964062f, -0.00863872f,
    -0.05145565f, -0.05350251f, 0.01898228f, -0.05291971f, 0.05674471f, 0.02959958f, -0.00006933f, 0.02975682f,
    0.03314453f, 0.02486777f, -0.04192642f, -0.01745315f, -0.04491427f, 0.02412816f, 0.03832757f, 0.00836538f,
    0.05338024f, -0.02830442f, 0.03866301f, 0.02421369f, 0.01035903f, 0.05604897f, 0.02884165f, -0.03113096f,
    -0.01778173f, 0.05707125f, -0.00981252f, -0.02381277f, -0.02766729f, 0.00681889f, 0.02925412f, 0.00154981f,
    -0.03482824f, -0.04759446f, 0.01444713f, -0.01683898f, 0.01284344f, -0.05555889f, -0.02277812f, 0.02277396f,
    0.05782060f, -0.01805097f, -0.03948537f, 0.05480578f, -0.00378398f, -0.00138043f, -0.05754178f, 0.00435819f,
    0.00185021f, -0.05268232f, -0.04475900f, 0.01937136f, -0.01660115f, 0.04253484f, -0.01936417f, -0.03212553f,
    -0.04244018f, -0.03650643f, 0.02079877f, -0.04589572f, -0.05328082f, -0.03660662f, -0.03617664f, -0.02851292f,
    0.04024163f, -0.05444083f, 0.01592370f, 0.00478981f, 0.02437626f, 0.03466671f, -0.00379489f, 0.02702304f,
    0.05333316f, -0.01984699f, 0.03587131f, -0.02901832f, -0.00004823f, -0.02260399f, -0.03009185f, 0.05541005f,
    -0.05397271f, 0.04379221f, 0.05671963f, 0.04204096f, 0.05561094f, -0.02100242f, 0.05364090f, 0.05325396f,
    0.04008951f, -0.02496394f, -0.02988855f, 0.00402363f, 0.04181191f, -0.01923990f, -0.03732114f, -0.02264781f,
    0.02071923f, 0.00910823f, -0.01730863f, 0.04400656f, 0.03802446f, -0.04233494f, -0.05594054f, 0.01680934f,
    -0.05619113f, -0.00808574f, -0.04589781f, -0.03407738f, 0.04805994f, -0.00988589f, -0.01689834f, -0.04646607f,
    0.00508792f, 0.00616553f, -0.03475332f, -0.02627084f, 0.01834141f, -0.05777799f, -0.04875064f, -0.03772118f,
    0.01790654f, 0.02749421f, -0.01654849f, -0.01066431f, -0.05882933f, -0.01613639f, -0.04586186f, 0.04211439f,
    -0.01820417f, -0.00292687f, 0.02280469f, -0.02426435f, -0.03842826f, 0.04055091f, -0.04799449f, -0.04768787f,
    -0.04809268f, -0.03817199f, 0.03518971f, 0.04603991f, 0.02880639f, 0.02664549f, -0.05151539f, 0.01193665f,
    -0.04006593f, 0.05178194f, 0.01658712f, 0.04941308f, 0.00851034f, -0.00944131f, 0.00437834f, -0.01843402f,
    0.04300075f, 0.00906203f, 0.04503713f, 0.01712384f, 0.00837137f, -0.02366703f, -0.03336523f, -0.02940712f,
    -0.04523517f, -0.06272891f, 0.04736058f, 0.15668517f, 0.19657773f, 0.05402859f, 0.07005857f, -0.07252017f,
    -0.03905777f, 0.09436516f, 0.04533927f, 0.00221781f, -0.05053231f, -0.26661468f, -0.29917124f, -0.13004249f,
    0.08153261f, 0.18201925f, -0.13911723f, 0.07608074f, 0.27498272f, 0.23389593f, 0.15757856f, 0.03936781f,
    -0.11620056f, -0.03391657f, 0.03545046f, 0.04173106f, -0.05605651f, -0.23028748f, -0.20987347f, -0.08855724f,
    0.05931000f, 0.16886328f, 0.17975321f, 0.08963338f, 0.00450370f, 0.04670037f, 0.07736249f, 0.13318333f,
    0.10742989f, 0.04219014f, 0.00303679f, -0.05188842f, -0.02199806f, 0.03479885f, 0.04568235f, -0.00372793f,
    0.04697239f, -0.03295498f, 0.03844654f, 0.12824145f, 0.11621615f, 0.05730096f, 0.05052080f, 0.01384128f,
    -0.00616842f, -0.01521581f, 0.04081549f, 0.00820078f, 0.04008922f, -0.01726617f, 0.03946756f, -0.03183778f,
    -0.02559510f, 0.04191266f, 0.07474361f, 0.14319806f, 0.15044880f, 0.07187732f, -0.00625349f, -0.08384104f,
    0.08766313f, 0.02062746f, -0.04709444f, 0.04640706f, 0.00578591f, 0.11544337f, 0.21308221f, 0.14959316f,
    0.15928873f, 0.05195937f, 0.15387121f, 0.19342111f, 0.11040644f, 0.04960319f, -0.03199750f, -0.17019761f,
    0.01753622f, 0.09551470f, 0.12748154f, 0.05309784f, 0.02960986f, -0.03895900f, -0.10836433f, -0.21778595f,
    -0.16112424f, -0.00417857f, 0.11959890f, 0.05642064f, 0.02788047f, 0.00784511f, 0.05427066f, 0.05222467f,
    -0.04097931f, 0.02181407f, -0.02221541f, -0.03396100f, 0.03651434f, -0.02948643f, -0.03061775f, 0.00780234f,
    0.11162788f, 0.17192201f, 0.09804037f, 0.00815251f, -0.07183152f, 0.09571140f, 0.02057775f, -0.01256551f,
    -0.08129997f, -0.22964880f, -0.11955377f, -0.01449829f, 0.07488043f, 0.19927394f, 0.09541564f, 0.06834055f,
    0.03653837f, -0.03560330f, -0.16172984f, -0.20977710f, 0.04229990f, 0.05671285f, 0.11193279f, 0.02340750f,
    -0.04405308f, 0.00065286f, -0.02688258f, 0.02705057f, 0.16976956f, 0.11835415f, 0.04043934f, -0.05761951f,
    0.05868313f, 0.00132185f, -0.05385153f, -0.20775695f, -0.14170808f, -0.07310943f, 0.09718128f, 0.15626568f,
    0.17439923f, 0.04765452f, 0.05137624f, -0.01306359f, -0.17955509f, -0.19387871f, 0.05002385f, 0.06449229f,
    0.17476796f, 0.20790859f, 0.05723727f, -0.01107432f, 0.01690248f, 0.12430046f, 0.14706318f, 0.11687474f,
    -0.01610867f, -0.01246552f, -0.01026491f, 0.06221402f, 0.03695151f, -0.00205684f, -0.01110187f, -0.22849040f,
    -0.15012237f, -0.03640157f, 0.05299230f, 0.15423425f, -0.11757625f, -0.10881401f, 0.22483461f, 0.32686535f,
    0.25044790f, -0.01497626f, -0.19664547f, -0.05700486f, 0.22153927f, 0.06419358f, 0.07083459f, 0.03581490f,
    0.03037085f, 0.04366431f, -0.06396072f, -0.25661549f, -0.17051791f, -0.05396660f, -0.02495092f, -0.02479071f,
    -0.00354334f, -0.03745648f, 0.05280238f, 0.05395468f, -0.01150215f, -0.05055297f, -0.05888951f, 0.04888240f,
    0.15452342f, 0.04776110f, 0.02439721f, -0.11675397f, -0.28355616f, -0.34684113f, -0.09762187f, 0.13161241f,
    0.02693645f, 0.04074998f, 0.04988566f, -0.02772227f, -0.06943624f, -0.17769071f, -0.16777156f, -0.02919220f,
    0.09186520f, 0.06487796f, -0.03040963f, -0.03586924f, -0.07023203f, 0.02262472f, 0.07394646f, 0.19616990f,
    0.18904832f, 0.00641604f, 0.08049518f, 0.07547561f, 0.11639163f, 0.03699795f, -0.08065073f, -0.19044116f,
    -0.11903854f, -0.03790266f, 0.14107476f, 0.14140834f, 0.08882722f, -0.00528694f, -0.11294468f, 0.06600697f,
    0.16045614f, 0.20959923f, -0.00897613f, -0.10249934f, 0.03243770f, 0.08772670f, 0.02275970f, -0.08630459f,
    -0.29295641f, -0.16375884f, -0.06043250f, 0.10328721f, 0.23311216f, -0.03660454f, -0.02151630f, -0.05226862f,
    0.00897118f, 0.07688031f, 0.15533023f, 0.02208739f, -0.00744689f, -0.05640937f, 0.13128956f, 0.09685563f,
    0.02980279f, -0.07510950f, -0.12496370f, -0.08662208f, 0.00539819f, 0.09793554f, 0.08944557f, -0.05346411f,
    0.00058458f, 0.04094646f, 0.13188824f, 0.19614100f, 0.10400082f, -0.00427810f, 0.00943778f, -0.05565454f,
    -0.02118169f, -0.02321105f, -0.08659483f, -0.27811331f, -0.28138143f, -0.21944563f, -0.09617928f, -0.03288363f,
    0.08074192f, -0.04167869f, -0.03621455f, -0.01151160f, 0.13408302f, 0.20105840f, 0.24961703f, 0.09347273f,
    0.03852252f, -0.00244030f, 0.11396910f, -0.09558379f, -0.32425165f, -0.25254270f, -0.16488482f, 0.05580250f,
    0.15873738f, 0.22189866f, 0.04214608f, -0.03512491f, 0.05734730f, 0.23175414f, 0.24615295f, 0.21187820f,
    0.03724682f, -0.00195903f, -0.02151739f, -0.05177081f, -0.07488324f, -0.08468843f, -0.24160893f, -0.27073357f,
    -0.31000412f, -0.14369555f, -0.00018362f, 0.08552690f, 0.08483579f, 0.07497297f, 0.11860975f, 0.09151552f,
    -0.01009103f, 0.03536802f, -0.08802232f, -0.21435320f, -0.29916075f, -0.20139836f, 0.04999827f, -0.01783511f,
    0.03105872f, -0.03690474f, 0.00117285f, 0.01892997f, -0.01274658f, -0.01161046f, 0.03087255f, -0.01394399f,
    -0.07464088f, -0.01599149f, -0.13009562f, -0.18478563f, -0.21178329f, -0.21852560f, -0.03421946f, 0.05354552f,
    -0.01504584f, 0.08445532f, 0.06321294f, 0.12499607f, 0.09868313f, -0.05074101f, -0.21757802f, -0.23326348f,
    -0.22473837f, -0.09365039f, -0.17025241f, -0.19802347f, -0.06750479f, 0.03656872f, 0.04701231f, 0.19162750f,
    0.04078294f, 0.00462142f, -0.04247325f, -0.08195169f, 0.00631114f, -0.01311747f, 0.05590697f, 0.19731466f,
    0.13646489f, 0.10597000f, -0.05087423f, 0.06539024f, 0.03566969f, 0.06363707f, 0.05780479f, 0.01500835f,
    -0.00681416f, 0.04249121f, 0.01401934f, -0.03238863f, 0.01484655f, 0.01100083f, -0.03243167f, -0.11635096f,
    -0.27290156f, -0.29205424f, -0.19641080f, -0.05927590f, -0.03118418f, 0.05451361f, -0.05294624f, -0.04525902f,
    0.07422329f, 0.12668698f, 0.14023052f, 0.10692295f, 0.02126114f, -0.02241519f, 0.03598703f, 0.00207135f,
    0.03577078f, -0.00938246f, 0.11763774f, 0.19005722f, 0.03458561f, -0.00455252f, -0.01209328f, 0.01225012f,
    0.02027899f, 0.04174587f, -0.04655474f, -0.21879005f, -0.20578729f, -0.23036298f, -0.13206099f, 0.00022114f,
    0.03377691f, 0.03422402f, 0.09711076f, 0.18761609f, 0.22927071f, 0.13615724f, -0.02852557f, -0.02202214f,
    0.03915014f, 0.00920191f, 0.03647286f, 0.10045352f, 0.15643160f, 0.18598755f, 0.01443194f, -0.03489649f,
    0.04390020f, 0.02810359f, -0.03685208f, -0.03669259f, -0.02284775f, -0.15905352f, -0.22933148f, -0.18235153f,
    -0.14885366f, -0.04945497f, 0.10638817f, 0.05048043f, 0.02801572f, -0.02042670f, -0.04673278f, 0.16491243f,
    0.11696954f, 0.08603878f, 0.06915673f, 0.02615991f, 0.09864015f, 0.11976780f, -0.10254318f, -0.16513532f,
    -0.13847294f, 0.06868461f, 0.30347055f, 0.13523547f, -0.06358793f, -0.02936837f, -0.07231129f, 0.02331894f,
    -0.06666577f, -0.02421852f, 0.09562733f, 0.19951220f, 0.20589079f, 0.01728925f, 0.01086552f, 0.01619418f,
    0.00826919f, 0.05807850f, 0.00240340f, 0.05691362f, -0.05779457f, -0.01855612f, 0.02525587f, -0.04121448f,
    0.01122595f, 0.01732953f, 0.03284992f, 0.15112762f, 0.31727928f, 0.28426877f, 0.10795780f, -0.01531178f,
    -0.01029797f, -0.10565788f, -0.10840432f, 0.06647319f, -0.01181937f, 0.07184428f, 0.13254280f, -0.02687051f,
    0.00805369f, 0.06418049f, 0.06492935f, 0.18470506f, 0.21239908f, 0.12149476f, -0.03831453f, -0.27662921f,
    -0.26805130f, -0.11118960f, 0.02040152f, -0.04078059f, -0.03811968f, -0.03857732f, -0.01054603f, 0.13988006f,
    0.11604049f, 0.05263990f, 0.02971787f, 0.00890814f, 0.07566594f, 0.22145690f, 0.15646794f, 0.06884978f,
    -0.10267229f, -0.10885800f, 0.02345477f, 0.16576676f, -0.06471854f, -0.00461884f, -0.06756207f, 0.09609950f,
    0.26891565f, 0.23318617f, 0.07056212f, 0.07227193f, -0.02946360f, 0.05751288f, -0.03139478f, -0.06685951f,
    -0.12009131f, -0.22095671f, -0.24932405f, -0.19171967f, -0.06376517f, 0.01423134f, -0.01249332f, -0.05199965f,
    -0.03102702f, 0.10412536f, 0.08882040f, 0.09567816f, 0.03912425f, 0.05833781f, -0.01259971f, 0.00924694f,
    0.01607800f, -0.10648797f, -0.19923860f, -0.31198105f, -0.25964740f, -0.12144232f, 0.01680114f, 0.02493391f,
    -0.05731557f, -0.01578355f, -0.00498209f, 0.17690501f, 0.13188720f, 0.08795806f, -0.00613556f, -0.02490855f,
    0.00756077f, 0.07568287f, 0.01270647f, -0.05660660f, -0.15693121f, -0.27686206f, -0.31676003f, -0.02230743f,
    0.04941276f, 0.16843766f, -0.15911205f, 0.00715641f, 0.29211956f, 0.24722472f, 0.13333046f, 0.04082302f,
    -0.04102303f, -0.04733138f, 0.07258598f, 0.02005083f, -0.08756457f, -0.21649151f, -0.28947520f, -0.16889663f,
    0.08362822f, 0.09787099f, 0.16325080f, 0.10469289f, -0.04819269f, -0.03608013f, 0.12715112f, 0.12721571f,
    0.10326862f, 0.11875918f, 0.00617680f, -0.01622050f, 0.01637244f, 0.14147489f, 0.07375937f, -0.01567994f,
    -0.03249558f, -0.01063264f, 0.00170895f, 0.13550426f, 0.13541178f, 0.08784282f, -0.00705012f, 0.00793705f,
    0.03404886f, -0.05835098f, -0.01904918f, -0.02788990f, 0.05581479f, -0.02584732f, -0.04286356f, -0.03827292f,
    0.01943332f, -0.02431384f, 0.10586464f, 0.12637523f, 0.08186246f, 0.04549462f, -0.02806868f, -0.06702285f,
    0.06815651f, -0.00378429f, -0.01567834f, -0.03039595f, -0.05506956f, 0.01872513f, 0.20879440f, 0.17662971f,
    0.14950910f, -0.00643000f, 0.12225386f, 0.15591419f, 0.11881931f, 0.03425821f, -0.00487589f, -0.15847327f,
    -0.02011380f, 0.04501452f, 0.11735003f, 0.02138567f, 0.07077387f, 0.00324050f, -0.03736546f, -0.13175796f,
    -0.15223716f, -0.05109113f, 0.14873368f, -0.02141280f, 0.04019378f, -0.03197421f, -0.01361714f, -0.01660281f,
    0.02507715f, -0.02186088f, 0.00007038f, -0.05257948f, -0.03841161f, 0.04754429f, -0.06258348f, 0.02042725f,
    0.16596586f, 0.17329863f, 0.02188789f, -0.02494495f, -0.07430283f, 0.02659592f, -0.01275475f, 0.02460105f,
    -0.15820034f, -0.20294289f, -0.10745992f, 0.05300714f, 0.16640249f, 0.12934236f, 0.07352984f, 0.05634412f,
    0.02469383f, -0.06795833f, -0.18466127f, -0.19500715f, 0.02244128f, 0.16135389f, 0.10696562f, 0.01036033f,
    0.01926108f, -0.02711889f, 0.05542245f, 0.13190527f, 0.08692684f, 0.13568883f, 0.06570615f, 0.01220812f,
    0.10027186f, 0.01819528f, -0.09976939f, -0.26889256f, -0.24929827f, -0.09015119f, 0.09912580f, 0.11404034f,
    0.18002225f, 0.11017556f, -0.04334682f, -0.10193805f, -0.19306108f, -0.21358749f, -0.04816204f, 0.16855562f,
    0.20885855f, 0.16892469f, 0.04094156f, 0.05437579f, -0.04063714f, 0.06293108f, 0.15105100f, 0.08779693f,
    -0.01305325f, -0.05794689f, -0.06258252f, 0.03130265f, -0.02905372f, 0.03645904f, 0.01897734f, -0.17307241f,
    -0.25683647f, 0.02931931f, 0.06473044f, 0.16238245f, -0.08043984f, -0.07474580f, 0.11833615f, 0.31595913f,
    0.16742174f, 0.02693514f, -0.11294156f, -0.00868709f, 0.23310660f, 0.09762636f, 0.12548211f, 0.08454432f,
    0.07195956f, 0.02206410f, -0.10954978f, -0.25193182f, -0.21293528f, -0.03329311f, -0.01467227f, 0.01816610f,
    0.01817418f, -0.02308233f, 0.03750528f, -0.01476847f, 0.04298235f, -0.05587242f, -0.02227430f, 0.12949790f,
    0.15890534f, 0.10635074f, 0.01256390f, -0.07096383f, -0.21706092f, -0.33255950f, -0.10026205f, 0.04276996f,
    0.08178825f, 0.04634795f, -0.02417083f, -0.00667752f, -0.04926782f, -0.19922002f, -0.18144895f, -0.02177238f,
    0.14918464f, 0.05642182f, -0.02222238f, -0.12705153f, -0.05206753f, 0.02716072f, 0.12038415f, 0.21440788f,
    0.18353543f, 0.04470007f, 0.04334982f, 0.06081628f, 0.07259014f, 0.03211281f, -0.03109487f, -0.13016503f,
    -0.13974322f, -0.01078153f, 0.04203532f, 0.14654630f, 0.06462751f, -0.03638642f, -0.09463321f, -0.00844373f,
    0.23435888f, 0.22332700f, 0.06630349f, -0.04081034f, -0.00664764f, 0.02001080f, -0.04194600f, -0.14913937f,
    -0.24442415f, -0.20303743f, -0.10864825f, 0.13358958f, 0.17967771f, 0.07543299f, -0.04796892f, 0.00483067f,
    0.01717411f, 0.09141353f, 0.17406060f, 0.03709961f, 0.03253698f, 0.03239379f, 0.14663966f, 0.06599651f,
    0.00813111f, -0.03924136f, -0.09785185f, -0.09581847f, 0.03372917f, 0.06211299f, 0.11884397f, 0.01858094f,
    0.00268590f, 0.04654705f, 0.12640826f, 0.10027949f, 0.06688391f, -0.01124822f, -0.02153581f, 0.02237983f,
    0.03949083f, -0.04833712f, -0.10317092f, -0.24987663f, -0.30969369f, -0.16151646f, -0.03142287f, 0.12919292f,
    0.16718629f, 0.07458665f, 0.01183261f, 0.01787686f, 0.14540815f, 0.29734266f, 0.32961500f, 0.11026771f,
    0.02347024f, -0.04211110f, 0.20902374f, 0.06121184f, -0.19014236f, -0.22991821f, -0.06270546f, 0.06817444f,
    0.23078193f, 0.18905470f, 0.03440134f, -0.02843430f, 0.08885234f, 0.26611391f, 0.36309320f, 0.21201748f,
    -0.01350194f, -0.00689373f, -0.08249412f, -0.03028529f, -0.04449170f, -0.08504342f, -0.21135056f, -0.39164418f,
    -0.22104762f, -0.07769418f, -0.04345568f, 0.03557449f, 0.13547385f, -0.05295558f, 0.01190159f, 0.10012238f,
    0.04162026f, 0.03440834f, -0.12338016f, -0.29125470f, -0.20881185f, -0.11999182f, 0.04776182f, -0.03734650f,
    -0.03811815f, 0.04074354f, -0.05162961f, 0.00730969f, 0.00437809f, 0.02188988f, 0.00509917f, -0.01939901f,
    0.01833070f, -0.01166717f, -0.17388225f, -0.27500272f, -0.20493519f, -0.14207734f, -0.01966858f, -0.00430796f,
    0.04596765f, 0.08803656f, 0.03173694f, 0.05494958f, 0.00065274f, -0.07056540f, -0.26296240f, -0.22794244f,
    -0.17544447f, 0.01125497f, -0.21406740f, -0.18802625f, -0.01331556f, 0.05212243f, 0.19031692f, 0.24858752f,
    0.13710207f, 0.03335308f, 0.04097787f, 0.04346054f, 0.00478225f, 0.08887489f, 0.09449653f, 0.27194005f,
    0.17498000f, 0.05593875f, -0.01747934f, 0.01056785f, -0.04300882f, -0.03448261f, -0.04522367f, 0.02391161f,
    0.01596810f, -0.00999305f, 0.05904194f, -0.03212479f, 0.05470918f, -0.03833108f, -0.00968235f, -0.16127646f,
    -0.29665032f, -0.23220615f, -0.12549527f, -0.08117369f, 0.00632646f, -0.03420000f, -0.00673414f, 0.02768948f,
    0.19214076f, 0.21952723f, 0.14941770f, 0.03701961f, -0.00199817f, -0.11754085f, -0.01118247f, 0.04603032f,
    0.07824014f, 0.08029172f, 0.18174407f, 0.27005395f, 0.05111266f, -0.00105365f, -0.12889679f, 0.05812183f,
    -0.05938629f, -0.02094672f, -0.05577078f, -0.19731955f, -0.18373646f, -0.13817547f, -0.08946515f, 0.04713952f,
    0.04739479f, -0.02388773f, 0.17383333f, 0.32605529f, 0.24173677f, 0.13136733f, -0.04176381f, -0.06965739f,
    -0.10613905f, 0.02102451f, 0.05253922f, 0.12548037f, 0.24570432f, 0.25244156f, 0.09248623f, -0.03637969f,
    -0.04417524f, -0.00060578f, 0.03725335f, 0.00634710f, 0.00094088f, -0.15950891f, -0.21502656f, -0.11368207f,
    -0.00267770f, 0.03793817f, 0.09608476f, 0.00836513f, -0.01856416f, 0.01549454f, 0.05572169f, 0.28527546f,
    0.24811856f, 0.02550988f, -0.09392916f, -0.06480321f, 0.18804197f, 0.10961355f, -0.11803473f, -0.20558821f,
    -0.15567787f, 0.03799943f, 0.29103577f, 0.18958306f, -0.12590094f, 0.08582399f, -0.03604493f, -0.02908844f,
    0.04161095f, 0.04372234f, 0.08065405f, 0.24965587f, 0.17230187f, 0.05931246f, -0.03278629f, -0.03355664f,
    0.04296006f, -0.03294064f, -0.03581558f, 0.01187322f, -0.01274734f, -0.04561837f, 0.05428224f, 0.00722695f,
    0.05050098f, 0.02736095f, 0.10069483f, 0.12245346f, 0.30573446f, 0.41069201f, 0.13288483f, 0.03176888f,
    0.01913663f, 0.02731920f, -0.03695324f, 0.09981725f, 0.13492137f, 0.21399771f, 0.16068406f, 0.06035937f,
    -0.02545198f, 0.01711557f, 0.13637771f, 0.21931615f, 0.21721341f, 0.08134651f, -0.00339622f, -0.21226415f,
    -0.14081679f, -0.08009682f, 0.00201548f, -0.03198744f, -0.01736409f, 0.07809922f, 0.05113545f, 0.16310084f,
    0.19819748f, -0.02150099f, -0.07812450f, -0.06409440f, 0.02312438f, 0.16099626f, 0.21421717f, -0.02748424f,
    -0.15722610f, -0.11894678f, -0.03339344f, 0.15934898f, 0.03320369f, -0.04245356f, -0.00938447f, 0.20736028f,
    0.34267437f, 0.32821807f, 0.12970029f, 0.01379450f, -0.15087457f, 0.08027054f, 0.04073343f, 0.02926187f,
    -0.17103615f, -0.25522152f, -0.27876958f, -0.11831447f, -0.05262473f, 0.05735762f, 0.03737898f, 0.02954048f,
    0.06055561f, 0.04968788f, 0.13442735f, 0.16017824f, -0.00275357f, 0.01945152f, -0.10991597f, 0.01504049f,
    -0.02010996f, -0.09429436f, -0.20852387f, -0.30924004f, -0.22985741f, -0.04608194f, -0.02068272f, 0.12695673f,
    -0.03038664f, 0.03358771f, -0.07254120f, -0.24480018f, -0.30379683f, -0.09984444f, 0.02905434f, 0.05371191f,
    0.11074046f, -0.02856167f, 0.02723284f, 0.09033729f, 0.12144130f, 0.34833187f, 0.45620483f, 0.19176885f,
    0.00073023f, -0.08534528f, 0.22216001f, 0.07703800f, -0.18454805f, -0.23501706f, -0.04791631f, 0.04545202f,
    0.15097074f, 0.20758967f, 0.05823141f, 0.01395741f, 0.08980484f, 0.31500325f, 0.36732975f, 0.22235154f,
    -0.01286287f, -0.01923552f, -0.06530157f, -0.08009154f, -0.04558955f, -0.13387702f, -0.20871834f, -0.37617952f,
    -0.28595108f, -0.11310410f, 0.01059661f, 0.10804230f, 0.03370618f, 0.02381821f, 0.10763540f, 0.13960674f,
    0.08909822f, -0.06499553f, -0.14447066f, -0.31963426f, -0.32134616f, -0.16310486f, 0.03509210f, 0.04113165f,
    0.01272367f, 0.02527208f, 0.05210976f, 0.04945791f, -0.02725805f, 0.05794644f, -0.01142457f, 0.03256761f,
    -0.02043648f, -0.01413199f, -0.12156147f, -0.26414564f, -0.17980714f, -0.13073243f, -0.00396703f, 0.05231899f,
    0.01049551f, 0.04515412f, 0.12883234f, 0.06881326f, 0.10550088f, -0.01520977f, -0.26996350f, -0.33325028f,
    -0.15675168f, -0.07147415f, -0.16727930f, -0.15272386f, -0.10087914f, 0.10881483f, 0.19605207f, 0.22594519f,
    0.14429910f, 0.05560371f, 0.00864746f, -0.02866339f, 0.03608388f, 0.07325777f, 0.16957204f, 0.24953228f,
    0.16491818f, 0.09617838f, -0.08516723f, -0.00944999f, -0.05358440f, 0.03582188f, -0.03817723f, 0.01665393f,
    -0.04064522f, -0.00759448f, 0.01683458f, -0.01107263f, -0.04584915f, -0.05974961f, -0.02702264f, -0.08395514f,
    -0.31790489f, -0.29781967f, -0.09402172f, -0.02929510f, 0.04165103f, 0.02980825f, 0.05909945f, 0.03837935f,
    0.26233539f, 0.33294228f, 0.18882877f, 0.01138783f, -0.05828837f, -0.03606547f, 0.02630871f, 0.08197408f,
    -0.00819172f, 0.15042228f, 0.26973426f, 0.20965452f, 0.00250841f, -0.05077154f, -0.02482248f, -0.01281690f,
    -0.06300457f, 0.03047039f, -0.07637817f, -0.23811917f, -0.29457545f, -0.19549230f, -0.02457594f, 0.07443504f,
    -0.00887551f, 0.06272905f, 0.13246530f, 0.35558879f, 0.25839791f, 0.09334755f, 0.00910426f, -0.03224104f,
    -0.10277937f, -0.04593313f, 0.00889516f, 0.14618650f, 0.27160364f, 0.31356290f, 0.09126168f, -0.02754379f,
    -0.08552484f, -0.01995053f, -0.04750493f, 0.01823040f, -0.04381917f, -0.21799023f, -0.24439003f, -0.20926037f,
    -0.09760766f, 0.04417459f, 0.08121549f, -0.02463450f, 0.03405960f, 0.07869942f, 0.08264914f, 0.32160461f,
    0.29599425f, 0.09062891f, -0.06689702f, -0.06068226f, 0.26224986f, 0.12989007f, -0.11211073f, -0.19616920f,
    -0.13737166f, 0.07698441f, 0.33664396f, 0.17322607f, -0.14060247f, 0.09989600f, 0.01976368f, -0.04840653f,
    -0.00185477f, 0.06688475f, 0.11644965f, 0.35389352f, 0.23832010f, 0.06156391f, 0.05472858f, 0.05532398f,
    0.03220152f, 0.00005728f, 0.00523939f, -0.02852162f, 0.01809811f, 0.03727798f, -0.03566660f, -0.05177540f,
    0.02128210f, 0.00937361f, -0.00333515f, 0.20737767f, 0.32320493f, 0.33717713f, 0.16637778f, -0.07480159f,
    0.06529380f, 0.01066928f, 0.00435022f, 0.07396743f, 0.14844982f, 0.24407823f, 0.22631560f, 0.05889544f,
    -0.06553797f, 0.08471031f, 0.15378015f, 0.17657667f, 0.15678544f, 0.08010497f, 0.00536194f, -0.15905768f,
    -0.25242263f, -0.13079369f, 0.05957048f, -0.02991464f, 0.02498237f, 0.11317393f, 0.10268253f, 0.25189373f,
    0.17400326f, 0.05489848f, -0.07028253f, -0.10135890f, 0.01445735f, 0.23043674f, 0.23972379f, 0.01065487f,
    -0.11199419f, -0.15838365f, 0.02164099f, 0.20584363f, 0.04855255f, 0.01150601f, 0.09342390f, 0.16818640f,
    0.41681680f, 0.28204063f, 0.11683837f, 0.05476689f, -0.11499012f, -0.02184741f, -0.00536691f, -0.03288673f,
    -0.18116227f, -0.22240163f, -0.27164772f, -0.18826921f, -0.00472437f, 0.03198114f, -0.04348081f, -0.00149661f,
    0.03062502f, 0.14941145f, 0.15407993f, 0.12738031f, -0.00124022f, -0.07463443f, -0.10864134f, -0.02566003f,
    0.02136083f, -0.10060425f, -0.16714031f, -0.34751940f, -0.20194328f, -0.04322548f, -0.01477371f, 0.03050325f,
    -0.02315487f, 0.02700173f, -0.00607666f, 0.09652396f, 0.17598519f, 0.08203328f, 0.04621058f, -0.07643388f,
    -0.07134829f, 0.05660390f, 0.01323013f, -0.01607519f, -0.15645520f, -0.30022892f, -0.28701994f, -0.03765598f,
    -0.01222346f, 0.09296710f, -0.20009963f, 0.00832469f, 0.26519147f, 0.32633325f, 0.19350426f, 0.06866907f,
    -0.08872437f, -0.12319985f, 0.06987265f, 0.04161689f, -0.08508965f, -0.23720980f, -0.27356565f, -0.08859882f,
    0.05071845f, 0.10914177f, 0.20338219f, 0.10455586f, -0.03953580f, -0.00112653f, 0.09209103f, 0.21392168f,
