// Auto-généré par export_weights.py — NE PAS ÉDITER
// Modèle : TinyCpaTCN  (3× Conv1d k=9 + Linear)
#pragma once

namespace TcnWeights {

// Conv1d  1→16, k=9
static const float conv0_weight[144] = {
    0.15581851f, -0.19705728f, -0.02789976f, -0.18541053f, 0.02316625f, 0.20350727f, 0.43254316f, 0.33702549f,
    0.50581682f, -0.28820860f, -0.18118763f, -0.04181506f, -0.33029112f, -0.25595805f, -0.41632774f, -0.00804392f,
    -0.24711059f, -0.16224222f, 0.35017091f, 0.44833910f, 0.21731840f, 0.13442196f, 0.05484489f, 0.20343454f,
    -0.10671265f, 0.26082680f, -0.27963561f, 0.14968155f, 0.11503725f, 0.12691569f, 0.17437366f, 0.40713409f,
    -0.00374037f, 0.06021609f, 0.13347010f, -0.16454767f, 0.28252801f, 0.18085140f, 0.29021460f, 0.56644857f,
    0.43813783f, -0.22718796f, -0.11528931f, -0.42899203f, -0.24686167f, 0.22745121f, 0.00403381f, 0.33296782f,
    -0.01280396f, 0.29754832f, 0.20333040f, 0.00530566f, 0.25818521f, 0.34469083f, -0.08918589f, -0.15651420f,
    -0.03563586f, 0.10085969f, -0.00308265f, -0.30525881f, -0.49246809f, -0.19994251f, 0.15841974f, 0.17865190f,
    0.43108800f, 0.33650753f, -0.30598494f, -0.13192376f, 0.19721329f, 0.21729119f, 0.23753461f, 0.28660336f,
    0.33328623f, 0.41119578f, 0.32226792f, 0.10001937f, -0.25140885f, -0.39580616f, -0.13946103f, -0.21129382f,
    0.44431594f, 0.37223443f, 0.61085314f, 0.39500359f, 0.47211811f, 0.06184969f, -0.14806043f, 0.14989690f,
    0.31159580f, 0.06027316f, -0.19507861f, -0.68305409f, -0.73372000f, -0.07681402f, 0.01209869f, -0.33755386f,
    0.30791941f, 0.10347811f, -0.00454205f, -0.29005525f, 0.22711672f, 0.10812607f, -0.32249719f, -0.38520190f,
    0.01221470f, 0.21853274f, -0.38857475f, -0.38104993f, -0.53885502f, -0.18228111f, -0.28666380f, 0.38816872f,
    0.33242312f, 0.11073297f, -0.15872365f, -0.44107094f, -0.03339081f, 0.33474511f, 0.14443471f, -0.06400437f,
    -0.04426432f, 0.16568814f, 0.00029936f, 0.23879607f, 0.19845855f, -0.10476913f, 0.27333254f, 0.16880897f,
    -0.06361941f, 0.24179049f, -0.06650724f, -0.02960574f, 0.37553689f, 0.27423906f, -0.06299813f, 0.30820501f,
    0.70162690f, 0.58327633f, 0.31824508f, 0.16272733f, 0.11143656f, -0.18972075f, 0.07410950f, -0.29661441f
};

static const float conv0_bias[16] = {
    0.14796598f, -0.02970279f, 0.11741580f, 0.22845627f, -0.25928500f, -0.02593560f, 0.10531438f, -0.12694404f,
    0.58851510f, -0.05888229f, 0.25761712f, -0.07221194f, 0.21892804f, -0.05461168f, -0.01917060f, 0.29792523f
};

// Conv1d 16→32, k=9
static const float conv2_weight[4608] = {
    -0.18775530f, -0.09901568f, -0.03945697f, 0.01274901f, 0.16512512f, 0.08899652f, 0.15038174f, 0.14699318f,
    0.14635944f, 0.00768201f, 0.14274123f, 0.18821935f, 0.18437463f, 0.17458668f, 0.02782093f, 0.05712690f,
    0.14128064f, 0.06352982f, -0.01278809f, -0.05419895f, -0.02474224f, -0.16071813f, -0.06821185f, -0.10660343f,
    -0.24044877f, -0.11600965f, -0.03404878f, 0.01396959f, 0.01806211f, -0.03656784f, -0.03768696f, -0.06369977f,
    -0.00154349f, 0.03978138f, 0.04029644f, 0.14680582f, 0.12844262f, 0.03997919f, 0.06711719f, -0.06986049f,
    -0.17987157f, -0.03665586f, 0.23760971f, 0.25825185f, 0.17536394f, -0.08047460f, -0.10869879f, -0.19275504f,
    -0.19385239f, -0.08195662f, -0.07681234f, -0.00288899f, 0.07510096f, 0.02594984f, 0.09602121f, 0.20264649f,
    0.15053277f, 0.01565472f, 0.09831860f, 0.02881323f, 0.14774515f, 0.15180528f, 0.13061135f, -0.17803891f,
    -0.19374572f, -0.24334663f, -0.02964958f, -0.07569958f, 0.01467566f, -0.14668766f, -0.07248904f, 0.03177185f,
    0.02975125f, 0.12490288f, 0.09046005f, 0.08977146f, 0.07074919f, -0.04309310f, 0.00511681f, -0.05284416f,
    -0.00745521f, -0.02514357f, 0.03667034f, 0.06302737f, -0.09966368f, -0.34551165f, -0.37908992f, -0.24648054f,
    -0.09611972f, -0.02738375f, -0.00203834f, 0.07841983f, 0.10214633f, 0.14972302f, 0.13430823f, 0.17551270f,
    0.09050627f, 0.16323499f, 0.10825769f, 0.19424884f, 0.07089860f, 0.12554243f, 0.13331352f, 0.14820433f,
    0.13247566f, 0.14820485f, 0.03473286f, -0.01252459f, 0.18249008f, 0.19188258f, 0.12459388f, -0.01152512f,
    0.01056342f, 0.09924806f, 0.09113266f, 0.18151668f, 0.10599345f, -0.04376246f, -0.00580876f, -0.02334240f,
    -0.12177063f, 0.02822656f, -0.11067155f, -0.05921093f, -0.01405145f, -0.05804879f, -0.15250613f, -0.06031587f,
    -0.13730636f, -0.02809266f, -0.01723653f, -0.08084667f, 0.00309015f, -0.01990026f, 0.02067324f, -0.05045172f,
    0.10261672f, 0.01396514f, 0.07868032f, -0.01426733f, -0.17477661f, -0.22022203f, -0.10284679f, -0.13183877f,
    -0.23528057f, -0.19623631f, -0.07757875f, 0.03437586f, 0.06921946f, 0.12622109f, 0.12059505f, 0.06783869f,
    0.04092561f, -0.04099724f, 0.09471019f, 0.10675681f, 0.09365869f, 0.22397910f, 0.19027270f, 0.13193752f,
    0.11771818f, 0.13867620f, -0.07798342f, -0.01536202f, -0.05185555f, -0.06179924f, -0.08787668f, -0.09367052f,
    -0.07147755f, -0.19793241f, -0.11897254f, 0.09881233f, -0.01784740f, 0.10103170f, -0.04907339f, -0.05636822f,
    -0.10060863f, -0.07295518f, -0.06204170f, 0.14306290f, 0.02081981f, 0.15662080f, 0.07725854f, 0.04328584f,
    -0.03443943f, -0.13550243f, 0.01780133f, 0.23565210f, 0.29197305f, -0.12458360f, -0.11723886f, -0.22461469f,
    -0.19534910f, -0.16478388f, 0.00401539f, -0.09180965f, -0.07443551f, -0.01875005f, 0.14768778f, 0.08725689f,
    0.19711933f, 0.20534897f, 0.07132825f, 0.05357797f, 0.14763232f, 0.04712125f, 0.15261351f, -0.13543919f,
    -0.16789669f, -0.23027511f, -0.11354456f, 0.13165306f, 0.05241196f, 0.01843638f, -0.01810938f, 0.08167229f,
    0.08017609f, 0.04289246f, 0.08867922f, 0.10197846f, 0.09122386f, 0.05249032f, 0.06584647f, -0.00033123f,
    -0.08880360f, -0.02068977f, 0.02955464f, 0.00996474f, 0.05301473f, -0.10193278f, -0.52861196f, -0.40620005f,
    -0.28163654f, -0.18284334f, 0.11532246f, 0.09191012f, -0.00227807f, 0.07785972f, 0.01654668f, 0.13553476f,
    0.14347227f, 0.15034065f, 0.10667279f, 0.14967012f, 0.05338499f, 0.15770322f, 0.11505505f, 0.07267963f,
    0.17742574f, 0.18137179f, 0.16041815f, 0.12053194f, 0.09777951f, 0.22323452f, 0.19330306f, 0.13398485f,
    0.07422053f, 0.07704769f, 0.08197767f, 0.17132013f, 0.13467102f, -0.01161161f, -0.00686255f, -0.08839995f,
    -0.13121171f, -0.04082396f, 0.02289641f, -0.02450856f, 0.00481102f, -0.01511421f, -0.05977121f, -0.11843879f,
    -0.17777272f, -0.11217579f, -0.04369844f, -0.07941270f, 0.00221580f, 0.02083996f, 0.03305390f, 0.02343173f,
    -0.04591335f, -0.00996811f, -0.04142165f, -0.09042566f, -0.12690318f, -0.06501126f, -0.26045990f, -0.10016619f,
    -0.10887943f, -0.26449949f, -0.36209020f, -0.27699053f, -0.11195771f, -0.02157975f, 0.22345990f, 0.24717698f,
    0.18115710f, -0.06711919f, -0.07201561f, -0.06996014f, 0.08368205f, 0.13126786f, 0.23515180f, 0.30963415f,
    0.29024392f, 0.15621579f, 0.06073967f, 0.05033312f, -0.00359601f, -0.09938952f, -0.02584946f, -0.06591527f,
    -0.21076697f, -0.31464139f, -0.44367602f, 0.13313660f, 0.06773309f, 0.08349775f, 0.08054543f, -0.03709041f,
    -0.06067340f, -0.11891300f, -0.17173135f, -0.09343699f, 0.02721368f, 0.33186650f, 0.25731266f, 0.17461328f,
    0.16738269f, -0.02693498f, -0.11998770f, -0.17633945f, -0.02231125f, -0.00924897f, -0.14930199f, -0.10340226f,
    -0.24770580f, -0.33136973f, -0.00988484f, 0.04649413f, 0.08717687f, 0.12392077f, -0.00025111f, 0.07376666f,
    0.20049280f, 0.15523019f, 0.20108132f, 0.08382662f, 0.09273711f, 0.01231478f, 0.04677948f, -0.06503922f,
    -0.13325466f, -0.20881198f, -0.23645440f, -0.05003817f, 0.36283454f, 0.34846708f, 0.09000569f, 0.14119726f,
    -0.06190867f, 0.07111633f, 0.15105908f, 0.19890617f, 0.25161389f, 0.19670184f, 0.09025403f, 0.04244168f,
    -0.10781692f, 0.04664496f, 0.03421472f, 0.02989132f, -0.05690320f, 0.02081171f, -0.00122093f, -0.11721765f,
    -0.37894571f, -0.17579976f, -0.00067351f, -0.02809562f, -0.07735801f, -0.06443165f, 0.03893891f, 0.06364904f,
    0.15740183f, 0.35042226f, 0.30662543f, -0.02872104f, 0.06972148f, -0.04150124f, 0.02134783f, 0.22349511f,
    0.58648765f, 0.40964714f, 0.28989998f, 0.17340532f, 0.04099198f, 0.07457495f, 0.07866211f, 0.05689048f,
    -0.03113010f, -0.10477984f, -0.09060431f, -0.05542481f, 0.07865600f, 0.07860257f, -0.01750614f, -0.06472932f,
    -0.11668506f, -0.17070845f, -0.11871475f, 0.10193656f, 0.05060003f, 0.01375400f, 0.03977114f, -0.00329182f,
    -0.08026217f, -0.26377192f, -0.28385833f, -0.16209604f, 0.15542695f, 0.20348556f, 0.11128370f, -0.09370900f,
    0.01431310f, 0.07404449f, 0.03833409f, 0.08348598f, 0.11130115f, -0.12052555f, -0.27678084f, -0.44690281f,
    -0.24156709f, -0.18706004f, -0.07471780f, 0.14848383f, 0.12323070f, 0.09721040f, 0.11749117f, 0.06030844f,
    0.10511431f, 0.16042633f, 0.18498977f, 0.26724502f, 0.22431628f, 0.09401910f, 0.15224083f, 0.15823682f,
    0.14648333f, 0.11942226f, -0.05638144f, 0.02703879f, -0.08744386f, -0.03103421f, -0.10143138f, -0.31048071f,
    -0.28717795f, -0.10292722f, -0.03548183f, -0.03009281f, 0.10824412f, -0.06672049f, -0.07845567f, -0.14646173f,
    -0.00418629f, 0.04519941f, 0.09792784f, 0.15122448f, 0.19816923f, 0.18350708f, -0.03107627f, -0.02657510f,
    -0.12839556f, -0.13421117f, 0.39214355f, 0.48317048f, 0.33087215f, -0.04614245f, -0.24976103f, -0.17813443f,
    -0.02823779f, -0.02576457f, 0.06212002f, -0.04785859f, 0.10385516f, 0.13291670f, 0.08520894f, 0.25224763f,
    0.16460729f, 0.08207366f, 0.09028208f, 0.04394995f, 0.03210783f, 0.07923380f, 0.04465611f, -0.14096928f,
    -0.30165908f, 0.08359456f, 0.22023495f, 0.12650312f, 0.02163136f, 0.06054968f, -0.02759407f, -0.00526193f,
    0.05591154f, 0.06751893f, 0.19922161f, 0.15222733f, 0.03752010f, -0.11701466f, -0.12562379f, -0.02403799f,
    0.07858802f, 0.00827583f, 0.04915101f, -0.02825797f, -0.01774862f, -0.53710008f, -0.32024977f, -0.19099484f,
    -0.06098954f, -0.05159386f, -0.02751718f, 0.05775326f, 0.06243638f, 0.07388594f, 0.22162239f, 0.22076763f,
    0.15810706f, 0.20188719f, 0.09853511f, 0.07584956f, 0.07827704f, 0.16710688f, 0.25159615f, 0.14097115f,
    0.19395241f, 0.03341085f, 0.09728953f, 0.10603058f, 0.04746943f, 0.04634229f, -0.00184823f, 0.01208124f,
    0.06492208f, 0.16588075f, 0.10179397f, 0.10732298f, -0.01473115f, -0.08913475f, -0.07719912f, -0.14699844f,
    -0.13062873f, 0.02233459f, 0.10033311f, -0.02252064f, -0.07413471f, 0.04856001f, -0.16648297f, -0.13722976f,
    -0.26551908f, -0.08476447f, 0.10470165f, -0.00645204f, 0.07600202f, -0.03638009f, 0.04588079f, 0.08921257f,
    0.01914405f, 0.02074401f, -0.07562653f, -0.17269295f, -0.27701733f, -0.32523862f, -0.20809691f, -0.00965255f,
    0.20058957f, 0.25237235f, 0.03758686f, -0.27059168f, -0.30970311f, -0.29781023f, -0.11570459f, 0.03002931f,
    -0.00258181f, 0.03709388f, 0.01041162f, 0.00501551f, 0.11568625f, 0.18528859f, 0.16607916f, 0.31003553f,
    0.08713713f, 0.00895124f, 0.14355332f, 0.12466699f, -0.00442534f, -0.08212841f, -0.14401497f, -0.06857076f,
    0.04509190f, 0.08058774f, 0.06368773f, -0.09422931f, -0.06275832f, -0.12548268f, -0.03442349f, -0.00328456f,
    0.09941518f, -0.03568101f, -0.17055407f, -0.05395574f, -0.00373501f, -0.09416200f, -0.07858513f, 0.31565565f,
    0.57209778f, 0.54319519f, 0.14967071f, -0.16069491f, -0.12852381f, -0.03837151f, 0.13298003f, -0.04187870f,
    0.02290628f, 0.06973524f, -0.01936920f, 0.13270782f, 0.07640150f, 0.03316130f, 0.20143877f, -0.12885119f,
    -0.20735890f, -0.07878742f, 0.25809106f, 0.45374069f, 0.35732144f, -0.10709083f, -0.58033735f, 0.18505745f,
    0.39405844f, 0.17221181f, -0.14983968f, -0.14937288f, -0.16619457f, 0.28668514f, 0.46858332f, 0.04721698f,
    0.07330442f, 0.13762724f, -0.08168653f, -0.25309011f, -0.10945605f, 0.27532786f, 0.34221947f, 0.17575228f,
    -0.24634111f, 0.14120051f, 0.18255611f, 0.14570686f, -0.11603882f, -0.05528784f, 0.05367200f, 0.09502529f,
    0.21885815f, 0.18683939f, 0.09393961f, 0.11983094f, 0.25272393f, 0.21188982f, 0.12659806f, -0.02602264f,
    -0.06828946f, -0.12600257f, 0.24106117f, -0.19439310f, 0.12924695f, 0.18409023f, 0.30802277f, 0.08620990f,
    -0.05639505f, 0.05906892f, -0.13407654f, -0.35544246f, -0.08489326f, -0.45444679f, -0.10462153f, 0.48948002f,
    0.55723572f, 0.18883182f, -0.31398112f, -0.59799081f, -0.45383853f, -0.17631929f, 0.07722210f, 0.13177352f,
    0.10374679f, -0.10942156f, -0.01303811f, 0.05504131f, 0.32638881f, 0.33013451f, -0.06652239f, 0.16863532f,
    0.20143412f, -0.02478937f, -0.09268275f, -0.06015897f, 0.05298064f, 0.40899649f, 0.20346057f, 0.12050856f,
    0.11899117f, -0.12432770f, -0.12366857f, -0.26446885f, -0.11646716f, -0.03958485f, 0.06455733f, -0.01722572f,
    0.06117272f, 0.29814461f, 0.43070102f, 0.53771359f, 0.27356553f, 0.06315374f, -0.08647697f, -0.17545994f,
    -0.11300638f, 0.05937071f, 0.05554621f, -0.00235760f, 0.01601986f, -0.06421626f, 0.03080415f, 0.01948170f,
    -0.01121041f, 0.17180559f, 0.25535116f, 0.06296448f, -0.00208863f, 0.00189094f, -0.14688155f, 0.05683775f,
    0.16435862f, 0.16871054f, 0.33188140f, 0.08574152f, 0.03881495f, 0.04596766f, -0.08606470f, -0.06705275f,
    0.09769575f, 0.13406293f, 0.11677755f, 0.12155971f, 0.31412864f, -0.22252667f, -0.57250953f, -0.45274931f,
    -0.17673655f, -0.06908657f, 0.13126934f, 0.32454276f, 0.34037504f, -0.02054854f, 0.00833254f, -0.01324841f,
    0.02890731f, 0.03696980f, 0.06976593f, 0.17366183f, 0.18820085f, 0.31348920f, 0.17062552f, 0.12350277f,
    0.02212246f, -0.02813893f, -0.03824399f, -0.05067369f, 0.01870571f, 0.16558734f, -0.10828312f, 0.03795388f,
    0.04631761f, 0.04981696f, -0.02758738f, -0.01322645f, -0.06210038f, 0.00516867f, 0.08874539f, 0.19801885f,
    0.52020144f, 0.40524140f, -0.05299435f, -0.43646976f, -0.61796814f, -0.32711712f, -0.08824293f, 0.22772320f,
    0.24600668f, 0.23368882f, 0.09230647f, 0.00048518f, -0.12095432f, -0.28630158f, -0.20295286f, -0.10059869f,
    0.17475821f, 0.38842174f, 0.06353816f, 0.08698326f, 0.16196856f, 0.18851347f, 0.27647066f, 0.03661732f,
    0.07713593f, -0.15041560f, -0.15215951f, -0.06733338f, 0.05117942f, 0.00308738f, 0.06574471f, 0.13237564f,
    0.08128630f, 0.06583118f, -0.01179534f, -0.33750004f, -0.07115173f, -0.14031240f, -0.21304739f, 0.06375749f,
    0.33442000f, 0.49573097f, 0.38922495f, 0.23596326f, -0.08106822f, 0.08954071f, 0.04980117f, 0.06172876f,
    0.00054018f, -0.01718970f, 0.01182851f, 0.01158125f, 0.03054762f, 0.31244680f, 0.05809687f, -0.01505645f,
    -0.01221341f, 0.02640799f, 0.09658016f, 0.04321107f, 0.10552247f, 0.10138379f, 0.41795379f, 0.29137903f,
    0.12405948f, 0.00739302f, -0.26099688f, -0.23508994f, -0.11232464f, 0.15804537f, 0.17476127f, 0.29485267f,
    0.12087526f, 0.11847521f, 0.09760742f, 0.03870817f, 0.01091302f, -0.02816785f, -0.07138307f, 0.01736617f,
    -0.08267455f, 0.05864134f, -0.05697372f, -0.03527118f, -0.22183488f, -0.22361358f, -0.15140519f, -0.01939207f,
    -0.08573365f, -0.01390904f, 0.07537294f, 0.02315845f, 0.04663478f, 0.12087599f, 0.13050759f, 0.05797864f,
    0.14574850f, 0.02226681f, 0.10911485f, -0.01389100f, -0.00220802f, 0.12312370f, 0.11154983f, 0.09660789f,
    0.08698066f, 0.12497192f, 0.00468999f, 0.03734298f, -0.12746988f, -0.22391184f, -0.20787723f, -0.09788878f,
    -0.01290628f, 0.12271499f, 0.16785595f, 0.05456544f, 0.00347652f, -0.00034620f, 0.14583038f, 0.05613169f,
    0.19039947f, 0.14749429f, 0.10837532f, 0.06991658f, 0.05855935f, -0.04667935f, -0.10446500f, -0.12450387f,
    -0.14725043f, -0.10758853f, -0.10520041f, -0.01832659f, -0.00382601f, 0.04467476f, 0.07113581f, -0.01899443f,
    0.02500756f, 0.07390440f, 0.09181883f, 0.06396039f, 0.11889554f, 0.18192771f, 0.04787951f, 0.10423715f,
    -0.09343476f, -0.07078232f, -0.02939856f, -0.09743994f, -0.08421478f, 0.05257037f, 0.08311293f, 0.08415110f,
    0.01048603f, -0.00528672f, 0.07368899f, -0.03242083f, 0.06721049f, 0.18000399f, 0.24513359f, 0.26133123f,
    0.23646024f, 0.04401769f, 0.07844754f, 0.16081411f, 0.02570474f, -0.07093647f, -0.14391081f, -0.24279426f,
    -0.30623424f, -0.29704025f, -0.08244760f, 0.02585192f, -0.00317188f, -0.03764997f, -0.01682016f, -0.11320668f,
    0.00494706f, -0.06005698f, -0.01310772f, 0.08671241f, 0.03927037f, 0.00959590f, 0.12969984f, 0.12365353f,
    0.06230116f, 0.10282198f, 0.06201904f, -0.00158175f, 0.07156246f, 0.10459260f, -0.01157194f, 0.04432378f,
    0.04229363f, 0.10252720f, 0.01411750f, 0.12595609f, 0.07700168f, 0.03249948f, 0.04217369f, 0.05691537f,
    0.11802389f, 0.09198862f, 0.14363575f, 0.14436011f, 0.07611367f, 0.14626482f, 0.07844261f, 0.11713133f,
    0.02893151f, 0.07316065f, 0.08435205f, 0.11236788f, 0.13204876f, 0.08968841f, 0.20919897f, 0.09164159f,
    -0.15153064f, -0.08298785f, -0.18928763f, -0.12295666f, 0.10676543f, 0.05841067f, 0.03633731f, 0.07425850f,
    0.14119253f, 0.10292491f, 0.07142588f, 0.14386792f, 0.16236016f, 0.11813244f, 0.12361833f, 0.15291709f,
    0.02416729f, -0.03850813f, -0.05470421f, -0.01788052f, -0.09865755f, -0.03711661f, -0.07146875f, -0.00639499f,
    -0.08154352f, -0.07600755f, -0.07424979f, -0.02748149f, -0.06389163f, 0.04136599f, -0.06125969f, -0.07865343f,
    -0.10011293f, -0.06536196f, -0.09308057f, 0.02723760f, 0.09144652f, 0.13163115f, 0.03682264f, 0.08053925f,
    -0.04307963f, -0.10068809f, -0.03579860f, 0.15043481f, 0.15490255f, -0.19984607f, -0.12827229f, -0.22398907f,
    -0.16278307f, -0.10489614f, -0.07360855f, 0.02118664f, 0.01772370f, 0.06358854f, 0.13784583f, 0.08261490f,
    0.10034093f, 0.08166297f, 0.13129991f, 0.09160472f, 0.09946175f, 0.01683341f, -0.01520664f, -0.17946367f,
    -0.25948828f, -0.22931392f, -0.24888736f, 0.02362518f, 0.00264410f, -0.05391378f, -0.05579435f, -0.08247306f,
    0.10209863f, 0.12536989f, 0.08375663f, 0.09103601f, 0.12262687f, 0.02756274f, 0.09104466f, -0.09265362f,
    -0.07485053f, -0.00176751f, 0.04555381f, -0.08185507f, -0.01588043f, -0.15230660f, -0.44338092f, -0.31240287f,
    -0.18699938f, -0.06349584f, 0.04853573f, 0.02067498f, 0.09803435f, 0.00504009f, 0.07552940f, 0.04894671f,
    0.10156676f, 0.17608944f, 0.02446819f, 0.02833179f, 0.14729315f, 0.13205875f, 0.06986574f, 0.02545473f,
    0.12560733f, 0.14983116f, 0.00816263f, -0.02984077f, 0.18877883f, 0.15457594f, 0.13163438f, 0.09072879f,
    0.05368881f, 0.07532662f, 0.01058889f, 0.16550066f, -0.00969335f, -0.00284782f, -0.07228477f, -0.13010915f,
    -0.01080192f, -0.05519104f, -0.08842117f, -0.13513465f, 0.02134908f, -0.02729530f, -0.15645571f, -0.15578051f,
    -0.22228381f, -0.22707181f, -0.03468240f, -0.08303486f, 0.02585104f, -0.03571608f, 0.01132774f, -0.04964703f,
    -0.01956620f, 0.01424264f, -0.05354817f, -0.07901131f, -0.05112106f, -0.05367840f, -0.17858654f, -0.09673976f,
    0.22336566f, 0.07885893f, 0.09093790f, 0.08348590f, -0.01128284f, 0.01433857f, -0.05452918f, -0.00164042f,
    -0.01741914f, -0.07516551f, -0.03061341f, -0.15055914f, -0.23129375f, -0.06278204f, -0.09982029f, 0.02550106f,
    -0.00929046f, -0.03192433f, 0.00717789f, 0.05181734f, 0.07398085f, 0.04806909f, 0.02469116f, 0.04473817f,
    0.13839367f, 0.06489687f, -0.03421753f, 0.05269988f, 0.02457165f, 0.01011267f, 0.01994034f, 0.02007087f,
    0.09762497f, 0.06150254f, 0.10200184f, 0.01416481f, -0.20410454f, -0.20946990f, 0.00720310f, 0.11971722f,
    0.13539118f, 0.17571245f, -0.04325033f, -0.02843818f, -0.12310679f, 0.04531489f, 0.10723118f, 0.17239696f,
    0.02778429f, 0.11252280f, 0.06872556f, 0.02124595f, 0.07255919f, -0.01017824f, -0.07945995f, -0.09608470f,
    -0.24419095f, -0.04514011f, -0.08389276f, 0.02356451f, 0.00959380f, 0.08055299f, 0.02887824f, 0.04456073f,
    0.12967245f, 0.05592843f, -0.03218448f, 0.06251363f, 0.13883489f, 0.17977853f, 0.15605225f, -0.01334056f,
    -0.11700479f, -0.04808069f, -0.05551238f, 0.02179080f, 0.11782528f, 0.18492265f, 0.20255624f, 0.01445158f,
    0.08822570f, 0.07619560f, 0.10004950f, 0.11842339f, 0.13027610f, 0.14583793f, 0.26250997f, 0.18429996f,
    0.05119700f, 0.01125556f, 0.06016719f, -0.00827054f, -0.03273322f, -0.06744267f, -0.21651857f, -0.25707361f,
    -0.25699878f, -0.18148816f, -0.07635800f, -0.06082898f, -0.00309532f, -0.05315644f, -0.11973644f, -0.10848069f,
    -0.08949633f, -0.01733238f, -0.03689708f, 0.16804278f, 0.00507628f, -0.04970967f, 0.12387944f, 0.16894206f,
    0.03245186f, 0.06098267f, 0.03350124f, 0.00912049f, -0.00084655f, 0.06642389f, 0.10720750f, 0.07633932f,
    0.10741918f, 0.08019044f, 0.04566183f, 0.13043879f, 0.15336497f, 0.11040651f, 0.01726847f, 0.08229259f,
    0.12027380f, 0.02942368f, 0.01911766f, 0.13735522f, 0.01962999f, 0.08991927f, 0.04180693f, 0.06751775f,
    -0.01543716f, 0.09697576f, 0.07149142f, 0.07095834f, 0.17276520f, 0.22209232f, 0.17264843f, 0.16697928f,
    0.24797045f, 0.21970518f, 0.14675294f, -0.03690384f, -0.06502090f, -0.07257709f, -0.05348780f, 0.05006037f,
    -0.03386016f, -0.05114238f, -0.15656999f, -0.07847317f, -0.37688527f, -0.21895777f, -0.10079116f, 0.05594530f,
    0.02217616f, -0.01767389f, -0.01090387f, 0.03153786f, 0.07831629f, 0.10467932f, 0.08844732f, 0.12880069f,
    0.20700385f, 0.08602933f, 0.13766298f, 0.00597782f, 0.05588004f, -0.02682652f, 0.06916337f, 0.08121095f,
    0.13227461f, 0.03191346f, 0.10872330f, -0.02963693f, -0.16122508f, -0.09699663f, -0.07460054f, -0.01581183f,
    0.21907903f, 0.26564744f, 0.10166314f, -0.03675673f, -0.02316489f, 0.02891024f, 0.09302083f, 0.19441143f,
    0.16650969f, 0.17056751f, 0.13947262f, 0.05182772f, 0.03805475f, 0.03600394f, -0.10968190f, -0.19308075f,
    -0.19018123f, -0.18295734f, -0.04055265f, 0.07951126f, 0.07565652f, 0.07570844f, 0.10770369f, 0.10370897f,
    0.14961523f, 0.12350263f, 0.10217597f, 0.00304567f, 0.04170161f, 0.11776999f, 0.16724783f, 0.09052870f,
    -0.07043895f, -0.02223289f, -0.14262669f, -0.01561382f, 0.01336373f, 0.16558100f, 0.22145042f, 0.06275919f,
    0.07051194f, 0.07816721f, 0.03396633f, -0.04702473f, 0.02342778f, 0.24249963f, 0.36199954f, 0.24601577f,
    0.18954778f, 0.03019543f, 0.15927841f, 0.02755876f, 0.08114276f, -0.07657755f, -0.17476316f, -0.20429915f,
    -0.25624034f, -0.23596625f, -0.07608668f, -0.10517599f, -0.15200570f, 0.09579994f, -0.04466905f, -0.11579071f,
    -0.03438834f, -0.06500417f, 0.06437144f, 0.12451244f, -0.00167887f, -0.05108931f, 0.03905015f, 0.21436514f,
    0.14042115f, 0.02070916f, 0.01763865f, 0.00956251f, 0.01250553f, -0.04309275f, 0.04834393f, 0.02572030f,
    0.10826758f, 0.07095714f, 0.12909976f, 0.03244799f, 0.17483966f, 0.13016455f, 0.02329275f, 0.03524100f,
    0.19749680f, 0.18546648f, 0.14216886f, 0.03699018f, 0.12659137f, 0.15747748f, 0.04504058f, -0.04800552f,
    -0.03335069f, 0.01835576f, 0.06310564f, 0.17406067f, 0.06416308f, 0.23136869f, 0.16477469f, 0.20858251f,
    0.15735853f, 0.06715164f, 0.05565152f, 0.01934878f, 0.04436629f, -0.07864027f, 0.02671196f, -0.00693044f,
    -0.11188774f, -0.07591499f, -0.11360448f, -0.23263495f, -0.22385512f, -0.17053995f, -0.11436555f, -0.04497145f,
    -0.04351171f, 0.08819757f, 0.00455883f, 0.07048342f, 0.08727988f, 0.10855931f, 0.17555870f, 0.21432059f,
    0.13222110f, 0.10780858f, -0.02186947f, -0.03016681f, 0.12824835f, 0.05371699f, 0.14423007f, 0.07727866f,
    0.00790232f, 0.12900263f, 0.08143879f, 0.00031264f, -0.10305474f, -0.16553304f, -0.12729846f, -0.09462886f,
    0.06783170f, 0.16164611f, 0.08444445f, -0.00065674f, -0.11016088f, 0.14514108f, 0.12480973f, 0.16223820f,
    0.11193813f, 0.18642801f, 0.06148772f, 0.12926236f, 0.03817596f, 0.00146820f, -0.15769286f, -0.19508022f,
    -0.25101578f, -0.09948105f, -0.03511574f, 0.06955163f, 0.03029904f, -0.02586228f, 0.02815098f, 0.10348085f,
    0.04406762f, 0.15167585f, 0.05802293f, 0.12357704f, 0.16453077f, 0.10637046f, 0.06736270f, 0.03634576f,
    -0.05758711f, -0.03044107f, -0.07129980f, 0.06264066f, 0.00455428f, 0.11697941f, 0.17388260f, 0.11976241f,
    0.05257750f, -0.06667322f, -0.06148359f, -0.04118390f, -0.00688749f, 0.09779111f, 0.19728591f, 0.15310486f,
    0.10752098f, 0.15745053f, 0.14977343f, 0.11342049f, -0.05436642f, -0.12145805f, -0.18929376f, -0.18056990f,
    -0.18060566f, -0.13226210f, -0.13654862f, -0.23246431f, -0.13473673f, -0.04077218f, -0.11014245f, -0.01820537f,
    -0.05507824f, -0.07577337f, 0.09659112f, 0.03364635f, 0.05633690f, 0.06695856f, 0.01847606f, 0.18057011f,
    0.08578016f, 0.11696775f, -0.07179742f, 0.04312185f, -0.00837136f, 0.06396177f, -0.00291010f, 0.00377305f,
    0.07715354f, 0.03792787f, 0.08124440f, 0.05528593f, 0.06226774f, -0.00912357f, 0.08552656f, 0.07092329f,
    0.14154965f, 0.02941049f, 0.06195395f, 0.06228327f, 0.05106767f, 0.00287679f, -0.06592370f, 0.09239341f,
    -0.02112233f, 0.02317886f, 0.15076357f, 0.12413161f, 0.11096945f, 0.13145632f, 0.22474258f, 0.12503658f,
    0.15045254f, 0.02191390f, -0.25551662f, -0.33923751f, -0.15048079f, -0.05143005f, 0.28517464f, 0.43517128f,
    0.45064059f, 0.01108538f, 0.00569285f, 0.02640195f, -0.04002535f, 0.04952116f, -0.00076533f, -0.02904571f,
    0.07682324f, 0.02500449f, 0.03376715f, 0.01894916f, -0.05910103f, -0.14750946f, 0.11606240f, 0.17096271f,
    0.07061993f, -0.13278957f, -0.11025809f, -0.09552226f, 0.01730008f, 0.04246541f, 0.01903279f, 0.15374169f,
    0.07966968f, 0.01425357f, -0.04286917f, 0.07064239f, -0.17133518f, 0.06414916f, 0.34347209f, 0.61073232f,
    0.11979404f, -0.01427613f, -0.13539834f, -0.32284555f, -0.17138125f, 0.00870026f, -0.06783811f, -0.10612009f,
    -0.06498250f, 0.02775199f, 0.05263505f, 0.08785327f, 0.06131452f, 0.09718921f, -0.18341656f, -0.11774445f,
    0.00964741f, 0.20866106f, 0.24465774f, 0.04052481f, -0.03025206f, -0.12061351f, -0.06111233f, 0.14516781f,
    -0.09612723f, -0.28113964f, -0.20720188f, 0.18488193f, 0.19986533f, 0.15146312f, 0.08856039f, 0.02369697f,
    -0.23383839f, -0.20363812f, -0.09789494f, 0.04850786f, 0.42891935f, 0.34772596f, -0.00623628f, -0.09350328f,
    -0.20308878f, 0.19800678f, 0.01442158f, -0.09652765f, -0.09861384f, 0.06201265f, 0.25953940f, 0.22399327f,
    0.04869499f, -0.00566191f, 0.08043350f, -0.01350120f, 0.02524468f, -0.14929914f, -0.25498837f, -0.11895364f,
    -0.07340230f, 0.03555665f, 0.15893275f, -0.00072499f, 0.01273902f, 0.03493039f, -0.03927964f, -0.11120837f,
    0.00532889f, 0.15123300f, 0.11330874f, 0.07467358f, -0.25112689f, 0.05268834f, 0.45289391f, 0.28822502f,
    -0.02093163f, -0.35605425f, -0.33601874f, -0.07701337f, 0.24374111f, 0.14869738f, 0.05994038f, 0.04054990f,
    -0.04475549f, -0.08962183f, 0.07783404f, 0.06196842f, 0.04777439f, 0.04534920f, 0.16461600f, 0.04433162f,
    -0.10607282f, -0.13644750f, -0.02467099f, 0.08627527f, 0.07929306f, 0.17889096f, 0.04994429f, 0.06412246f,
    0.00948041f, -0.33140680f, -0.20384279f, -0.01001512f, 0.21399914f, 0.16086276f, -0.07467055f, -0.06650686f,
    0.07459446f, 0.01434186f, -0.09936839f, -0.01143097f, -0.06916053f, -0.06499200f, -0.06563993f, -0.06017512f,
    0.10106953f, 0.05060875f, 0.01532581f, -0.21669650f, -0.15574963f, 0.02613254f, -0.05450950f, 0.05928420f,
    0.08043224f, 0.06790884f, -0.07829793f, 0.03504125f, -0.00002240f, -0.11977286f, 0.09451718f, 0.12347992f,
    0.05549137f, -0.00064918f, 0.01529624f, -0.07529932f, -0.09306093f, 0.06216604f, 0.05311509f, 0.03570462f,
    0.04173759f, -0.00894186f, -0.04414984f, 0.05858836f, -0.24106571f, 0.03114856f, 0.07940903f, 0.25509238f,
    0.31384969f, 0.07557972f, -0.16051923f, -0.14929932f, -0.25073168f, 0.18078893f, 0.09092438f, -0.02348522f,
    -0.00671486f, 0.01956643f, -0.03690206f, -0.05327779f, 0.00705395f, -0.03640379f, -0.06399590f, -0.25182763f,
    0.00463492f, -0.01232439f, 0.09314976f, -0.00088887f, -0.00615463f, -0.00369272f, -0.00622621f, 0.20252620f,
    0.03839799f, -0.00680371f, 0.00556869f, -0.03422739f, 0.00372494f, 0.11077420f, 0.05904767f, -0.04863066f,
    -0.13357960f, -0.07600012f, -0.04100302f, -0.06970669f, 0.13676265f, 0.15860486f, 0.15066285f, 0.08938674f,
    0.02501093f, 0.09505366f, 0.04605609f, -0.02162534f, 0.09649543f, 0.16262315f, 0.12217720f, 0.17317669f,
    -0.02242890f, 0.00073116f, 0.20116948f, 0.03002058f, -0.04431373f, -0.13512550f, -0.19696762f, -0.21870467f,
    -0.16278522f, -0.00974480f, 0.08858363f, 0.11871447f, 0.01781088f, -0.00101208f, -0.08414983f, -0.14060524f,
    -0.05485625f, 0.01389174f, 0.08864342f, 0.03854483f, -0.02050209f, 0.10638272f, 0.16196361f, 0.26406074f,
    0.06953069f, -0.10285369f, -0.03892504f, -0.01265972f, -0.00757441f, 0.08305419f, 0.09976842f, -0.03556804f,
    -0.03274791f, -0.02404299f, 0.10273949f, 0.00266048f, -0.03501861f, -0.03475829f, 0.13852085f, 0.06506653f,
    0.06602547f, 0.04275930f, 0.02201483f, 0.04608092f, 0.08818422f, 0.03788648f, -0.08290330f, -0.02676336f,
    -0.08006690f, 0.06997146f, -0.08409517f, -0.00775549f, 0.05224362f, 0.04054797f, 0.02591834f, -0.02728098f,
    0.02825983f, 0.02967901f, -0.01126857f, 0.00632941f, -0.02530060f, 0.03243918f, -0.05824099f, -0.03605541f,
    -0.04562464f, -0.06670685f, -0.08602162f, -0.01392876f, 0.06989693f, 0.05721182f, 0.02590993f, 0.01401484f,
    -0.08196563f, 0.01934504f, -0.00668897f, 0.04791084f, 0.01666045f, -0.00357111f, -0.06384595f, 0.04910728f,
    -0.00861631f, -0.07975458f, 0.02851191f, 0.07634267f, 0.06454833f, -0.07254674f, -0.07291637f, 0.02617328f,
    0.00370760f, -0.07395041f, 0.00200821f, -0.00262386f, -0.05055506f, 0.01440374f, 0.06212052f, 0.00945331f,
    -0.07995462f, -0.00091796f, -0.07639357f, 0.00543847f, 0.01781703f, 0.04773658f, -0.02415094f, 0.04496759f,
    0.06867170f, -0.05430591f, 0.04773120f, 0.06028069f, -0.03783879f, 0.06139046f, 0.05799261f, -0.03398092f,
    0.02781604f, -0.04008932f, 0.07373029f, 0.01849777f, -0.04829485f, -0.01410715f, 0.04925351f, -0.00138057f,
    0.01606480f, -0.00600003f, 0.00867617f, 0.01009583f, -0.01493343f, 0.00453863f, 0.00264010f, -0.05823511f,
    -0.08223656f, -0.05243601f, 0.00635813f, 0.00545686f, -0.03683564f, 0.04118610f, 0.03314536f, -0.03949633f,
    0.04039806f, 0.04245088f, -0.08294083f, -0.06541218f, 0.04073421f, -0.04290536f, 0.05882834f, 0.00513164f,
    -0.03520181f, -0.05796539f, -0.01084591f, 0.02749901f, 0.06244826f, -0.04424479f, 0.07219688f, -0.05089471f,
    -0.08323118f, 0.03894929f, 0.01162666f, -0.07400186f, -0.07579917f, 0.06636258f, 0.05715555f, -0.02261693f,
    0.03072972f, 0.03077186f, 0.05328429f, -0.03807135f, 0.05095534f, 0.02036960f, 0.04620680f, -0.04074339f,
    -0.03492893f, -0.07277780f, -0.04603492f, 0.00965497f, -0.04257597f, 0.05773541f, 0.07733130f, -0.06313612f,
    0.02927955f, 0.00057735f, -0.04985790f, -0.02539087f, -0.06939118f, 0.07728152f, -0.05163264f, -0.07433503f,
    -0.01545966f, 0.07869243f, 0.00304509f, -0.05973408f, 0.04613352f, 0.05695471f, 0.03341430f, -0.07157165f,
    -0.05241387f, -0.00832760f, -0.02273412f, -0.02717010f, -0.04594794f, -0.05277025f, 0.00507107f, 0.00051968f,
    -0.32727578f, -0.22115476f, -0.04900619f, 0.10473174f, 0.24397320f, 0.18070489f, 0.16439451f, 0.17528254f,
    0.06474722f, 0.13348792f, 0.09157602f, 0.30862182f, 0.29697767f, 0.26983187f, 0.09934112f, 0.03773328f,
    0.02544354f, 0.08206092f, -0.03480890f, -0.01877959f, -0.05824566f, -0.13602228f, -0.11472888f, -0.28006020f,
    -0.21680778f, -0.01224690f, -0.02576767f, 0.10230255f, 0.10703350f, -0.06619087f, -0.11044116f, -0.11733844f,
    -0.03754406f, -0.06742539f, -0.00279285f, 0.08412533f, 0.16084771f, 0.15019153f, 0.03255502f, -0.11642366f,
    -0.06101230f, -0.01113321f, 0.22701026f, 0.61246717f, 0.63045609f, -0.13863792f, -0.25862601f, -0.22837107f,
    -0.07701370f, -0.02179696f, -0.04674445f, 0.03555330f, 0.04219646f, 0.04720909f, 0.18091303f, 0.23521440f,
    0.23684940f, 0.06401048f, 0.13509560f, 0.07673615f, 0.15854374f, 0.07943020f, -0.02612420f, -0.24365406f,
    -0.42515004f, -0.11374246f, 0.20625752f, 0.13571908f, 0.10773832f, 0.06672549f, -0.04083539f, 0.06406105f,
    0.11931968f, 0.22985536f, 0.19424710f, 0.08779171f, -0.03843907f, -0.12125309f, -0.18491650f, -0.16183554f,
    0.03573760f, -0.02037277f, 0.04122057f, 0.11803769f, -0.05945775f, -0.47479603f, -0.24863620f, -0.18997984f,
    -0.07896025f, -0.03564328f, -0.04739670f, 0.04152134f, 0.08567720f, 0.05380774f, 0.21673658f, 0.19598719f,
    0.24107473f, 0.21995337f, 0.14756021f, 0.28663367f, 0.34079629f, 0.20025449f, 0.26094985f, 0.09100246f,
    0.12226657f, 0.09235335f, 0.02217998f, 0.12521011f, 0.17898589f, 0.13968006f, -0.05257555f, -0.11532649f,
    -0.00572060f, 0.05446234f, 0.20257640f, 0.17952408f, 0.02371471f, 0.04634318f, -0.04984578f, -0.13778216f,
    -0.11781604f, -0.01970577f, 0.09419202f, 0.03807916f, 0.02073548f, 0.06612501f, -0.12326173f, -0.09946536f,
    -0.15830758f, -0.06845350f, 0.09874801f, 0.06989416f, 0.00021483f, 0.04966227f, 0.00845124f, 0.08912214f,
    -0.03437312f, -0.03034492f, -0.00652496f, -0.00836218f, -0.22491749f, -0.23873958f, -0.22638714f, -0.09417579f,
    0.13248870f, 0.00808297f, 0.06102599f, 0.05259434f, -0.02180799f, 0.04537640f, 0.02073902f, 0.02463518f,
    0.01804096f, -0.14452307f, -0.18069352f, -0.28279743f, -0.18291651f, -0.12730528f, -0.02240835f, 0.04098647f,
    0.02637263f, 0.03400575f, 0.11467402f, 0.10949189f, 0.07798084f, 0.07223539f, 0.10608702f, 0.06761757f,
    0.13250552f, 0.09900962f, 0.04137086f, -0.07261071f, 0.06081037f, 0.07572137f, 0.11507418f, 0.01233797f,
    0.11440150f, 0.01679743f, 0.02392841f, 0.04962389f, -0.10631903f, -0.03850305f, 0.06150061f, 0.16635014f,
    0.04643504f, -0.03671513f, -0.06942481f, -0.20067148f, -0.15166235f, 0.06990691f, 0.10250199f, 0.10897393f,
    0.07595482f, 0.14391641f, 0.01300349f, -0.06305214f, 0.05257598f, 0.01182891f, -0.21924578f, -0.13504961f,
    -0.16014794f, 0.05872822f, -0.06563131f, 0.02102837f, -0.06887060f, 0.08683456f, 0.09042453f, -0.00904909f,
    -0.01874530f, -0.09684386f, -0.02421729f, 0.08627740f, 0.08725155f, -0.00361144f, -0.02950294f, -0.04486819f,
    -0.14500444f, -0.05377411f, 0.01730079f, 0.03162137f, 0.10228407f, 0.14208356f, 0.08302113f, -0.00450387f,
    0.02989702f, 0.07971329f, 0.00404542f, 0.07502851f, 0.22235301f, 0.22255294f, 0.21458058f, 0.16476992f,
    0.07671887f, 0.01084284f, -0.01049357f, -0.04831230f, -0.08367971f, -0.12827282f, -0.28383294f, -0.29595354f,
    -0.10380526f, -0.11051783f, 0.02368507f, -0.09830664f, 0.02811960f, -0.13187338f, -0.12184685f, -0.10772680f,
    0.00442381f, 0.02646606f, 0.01823826f, 0.11088598f, -0.03030305f, 0.02333591f, 0.18430780f, 0.15724996f,
    0.04176543f, 0.01142577f, -0.06733855f, 0.05953651f, 0.15639383f, 0.05902140f, 0.04617184f, 0.05351608f,
    -0.00604394f, 0.06843522f, 0.09144030f, 0.04499439f, 0.00765976f, -0.08620991f, 0.03712907f, 0.06145643f,
    0.07758917f, -0.01813851f, 0.07373253f, 0.12017916f, 0.12674493f, 0.00732387f, 0.00210648f, -0.03521916f,
    0.09957668f, 0.01961830f, 0.09279676f, 0.05596447f, 0.08469548f, 0.10670015f, 0.11768297f, 0.03155834f,
    -0.05036553f, -0.06149185f, -0.00612009f, -0.06685941f, -0.01154173f, -0.07191058f, -0.07961860f, -0.00870536f,
    0.06853306f, -0.05606221f, 0.05080406f, -0.05679896f, 0.07028335f, -0.07835157f, -0.07273681f, -0.06744739f,
    0.05248910f, 0.05832487f, -0.05905645f, -0.04974884f, 0.07097905f, -0.07941262f, 0.03354608f, 0.03226189f,
    -0.05084118f, -0.07056741f, 0.01512348f, -0.00384104f, -0.07457159f, -0.06652221f, 0.04142905f, -0.01020833f,
    -0.04176257f, 0.00744971f, 0.02356707f, 0.05210175f, -0.04683019f, 0.02166752f, -0.06243537f, -0.05252128f,
    -0.04620979f, -0.04778775f, 0.04622585f, 0.02386148f, -0.02312395f, 0.06014704f, 0.06381291f, 0.07718775f,
    -0.05319145f, 0.07296751f, -0.04523734f, -0.01388441f, -0.06950772f, 0.00863844f, -0.07530916f, -0.05720671f,
    -0.04296824f, 0.04380986f, 0.02001167f, -0.01085668f, -0.00111743f, 0.02889801f, -0.00764232f, -0.03111469f,
    0.06240768f, 0.02617744f, 0.06877579f, 0.06137904f, -0.07086351f, 0.05879445f, 0.01074483f, -0.03808016f,
    0.04207744f, 0.02876483f, 0.01370872f, -0.07756293f, -0.01257886f, -0.00899330f, 0.01841892f, -0.05574434f,
    -0.02117634f, 0.04524107f, 0.02442252f, 0.04989719f, -0.03230230f, -0.01718007f, 0.05996080f, 0.03304794f,
    0.05695098f, 0.07737811f, -0.01956412f, 0.06758997f, 0.00741168f, 0.01641024f, 0.04965872f, -0.08275504f,
    0.03809478f, -0.01524501f, -0.01032510f, -0.06015879f, -0.00409111f, -0.07458982f, -0.03415813f, 0.04756157f,
    -0.06879616f, -0.08284324f, 0.01585318f, 0.04302105f, -0.03072190f, 0.00267334f, 0.05551627f, 0.02958935f,
    0.00678444f, -0.03064809f, 0.06107216f, -0.01070445f, -0.01618251f, -0.05740871f, -0.02094655f, -0.06871416f,
    -0.05337860f, -0.00704638f, -0.08155139f, -0.02274184f, 0.01659016f, -0.01438885f, -0.04635144f, -0.06741065f,
    -0.00028260f, -0.02201258f, 0.05326074f, 0.03626136f, -0.03674495f, -0.00234595f, -0.03393370f, -0.02017575f,
    0.01298122f, 0.05485469f, 0.04553159f, 0.02361125f, -0.06519040f, 0.04876566f, -0.05948632f, -0.05457076f,
    0.18454708f, 0.10378174f, 0.10150179f, -0.05455634f, -0.07103977f, -0.07638877f, 0.00526753f, -0.04171981f,
    -0.09353986f, -0.06008577f, -0.10911667f, -0.31726143f, -0.14511445f, -0.08117259f, 0.00391241f, -0.08490496f,
    -0.01143194f, 0.10370556f, 0.01210824f, 0.11042760f, 0.14614846f, 0.00273131f, 0.09758206f, 0.06281764f,
    0.04584613f, 0.04907843f, 0.10743172f, 0.02303385f, 0.10570204f, 0.04997637f, 0.13441756f, 0.12363162f,
    -0.00452664f, 0.11770719f, 0.08511451f, 0.04912489f, -0.16798802f, -0.02245755f, 0.08489142f, 0.09346658f,
    0.10669710f, 0.11314845f, -0.01634719f, -0.06096697f, -0.06960465f, 0.01700992f, 0.04838083f, 0.06565088f,
    0.15172245f, 0.10041197f, 0.02274685f, -0.01181790f, 0.01814642f, 0.00908297f, -0.14800411f, -0.24155360f,
    -0.16716895f, -0.10949357f, -0.00847306f, -0.03414354f, 0.07643615f, 0.12488426f, 0.09496453f, 0.05467479f,
    0.17971878f, 0.04487843f, 0.00071118f, 0.06836251f, 0.17728502f, 0.13104014f, 0.15673438f, 0.06419660f,
    -0.09696043f, -0.11379793f, -0.07358285f, -0.00643711f, 0.10280343f, 0.17868075f, 0.08494948f, 0.04408718f,
    0.00577544f, -0.06488132f, 0.01349549f, 0.00652204f, 0.12940723f, 0.35405481f, 0.25317478f, 0.25530559f,
    0.06089654f, -0.02672621f, 0.03709091f, -0.00106671f, -0.00300399f, -0.01456386f, -0.22907925f, -0.17517906f,
    -0.22337569f, -0.10805961f, -0.01333961f, -0.17494759f, 0.03812693f, -0.03709967f, -0.03623612f, -0.14196497f,
    -0.02483286f, 0.03596034f, -0.00317687f, 0.11486574f, 0.01996877f, -0.01013222f, 0.17250142f, 0.07271057f,
    0.00997549f, 0.02730823f, 0.04184480f, -0.01913629f, 0.07084122f, 0.08410704f, 0.08604424f, 0.13387072f,
    -0.01192389f, 0.03201808f, 0.03478911f, 0.14724049f, 0.13186061f, 0.07336109f, 0.09274528f, 0.05599191f,
    0.03868376f, 0.04023883f, 0.15721399f, 0.10668886f, 0.10237928f, 0.03227596f, -0.06617967f, 0.04707494f,
    0.04090596f, -0.00512880f, 0.01124563f, 0.16033033f, 0.21920012f, 0.22316608f, 0.07315592f, 0.08513018f,
    -0.29106152f, -0.36144009f, -0.23665509f, -0.09761715f, 0.03117997f, 0.18070477f, 0.06879656f, 0.20467231f,
    0.17661774f, 0.12923419f, 0.13921662f, 0.15951958f, 0.25861681f, 0.39555359f, 0.44046912f, 0.12603509f,
    0.11307966f, 0.02020504f, -0.01983452f, -0.06785391f, 0.03570537f, 0.03434144f, -0.07339058f, -0.06448394f,
    -0.19770972f, -0.27602521f, -0.15466110f, 0.02449145f, 0.05795769f, 0.06338412f, 0.06165662f, 0.03773885f,
    -0.01581408f, -0.04869026f, -0.07425965f, 0.06403017f, 0.12682933f, 0.19579849f, 0.20219791f, 0.12797479f,
    0.03829366f, -0.08803776f, -0.15614255f, 0.02619504f, 0.33727020f, -0.00495054f, -0.13129866f, -0.07804719f,
    -0.19971472f, -0.07969144f, -0.03993555f, -0.07837164f, -0.07706120f, -0.04288056f, 0.00222313f, 0.05819395f,
    0.14682233f, 0.37584329f, 0.20966712f, 0.09543078f, 0.00946064f, 0.05759396f, 0.10275549f, -0.02558093f,
    -0.21052282f, -0.23977055f, -0.12590866f, 0.17085803f, 0.15436040f, 0.15230641f, -0.02649541f, -0.10162579f,
    0.09915075f, 0.00698962f, 0.17187983f, 0.10336700f, 0.11068544f, 0.02877486f, 0.00530853f, -0.12437518f,
    -0.05809519f, -0.01969055f, 0.02810161f, -0.00622719f, 0.03504830f, 0.14379834f, -0.03224830f, -0.47337383f,
    -0.28843167f, -0.29923469f, 0.03291958f, 0.05161982f, -0.04157023f, 0.01323790f, 0.07809015f, 0.14347656f,
    0.33989623f, 0.34924388f, 0.25385869f, 0.10814822f, 0.25302449f, 0.04369088f, -0.00927136f, 0.23143280f,
    0.13878298f, 0.14289011f, 0.10920484f, 0.06694403f, 0.06894568f, 0.12160264f, 0.13857906f, 0.11812428f,
    -0.01699049f, -0.17541833f, 0.05644625f, 0.14726271f, 0.14018834f, 0.06996058f, 0.05497710f, 0.02218362f,
    -0.02219210f, -0.12808292f, -0.00355629f, 0.00939555f, -0.01345663f, -0.04294452f, 0.03382756f, -0.09437107f,
    -0.13466050f, -0.23455355f, -0.30379036f, 0.06667607f, -0.02096526f, -0.01210471f, -0.08784324f, -0.00296495f,
    -0.01854504f, -0.00925482f, 0.03889209f, -0.01566025f, -0.00443504f, -0.24474095f, -0.29848364f, -0.32373565f,
    0.09962978f, 0.11166248f, -0.04130933f, -0.25532526f, -0.20811243f, -0.01578416f, -0.02822001f, -0.13004273f,
    -0.20333141f, 0.10995770f, 0.08433004f, 0.08083055f, -0.04821373f, 0.04189773f, 0.11861802f, 0.22043157f,
    0.34741575f, 0.38995343f, 0.05455002f, 0.20943117f, 0.06584579f, -0.09649049f, -0.05702662f, 0.03791821f,
    0.12798458f, 0.15061504f, -0.10010239f, -0.07839060f, -0.01333066f, -0.01403036f, 0.01241155f, -0.04760224f,
    0.00144532f, 0.04771969f, -0.11057368f, -0.12025467f, -0.28949887f, -0.54866427f, -0.50079495f, -0.01958938f,
    0.26768938f, 0.12190844f, -0.04946614f, 0.05467702f, 0.18022694f, 0.05391584f, 0.06952815f, 0.04833035f,
    0.01213839f, 0.02290930f, -0.02014599f, 0.17650197f, 0.31356886f, 0.23064953f, 0.01835302f, -0.08274724f,
    -0.11514194f, 0.00319199f, 0.25411183f, 0.29188237f, 0.24828765f, -0.03543520f, -0.31543621f, 0.23205298f,
    0.20025147f, 0.07217880f, -0.18939112f, -0.25699931f, -0.00885424f, 0.26860526f, 0.31673935f, -0.14219832f,
    0.28754613f, 0.02971274f, -0.18226911f, -0.36384147f, -0.11553958f, 0.19662480f, 0.29751930f, 0.07651050f,
    -0.22815698f, 0.15162957f, 0.01689200f, -0.02572315f, -0.27429190f, -0.26411536f, -0.01463011f, 0.08675586f,
    0.14451765f, 0.20813470f, -0.04571583f, -0.01986257f, 0.08528300f, 0.15782145f, 0.10628831f, -0.01729352f,
    -0.17571086f, -0.05096425f, 0.10055746f, -0.14276034f, 0.06648950f, 0.10941320f, 0.00404466f, -0.01631992f,
    0.03840375f, 0.45679557f, 0.36032405f, -0.15059055f, -0.37215281f, -0.52085185f, -0.13778727f, 0.56469238f,
    0.54977125f, 0.10813949f, -0.31629887f, -0.24652633f, -0.20013061f, 0.09407412f, 0.22995201f, 0.12204741f,
    -0.00129283f, -0.07158484f, -0.03780969f, 0.09134550f, 0.34455830f, 0.39230663f, -0.01869132f, 0.14233212f,
    0.02717981f, -0.06642360f, -0.07736088f, -0.01716356f, 0.20324457f, 0.32734215f, 0.39315885f, 0.14620502f,
    0.06759127f, -0.09579799f, -0.18060495f, -0.15983924f, 0.03568403f, 0.11098226f, 0.18444043f, -0.03258130f,
    0.15165466f, 0.22157727f, 0.18478149f, 0.10356245f, 0.02840059f, 0.02033379f, 0.07542440f, 0.02072847f,
    -0.08844823f, -0.06195614f, -0.11448254f, -0.03118352f, -0.09098388f, -0.24572454f, -0.11693355f, -0.06162729f,
    -0.07971527f, -0.08144400f, 0.01631810f, 0.13019553f, 0.11750904f, 0.00542234f, 0.14570697f, 0.15426336f,
    0.03974269f, 0.16453113f, 0.08324023f, 0.09259796f, 0.08062720f, 0.05944848f, 0.11574208f, 0.01450827f,
    0.08800109f, 0.13922571f, 0.03522517f, 0.05530373f, -0.02119522f, -0.14766645f, -0.19327457f, -0.04453437f,
    -0.01037952f, 0.11076417f, 0.21562697f, 0.03552195f, 0.03457725f, 0.03338001f, 0.00438892f, 0.13074932f,
    0.18249141f, 0.02795703f, 0.11100542f, 0.05603706f, 0.09153551f, 0.09689060f, 0.01932841f, -0.11315441f,
    -0.12812637f, -0.12528561f, -0.09487860f, 0.03315363f, -0.05850226f, 0.00092753f, 0.03045263f, 0.01779450f,
    0.12179158f, 0.07514331f, -0.07024780f, 0.03491966f, -0.04961589f, 0.11939992f, 0.10130831f, 0.16559114f,
    -0.05320621f, -0.04689811f, -0.03224436f, -0.11341523f, -0.04586061f, 0.07567848f, 0.05108910f, 0.17248309f,
    0.02015381f, 0.06238614f, 0.07396790f, 0.09712544f, 0.09230098f, 0.14929557f, 0.19616878f, 0.27230647f,
    0.27742669f, 0.08226795f, 0.04238211f, 0.12885813f, -0.03228245f, 0.03224729f, -0.02198976f, -0.06714951f,
    -0.18570837f, -0.27030087f, -0.07153260f, -0.02935616f, -0.03762979f, 0.05056589f, -0.08753175f, -0.02332699f,
    -0.13484958f, -0.07012034f, -0.10833920f, -0.02582142f, -0.03182662f, 0.04681998f, -0.04809265f, 0.09515330f,
    0.16428219f, 0.02605093f, -0.04449895f, 0.01654368f, -0.11842945f, 0.01657233f, -0.00480040f, 0.02744965f,
    -0.01699898f, 0.04929764f, -0.03912254f, 0.07543853f, 0.10157060f, 0.03098959f, 0.10767898f, 0.06163042f,
    0.04605750f, 0.08564369f, 0.09812631f, 0.00959500f, 0.05102286f, 0.14241534f, 0.08231193f, 0.07288358f,
    0.04127904f, 0.01482024f, -0.01128041f, 0.05668327f, 0.02924615f, 0.15645242f, 0.22799546f, 0.09268213f,
    0.13274164f, 0.07378850f, -0.01876318f, -0.02464892f, 0.00964934f, -0.08175096f, 0.00664966f, -0.06677636f,
    -0.10461254f, -0.14324063f, -0.18940203f, -0.52733046f, -0.11883723f, -0.08809690f, -0.02358215f, -0.13450496f,
    -0.02720394f, 0.05759250f, 0.04610667f, 0.03315405f, 0.06734789f, 0.05385869f, 0.08008317f, 0.17144844f,
    0.15949926f, 0.00873018f, -0.06095785f, 0.09721586f, 0.04283959f, -0.00140029f, 0.06625215f, 0.11376631f,
    0.06417023f, 0.10049428f, -0.00804034f, 0.02254427f, -0.16414902f, -0.04247356f, 0.11758830f, 0.17753617f,
    0.08160839f, 0.12796883f, -0.22248422f, -0.12539065f, -0.16757414f, 0.15036024f, 0.01643114f, 0.10395709f,
    0.12884565f, 0.13421515f, 0.01061297f, -0.00907660f, 0.02896130f, -0.11811091f, -0.23042138f, -0.30250785f,
    -0.10162108f, 0.00899329f, 0.04134968f, -0.03324071f, -0.04460326f, 0.06022628f, 0.05482984f, 0.06612639f,
    0.05269310f, 0.04899428f, -0.01167818f, 0.11091993f, 0.10703921f, 0.16108724f, 0.01146275f, -0.09330922f,
    -0.15058962f, -0.04922732f, -0.10568120f, 0.01801218f, 0.10111000f, 0.17656428f, 0.13175143f, 0.02053881f,
    -0.00060136f, 0.01123117f, 0.02464744f, 0.05384269f, 0.18402463f, 0.19346158f, 0.26574853f, 0.17379551f,
    0.01585412f, 0.08087630f, -0.05711129f, -0.05420858f, -0.09125176f, -0.07902326f, -0.12098303f, -0.27623042f,
    -0.13590597f, -0.11224322f, -0.00713806f, -0.27210101f, -0.01001715f, -0.07529855f, -0.14548868f, -0.13862161f,
    -0.11151799f, -0.03404068f, 0.06411619f, 0.12653238f, -0.10639791f, 0.07148241f, 0.06148938f, 0.10246225f,
    0.05247666f, -0.04067099f, -0.14888898f, 0.03107257f, 0.10701274f, 0.07123345f, 0.12121779f, 0.05780139f,
    0.06317697f, -0.04764166f, 0.05853218f, 0.14151090f, -0.03616686f, 0.04373056f, 0.07899433f, 0.07240845f,
    0.05007590f, 0.00082851f, 0.08688447f, 0.00825274f, 0.07310626f, 0.05910346f, -0.00160811f, -0.00892074f,
    0.01421591f, 0.04002665f, 0.09207653f, 0.12474145f, 0.20713317f, 0.10405466f, 0.09410448f, 0.14420220f,
    -0.31433228f, -0.14457025f, 0.09180810f, 0.19705261f, 0.18397035f, 0.08406285f, 0.06701702f, 0.14719869f,
    0.11757500f, 0.17723225f, 0.19014873f, 0.39928070f, 0.27585116f, 0.07528074f, 0.04426593f, 0.08597407f,
    0.15602089f, 0.13622636f, -0.03770810f, 0.03246653f, -0.13081558f, -0.01673215f, -0.12628230f, -0.22949557f,
    -0.15289420f, -0.14286441f, 0.08778073f, -0.00731110f, 0.07039458f, -0.10330831f, -0.04668832f, -0.02631926f,
    -0.04656027f, -0.07817276f, 0.04929421f, 0.14699724f, 0.23300409f, 0.10400692f, 0.01039373f, -0.14193666f,
    -0.18024717f, -0.05405386f, 0.41524184f, 0.50051212f, 0.27465281f, -0.06540100f, -0.10638811f, -0.12671395f,
    -0.18662097f, -0.06730054f, -0.00910065f, -0.00369386f, 0.08983050f, 0.10339086f, 0.19694605f, 0.22494790f,
    0.26739922f, 0.02431067f, -0.05134367f, -0.01688944f, 0.08019865f, 0.17321770f, 0.11217604f, -0.11864858f,
    -0.31394339f, -0.03869499f, 0.00650676f, 0.07898436f, -0.01044242f, -0.03314180f, 0.06295557f, 0.05705301f,
    0.02833381f, 0.06628706f, 0.19323389f, 0.06569661f, 0.00576716f, -0.16720277f, -0.15340757f, -0.10692027f,
    0.12019956f, 0.01389978f, 0.08221814f, 0.06943442f, -0.06066626f, -0.45471042f, -0.39977118f, -0.31924203f,
    -0.13732816f, -0.09589633f, 0.04291912f, 0.01773990f, -0.01315062f, 0.08811367f, 0.21000251f, 0.19182628f,
    0.13565086f, 0.14932218f, 0.07572258f, 0.23246132f, 0.05743979f, 0.11638732f, 0.16075169f, 0.19213744f,
    0.09105405f, 0.11660735f, 0.01707456f, 0.03697669f, 0.09163328f, 0.07457135f, -0.03894651f, -0.00501727f,
    -0.03701813f, 0.15278156f, 0.16067491f, 0.12872133f, 0.00452189f, 0.02829952f, 0.00415694f, -0.13604318f,
    0.06257696f, -0.00001318f, 0.00858777f, -0.12054612f, -0.09586254f, -0.00542657f, -0.10044819f, -0.13516465f,
    -0.18160358f, -0.08271548f, 0.01895662f, -0.01683888f, 0.00627211f, -0.06963867f, 0.02885880f, 0.10810078f,
    0.00669934f, -0.02544468f, -0.09129899f, -0.11904752f, -0.22886853f, -0.31375951f, -0.17993866f, -0.03352241f,
    -0.17587127f, -0.20901094f, -0.05537022f, 0.11512356f, 0.07519338f, 0.06761427f, 0.06856278f, 0.10341471f,
    0.03000634f, 0.04161170f, 0.12700328f, 0.22275272f, 0.18778935f, 0.15797700f, 0.18379447f, 0.08192451f,
    0.15769842f, 0.15625116f, -0.05460005f, -0.11270601f, -0.13579959f, -0.06188519f, -0.10445464f, -0.17320216f,
    -0.23878311f, -0.02549065f, 0.03685975f, 0.06731443f, -0.07309585f, 0.01165011f, -0.04373378f, -0.07203950f,
    0.03241615f, -0.00285155f, -0.03669526f, 0.11196242f, 0.09691512f, 0.10696134f, 0.14796674f, -0.07907063f,
    -0.12050509f, -0.07233342f, 0.13710244f, 0.34463057f, 0.12808587f, -0.10556623f, -0.23779805f, -0.14799470f,
    -0.17361809f, -0.10166230f, -0.11134484f, -0.01606520f, 0.00441305f, 0.14022672f, 0.07711457f, 0.22378734f,
    0.16452587f, 0.05807213f, 0.01489693f, 0.08375447f, 0.03053800f, 0.15249874f, 0.14503810f, -0.10401888f,
    -0.20088248f, -0.29688162f, 0.10046296f, 0.13623257f, 0.03479590f, -0.05450628f, 0.04098903f, 0.00275164f,
    0.12723528f, 0.03794627f, 0.11315789f, 0.14166373f, 0.11701842f, 0.04020527f, -0.09414245f, -0.08800215f,
    0.04591022f, 0.00552564f, 0.04755224f, -0.05930003f, -0.05703201f, -0.18860234f, -0.47315407f, -0.31133825f,
    -0.13768630f, -0.05008564f, 0.04931343f, 0.04179491f, 0.00550004f, 0.15101424f, 0.14575678f, 0.21319662f,
    0.15314429f, 0.09837353f, 0.01641041f, 0.11732591f, 0.02632920f, 0.01334547f, 0.19288555f, 0.16762371f,
    0.08916341f, 0.07245523f, 0.07743464f, 0.11469799f, 0.21913944f, 0.19591908f, 0.13507497f, 0.01584857f,
    0.05176462f, 0.13681766f, 0.14033505f, 0.18884079f, 0.01036094f, -0.03342718f, -0.09676099f, -0.07328008f,
    -0.04473532f, -0.00636221f, -0.01727114f, 0.01884381f, -0.01020707f, 0.04402171f, -0.15498656f, -0.22130269f,
    -0.13315116f, -0.16536231f, -0.04222967f, -0.04213534f, -0.02355845f, 0.05478497f, 0.03467033f, 0.01928432f,
    0.04342763f, 0.07164179f, 0.01806947f, 0.01334201f, -0.15287900f, -0.12093864f, -0.08938479f, -0.06341405f,
    -0.26820910f, -0.16079013f, -0.02399439f, -0.01314493f, 0.05370532f, 0.10436831f, 0.07746647f, 0.06028516f,
    0.16467519f, 0.05354928f, 0.00886568f, 0.11577550f, 0.18748735f, 0.25615588f, 0.16716659f, 0.14452296f,
    0.02447363f, 0.01705128f, 0.02945371f, -0.06084182f, -0.06202299f, -0.03769575f, -0.10757840f, -0.08414142f,
    -0.28125471f, -0.22823587f, 0.01120633f, 0.09820501f, 0.06578961f, 0.00843255f, -0.09227817f, -0.01936971f,
    -0.06600139f, -0.03732317f, -0.02536204f, 0.15995310f, 0.06320143f, 0.20169094f, 0.04949567f, -0.07960016f,
    -0.09673543f, -0.16109456f, -0.02888856f, 0.29683921f, 0.24183065f, -0.09998856f, -0.20035976f, -0.24842116f,
    -0.25474370f, -0.17337519f, -0.11035662f, -0.00087989f, 0.07001236f, 0.05293956f, 0.10425888f, 0.17093794f,
    0.13721885f, 0.07099546f, 0.11837201f, -0.00310273f, 0.03178501f, 0.04388516f, 0.08264618f, -0.13233724f,
    -0.15084253f, -0.24646357f, -0.25568399f, -0.09258484f, -0.05172550f, 0.01958554f, 0.05002989f, -0.05095853f,
    0.02379720f, 0.12019531f, 0.10032527f, 0.17638282f, 0.04890435f, 0.07200468f, -0.05218291f, -0.03217027f,
    0.04987407f, 0.04334710f, -0.02849355f, 0.00235175f, -0.01618944f, -0.13190058f, -0.77182633f, -0.41297415f,
    -0.19921942f, -0.11966944f, 0.02414595f, 0.08085019f, -0.02090318f, 0.03996566f, 0.05811050f, 0.11129950f,
    0.24377136f, 0.19587919f, 0.08549204f, -0.03164388f, 0.04113267f, 0.12983572f, 0.07046855f, 0.23510094f,
    0.19688539f, 0.14294216f, -0.00257366f, 0.00264156f, 0.14537860f, 0.14883670f, 0.01289009f, 0.04658331f,
    0.01995231f, 0.13344762f, 0.09929162f, 0.12716457f, 0.08151386f, -0.06904040f, -0.12853169f, -0.12561131f,
    -0.15661716f, -0.04232760f, -0.09764617f, -0.00993141f, -0.13226664f, -0.06490392f, -0.12411184f, -0.09889982f,
    -0.18489093f, -0.27760577f, -0.13307583f, 0.02028744f, -0.06146299f, -0.06810181f, 0.09042999f, 0.05359136f,
    -0.06343916f, -0.02293190f, 0.01820598f, 0.00134971f, -0.03077435f, -0.15474674f, -0.11964642f, -0.19768232f,
    -0.18298571f, -0.29510039f, -0.01391541f, 0.17870736f, 0.17797494f, -0.06582353f, -0.14748427f, -0.08756433f,
    0.05775090f, 0.19061333f, 0.04056380f, 0.09413744f, 0.08412952f, 0.11516382f, -0.01592524f, -0.18585329f,
    0.02885689f, 0.18216598f, 0.13990651f, -0.02619185f, -0.01771017f, 0.11682441f, 0.21633607f, 0.04991838f,
    -0.22163309f, -0.25272837f, -0.00105442f, 0.04828181f, 0.05621936f, 0.01033819f, -0.09994890f, -0.09048391f,
    -0.04507269f, 0.03549878f, -0.00228634f, 0.11319636f, 0.01231246f, 0.10982338f, 0.06794558f, -0.19985752f,
    -0.41417590f, -0.26379028f, 0.12127244f, 0.39176050f, 0.22430965f, 0.01825196f, -0.05079515f, -0.02727953f,
    0.06060337f, 0.10770342f, 0.01472027f, 0.05489764f, -0.02643505f, 0.20191166f, 0.05972854f, 0.16651924f,
    0.22162013f, -0.00716832f, -0.32451880f, -0.39705110f, -0.13968483f, 0.35937735f, 0.37399843f, -0.21231560f,
    -0.39523172f, 0.02176544f, 0.16276991f, 0.28765512f, 0.04921164f, -0.11424506f, -0.22291741f, -0.06195896f,
    -0.22090620f, -0.16741624f, 0.16492273f, 0.03927491f, -0.01225123f, -0.20045076f, -0.21049111f, -0.07389349f,
    0.15785776f, 0.05496598f, 0.09665582f, 0.01527994f, 0.24916966f, 0.19806650f, 0.18083952f, 0.00872767f,
    -0.19297904f, -0.07012765f, 0.09895805f, 0.01504170f, -0.05690686f, -0.07614367f, -0.05618574f, -0.02886577f,
    0.12666334f, 0.06712894f, -0.10752951f, 0.20670147f, -0.15750048f, -0.29091501f, -0.13650224f, 0.29071757f,
    0.15560970f, -0.13968506f, -0.07889033f, 0.41384888f, 0.28649557f, 0.43156311f, 0.02842963f, -0.45676741f,
    -0.67743343f, -0.16574320f, 0.43912128f, 0.58316743f, 0.15349895f, 0.20295380f, -0.08208533f, -0.12407582f,
    -0.00067172f, 0.09190960f, 0.19085698f, 0.13454030f, -0.17731415f, -0.10870679f, 0.12469251f, -0.11196911f,
    -0.08607847f, 0.10247117f, 0.15470615f, 0.24167395f, 0.00257315f, -0.01436631f, -0.08595721f, 0.01345010f,
    0.08964926f, 0.01452246f, 0.04153283f, 0.13679354f, 0.02748369f, -0.14486158f, -0.24156411f, -0.05122794f,
    0.30821171f, 0.08912346f, -0.08677945f, -0.12511484f, -0.12935056f, -0.14098354f, -0.04500834f, -0.05082969f,
    0.07877371f, 0.05640411f, -0.04950921f, -0.21620555f, -0.10605922f, -0.05785401f, 0.03453712f, -0.02862066f,
    0.00585497f, 0.07913051f, -0.05102571f, -0.01785952f, 0.17145018f, 0.17733008f, 0.39018273f, 0.29039073f,
    0.10171243f, -0.03954022f, -0.00060336f, -0.11613282f, -0.02642589f, 0.07762525f, 0.09792309f, 0.16608138f,
    0.07516034f, 0.04692205f, 0.01264239f, 0.01544930f, -0.29660460f, -0.10562522f, 0.14595008f, 0.31194931f,
    0.49029946f, 0.29806584f, 0.02125744f, -0.17335431f, -0.27470002f, 0.22310267f, 0.15843596f, 0.13719115f,
    -0.01396309f, 0.12624459f, 0.06823107f, -0.06378426f, -0.08446082f, -0.10558122f, -0.05778689f, -0.16210721f,
    -0.01299523f, 0.06416593f, 0.03670402f, 0.13972701f, 0.04498729f, 0.05183747f, 0.09163867f, 0.25640792f,
    0.03701158f, -0.00337929f, 0.00724406f, 0.09976025f, 0.08021981f, 0.08661122f, 0.07818339f, 0.01800264f,
    -0.34819990f, -0.21236305f, -0.14186558f, 0.00880923f, 0.24124096f, 0.28503957f, 0.27440324f, 0.10792306f,
    0.00490699f, -0.02174514f, -0.00236514f, 0.13730982f, 0.21643491f, 0.32172614f, 0.14860442f, 0.16614208f,
    0.13205975f, 0.05772686f, 0.13510975f, 0.18209152f, -0.03927699f, -0.12921609f, -0.38601398f, -0.27728024f,
    -0.22612227f, -0.11308916f, 0.09961344f, 0.22305071f, 0.09346859f, -0.02864298f, -0.15237297f, -0.06129183f,
    -0.06716456f, 0.06419156f, 0.05865397f, 0.10162795f, 0.07031065f, 0.24693780f, 0.28866866f, 0.26451528f,
    0.15809390f, 0.02968643f, -0.12247515f, -0.14074901f, -0.03343409f, 0.14691125f, 0.09991675f, 0.22285724f,
    0.12351772f, 0.14362261f, 0.05927527f, 0.10430703f, -0.01508294f, -0.08671755f, 0.16972928f, 0.34352300f,
    0.06844341f, -0.04665236f, 0.11199307f, -0.02255861f, 0.04219222f, 0.04635054f, 0.01599600f, -0.04869246f,
    -0.03417848f, 0.00447218f, 0.16511908f, 0.37669697f, 0.37039393f, 0.17994376f, 0.07368444f, 0.03576734f,
    0.15264417f, 0.13172758f, 0.00753772f, 0.06911249f, 0.00475601f, -0.10481321f, -0.05688069f, -0.06287815f,
    0.03207449f, 0.00344889f, -0.16498107f, -0.08221295f, -0.14299639f, -0.12459601f, -0.02976806f, -0.10206889f,
    -0.06453777f, 0.08689871f, 0.00963371f, 0.10551402f, 0.13070972f, 0.05640978f, 0.04262134f, 0.21926595f,
    0.04460970f, 0.04581987f, -0.01931253f, 0.10663012f, 0.08044184f, 0.00840946f, 0.07365628f, 0.06225134f,
    0.02197949f, 0.00168737f, -0.00268095f, 0.01477445f, -0.25417480f, -0.17410989f, 0.01241523f, 0.09089886f,
    0.16089730f, 0.13412200f, -0.11017286f, -0.13330904f, -0.14899336f, 0.03330694f, 0.17880231f, 0.19551273f,
    0.09749320f, 0.07518251f, 0.10102865f, 0.11240222f, 0.05176648f, 0.05279473f, -0.17531121f, -0.21337281f,
    -0.16885470f, -0.07890419f, 0.04408605f, 0.07581176f, -0.03136239f, 0.08381996f, 0.12832595f, 0.17992142f,
    0.04231389f, 0.11304358f, 0.04155948f, 0.05406417f, 0.04802362f, 0.19296911f, 0.12047849f, -0.03702618f,
    -0.13403881f, -0.11471599f, -0.02401038f, 0.07527617f, 0.12268049f, 0.06076384f, 0.13127504f, 0.13167988f,
    0.07320669f, -0.06290101f, -0.02551470f, 0.06977707f, 0.09053468f, 0.27702293f, 0.21733078f, 0.23877864f,
    0.09986523f, -0.03779671f, 0.02726107f, 0.02834550f, 0.04815159f, -0.05443276f, -0.20135099f, -0.19220363f,
    -0.25913480f, -0.16826037f, -0.00422235f, -0.00387945f, 0.11767600f, 0.03778034f, -0.06275762f, -0.03348913f,
    0.02038845f, -0.04834636f, 0.01442073f, 0.13402002f, 0.05724683f, 0.05612649f, 0.16252002f, 0.02785720f,
    0.08425814f, 0.00836879f, -0.01362336f, 0.03222572f, 0.07387453f, 0.08914534f, 0.10396430f, 0.07402410f,
    0.09847505f, 0.09738142f, 0.02586369f, 0.04799028f, 0.09506508f, -0.05624525f, 0.00706854f, 0.17271052f,
    0.13029470f, 0.08830623f, 0.05106428f, 0.06989561f, 0.09281661f, -0.02547677f, 0.08584154f, 0.02392963f,
    0.01183128f, 0.05592557f, 0.10449358f, 0.17116380f, 0.09659477f, 0.15794045f, 0.08157028f, 0.02309474f,
    -0.17218255f, -0.37476856f, -0.31988803f, -0.07509610f, 0.00684425f, 0.06529789f, 0.17656565f, 0.15252128f,
    0.17010130f, 0.10270125f, -0.04162349f, 0.10502592f, 0.07310082f, 0.07620952f, 0.27242824f, 0.24404970f,
    0.18594137f, 0.09022728f, -0.07994814f, -0.10041256f, -0.01253946f, -0.01951082f, -0.04479226f, -0.13146749f,
    -0.15289122f, -0.34887746f, -0.15111224f, 0.08199119f, 0.02634883f, -0.04013198f, -0.01685332f, -0.10474508f,
    -0.16202496f, -0.15221813f, -0.03446329f, 0.07745569f, 0.13376175f, 0.18282098f, 0.16899607f, 0.20553879f,
    0.01309714f, -0.11819010f, -0.25058904f, -0.27431080f, 0.03996171f, -0.13707782f, -0.10169642f, -0.08323093f,
    -0.26090521f, -0.10685151f, 0.01935069f, -0.00948116f, -0.01723975f, 0.11194485f, 0.07269674f, 0.05213439f,
    0.16261771f, 0.16782059f, 0.20530844f, -0.02796768f, 0.09207729f, 0.01748385f, 0.13386798f, -0.01505202f,
    -0.18087722f, -0.26700321f, -0.36566490f, 0.15076043f, 0.14797805f, 0.07273815f, 0.03454143f, -0.03775270f,
    0.06297288f, 0.06527581f, 0.11857197f, 0.13733502f, 0.19912352f, 0.03777668f, 0.01509745f, -0.08128226f,
    -0.16494825f, 0.06165219f, 0.05645123f, 0.01342542f, 0.04262838f, 0.13552977f, -0.08676659f, -0.48475713f,
    -0.21522193f, -0.07804792f, -0.06221624f, -0.05070641f, 0.05356812f, 0.06120428f, 0.11952654f, 0.08153189f,
    0.20555563f, 0.31125441f, 0.26977861f, 0.08094382f, 0.11058040f, -0.02299141f, 0.05506273f, 0.34084108f,
    0.18537925f, 0.16199715f, 0.00551613f, 0.02532548f, -0.01011142f, 0.07923450f, 0.18317689f, 0.02410577f,
    -0.10608181f, -0.06685083f, -0.00367614f, 0.05012265f, 0.16135490f, -0.03094634f, -0.08245374f, -0.10029218f,
    -0.13357793f, -0.03197581f, -0.05643524f, 0.02214670f, 0.01451530f, 0.08494239f, 0.02301387f, -0.15469016f,
    -0.21230145f, -0.11246621f, -0.29970667f, 0.05254757f, 0.01761472f, 0.00029983f, 0.04985799f, -0.02745658f,
    0.04276833f, 0.11067089f, 0.07668809f, 0.05069986f, -0.03216406f, -0.13687257f, -0.31487387f, -0.26696518f,
    -0.23735884f, -0.40521684f, -0.30750334f, -0.18248865f, 0.08254519f, 0.17569284f, 0.13756767f, 0.17729129f,
    0.18665749f, 0.09759618f, 0.00768399f, 0.09734395f, 0.15394902f, 0.25762796f, 0.39625812f, 0.24633265f,
    0.09781142f, 0.09805948f, 0.06469270f, 0.00076266f, -0.09134977f, -0.06352101f, -0.14319552f, -0.12747611f,
    -0.31283191f, -0.34342119f, -0.24468990f, 0.06876466f, 0.01122219f, -0.01872322f, 0.07308944f, 0.05400844f,
    -0.13341932f, -0.13734050f, -0.03870172f, 0.10150730f, 0.13041727f, 0.17029034f, 0.22666864f, 0.14734264f,
    0.04060316f, -0.12266105f, -0.22610030f, -0.27176234f, -0.03899147f, -0.07602876f, -0.17712602f, -0.16488294f,
    -0.24932422f, -0.11663779f, 0.03001429f, 0.00967688f, 0.09961788f, 0.06396049f, 0.11173652f, 0.05910627f,
    0.12136033f, 0.13859418f, 0.15861848f, 0.06368042f, 0.03659468f, 0.08576619f, 0.10355309f, -0.10010981f,
    -0.23619357f, -0.24153300f, -0.37761915f, 0.21376900f, 0.29429847f, 0.24037679f, 0.03444048f, 0.03473312f,
    0.09526209f, 0.13486008f, 0.14709692f, 0.24026589f, 0.19302143f, 0.07886134f, 0.05784056f, -0.09592436f,
    -0.08127473f, 0.01482941f, -0.02568121f, 0.03431135f, 0.13682425f, 0.16843575f, 0.11505941f, -0.40433535f,
    -0.20045631f, -0.16106842f, -0.07310354f, -0.01670047f, -0.05892105f, 0.04604525f, 0.05722351f, 0.07465939f,
    0.25421470f, 0.29319426f, 0.14286190f, 0.10780332f, 0.08838251f, 0.09960301f, 0.12116978f, 0.40830085f,
    0.16886389f, 0.06648660f, 0.14097565f, 0.08271515f, 0.05016384f, 0.17462233f, 0.19017294f, -0.04519533f,
    -0.00200829f, -0.03606126f, -0.09329829f, 0.00306503f, 0.14593026f, 0.10066449f, 0.05155293f, -0.06068941f,
    -0.13042226f, -0.13844705f, 0.03739759f, 0.08177141f, 0.10453018f, 0.11354426f, 0.02477331f, -0.06599767f,
    -0.11621442f, -0.17522216f, -0.21322970f, 0.07551552f, 0.22127540f, 0.10435165f, 0.05061910f, -0.06775360f,
    -0.03815315f, 0.07071459f, 0.01625304f, -0.01180195f, -0.02411279f, -0.27114698f, -0.37952912f, -0.33188280f,
    -0.25185141f, -0.28286201f, -0.21276355f, -0.07986271f, 0.09601722f, 0.10339794f, 0.17973174f, 0.15078011f,
    0.13438898f, 0.12273116f, 0.01274040f, 0.05450665f, 0.20767362f, 0.33804148f, 0.23227936f, 0.17830019f,
    0.11173821f, 0.15892322f, -0.04359532f, -0.14180298f, 0.00129967f, -0.06119397f, -0.07289831f, -0.06156764f,
    -0.11650898f, -0.15260257f, -0.01875185f, 0.05334416f, -0.04454973f, 0.01568571f, 0.03204572f, -0.02184067f,
    -0.06318793f, -0.03501711f, 0.02385154f, 0.07040267f, 0.07909551f, 0.18883036f, 0.11876003f, 0.05368501f,
    -0.02393382f, -0.22529551f, -0.11183745f, 0.27596372f, 0.39486957f, -0.09613414f, -0.07057706f, -0.26413220f,
    -0.31796867f, -0.13015385f, -0.15075018f, -0.12202358f, -0.03725613f, 0.06733306f, 0.11618356f, 0.15429838f,
    0.21942508f, 0.14915445f, 0.08685040f, -0.04676521f, 0.04912075f, 0.04530967f, 0.17214780f, -0.15340389f,
    -0.16248387f, -0.25171131f, -0.48911986f, -0.09863435f, -0.02381875f, -0.09012077f, -0.07933467f, -0.00152329f,
    0.10524363f, 0.14500967f, 0.23367035f, 0.13725159f, 0.12216885f, 0.08157584f, -0.05171817f, -0.06819828f,
    0.02282402f, -0.04817917f, -0.03050099f, -0.06249020f, -0.02415429f, -0.03265159f, -0.40853664f, -0.40159640f,
    -0.20369534f, -0.22397794f, 0.02746314f, 0.00519096f, 0.00960626f, 0.11141991f, 0.17087814f, 0.25908825f,
    0.29106826f, 0.28058192f, 0.07976945f, 0.03411309f, 0.11417126f, 0.05359143f, 0.21483575f, 0.15798865f,
    0.24791415f, 0.13418524f, 0.01716279f, 0.02986073f, 0.19684446f, 0.20143798f, 0.11778369f, 0.06036277f,
    -0.05314371f, 0.02529064f, 0.14633287f, 0.20752735f, 0.09181741f, 0.02058714f, -0.11606768f, -0.18402925f,
    -0.04450023f, -0.12755802f, -0.00445221f, -0.06956327f, -0.13882919f, -0.03266989f, -0.15945677f, -0.15169871f,
    -0.12713148f, -0.14472598f, -0.22734953f, -0.04369589f, -0.12116909f, 0.01937552f, -0.04137513f, 0.03616923f,
    0.00964423f, 0.09614090f, 0.03749828f, -0.11229794f, -0.13871764f, -0.15482666f, -0.22328843f, -0.14482434f,
    0.05559416f, -0.08863985f, 0.01609530f, -0.04102682f, 0.01746403f, 0.03221116f, -0.01137519f, -0.05780816f,
    0.05593280f, 0.00186900f, -0.06841026f, -0.00897597f, -0.03488762f, -0.06414253f, 0.02292362f, -0.05402052f,
    -0.05587379f, 0.06250275f, 0.07183327f, -0.06405437f, 0.01250267f, 0.02650308f, 0.01436427f, -0.03582977f,
    -0.01079284f, 0.01131203f, 0.03579342f, 0.06786405f, 0.01239130f, 0.05544233f, -0.04581061f, 0.01426418f,
    -0.07404651f, 0.00922917f, -0.04609373f, 0.01968220f, 0.08374895f, 0.00205748f, 0.08066548f, -0.00437942f,
    0.04532919f, -0.04309673f, -0.08230276f, -0.08818612f, -0.01026314f, -0.06101468f, 0.00764370f, 0.04367485f,
    0.04390547f, 0.03263563f, -0.02438822f, -0.02310713f, 0.02125807f, 0.01745816f, 0.05965440f, -0.07265382f,
    -0.01441524f, 0.01428838f, 0.01984071f, -0.02525190f, 0.02352151f, 0.05326978f, -0.05847784f, 0.05396205f,
    0.02425683f, -0.08265046f, -0.08060169f, -0.05475062f, -0.05603616f, -0.04061604f, -0.00443384f, -0.07274473f,
    0.00817957f, -0.05951674f, -0.07244372f, -0.00545714f, -0.02148614f, 0.02765153f, -0.08338184f, -0.06488294f,
    -0.03958139f, -0.07047117f, 0.02062761f, -0.04270595f, -0.08240929f, -0.03502055f, 0.06481185f, 0.02728739f,
    -0.02398450f, 0.05967287f, 0.05710116f, 0.05443599f, -0.03157422f, 0.04551733f, -0.02429387f, -0.05404899f,
    -0.08537632f, -0.07805547f, 0.05905779f, 0.03193695f, -0.05301823f, 0.04434001f, 0.02426829f, 0.03479882f,
    -0.02945822f, -0.01004100f, -0.02903296f, -0.02468821f, 0.06438527f, 0.01900631f, -0.05018055f, 0.06714994f,
    -0.03016927f, -0.01758336f, -0.03649962f, -0.06717391f, -0.02628805f, -0.00103082f, -0.08350366f, -0.06529947f,
    0.07497112f, -0.04642491f, -0.00329776f, 0.06012713f, -0.08107610f, 0.02187414f, -0.03674769f, 0.06083037f,
    0.06980792f, -0.07347395f, -0.05772082f, 0.02511513f, 0.01387416f, 0.00942708f, -0.08109575f, 0.00530652f,
    0.05614293f, -0.06839279f, 0.07455347f, -0.08721188f, -0.05224136f, 0.01611484f, 0.05268174f, -0.08011474f
};

static const float conv2_bias[32] = {
    0.12315245f, 0.09498749f, 0.09217021f, 0.03758009f, 0.09028812f, 0.02942068f, 0.11340225f, 0.11137152f,
    0.03485561f, 0.07996961f, 0.02328772f, 0.03989189f, 0.06814601f, -0.03849880f, 0.05916732f, -0.04794426f,
    -0.03101850f, 0.08380371f, -0.00221261f, 0.03079498f, 0.10879888f, 0.06144298f, 0.07711182f, 0.06459157f,
    0.12029625f, 0.05058498f, 0.05132027f, 0.09079210f, 0.12191641f, 0.10911573f, 0.10420559f, 0.01469251f
};

// Conv1d 32→16, k=9
static const float conv4_weight[4608] = {
    -0.05566900f, -0.01109596f, 0.04160450f, -0.03626899f, -0.03413218f, 0.01769741f, 0.00642617f, 0.04659667f,
    -0.03863943f, 0.01753710f, 0.01163733f, -0.03829376f, -0.06446735f, -0.06095775f, -0.03285091f, -0.06274977f,
    0.04772498f, -0.04146639f, 0.02233136f, 0.00652437f, 0.00297573f, 0.00406492f, 0.04270168f, -0.00575607f,
    0.05493436f, -0.01021446f, -0.00515626f, 0.04421131f, -0.04543661f, 0.01045898f, 0.01737138f, -0.05464657f,
    0.03869722f, -0.03216873f, 0.04867331f, 0.03454524f, -0.05899731f, 0.04524772f, -0.02486183f, -0.00025362f,
    -0.06609889f, -0.01670414f, 0.01630786f, -0.06401190f, 0.02206939f, -0.01925473f, -0.01513037f, -0.03980987f,
    0.04833704f, -0.05874842f, 0.04275392f, 0.00399486f, -0.04572145f, -0.05225415f, 0.02960446f, -0.03230317f,
    -0.06149770f, -0.00775749f, -0.01886155f, 0.01739749f, -0.03442642f, 0.02842606f, -0.05240394f, -0.00496924f,
    -0.03462191f, -0.03952159f, -0.03684508f, -0.03836046f, 0.04852053f, -0.05599729f, -0.02396768f, 0.00028236f,
    0.01280277f, 0.03253100f, -0.06183615f, 0.00489077f, 0.01468165f, -0.01608741f, 0.01472173f, -0.04967245f,
    -0.05899436f, -0.04789674f, 0.00406485f, -0.00284868f, 0.05780440f, 0.03630386f, -0.04369813f, -0.02001603f,
    -0.04625823f, 0.02044601f, -0.04210999f, -0.02477981f, 0.01224600f, 0.01162018f, 0.01429070f, -0.01613893f,
    -0.04116068f, 0.01559581f, 0.00675101f, -0.02106278f, -0.05163800f, 0.04105308f, 0.00909459f, -0.01348722f,
    0.04264436f, 0.03164827f, 0.02373092f, 0.01878145f, -0.00452232f, 0.00629355f, 0.03226014f, -0.02072215f,
    -0.02369954f, -0.05480366f, -0.01276413f, -0.01008359f, -0.02806371f, 0.02495206f, 0.01059832f, 0.04401625f,
    0.04271778f, 0.05272957f, 0.03831029f, 0.02645536f, 0.02576716f, 0.04035798f, 0.00509547f, -0.04014492f,
    0.03336226f, -0.02560550f, 0.01117969f, 0.02450150f, 0.05132548f, -0.03546325f, -0.04862984f, 0.02549570f,
    0.03961367f, -0.05806491f, -0.06484073f, -0.03197492f, -0.05830018f, -0.06386987f, -0.02719069f, -0.06106361f,
    0.03254373f, 0.03302678f, 0.04426270f, -0.00261535f, 0.00893649f, 0.05782689f, -0.00685016f, 0.04450637f,
    -0.03154911f, 0.02807011f, 0.00922132f, 0.01051420f, 0.04139471f, -0.05504864f, -0.00579843f, 0.04236828f,
    -0.02126422f, -0.02933163f, -0.01348615f, -0.03041029f, 0.02307733f, -0.05668767f, -0.06189812f, -0.06364118f,
    -0.00372109f, 0.04616627f, -0.04178408f, -0.03706829f, 0.00419317f, -0.03045553f, -0.04496814f, 0.04385357f,
    0.04389108f, 0.00327665f, -0.01516569f, 0.03431870f, 0.02446615f, 0.01268896f, -0.03371843f, -0.03555984f,
    -0.03113077f, -0.00827098f, -0.02010839f, 0.02972647f, 0.01281771f, -0.05533183f, 0.02609288f, -0.02139412f,
    -0.05290378f, 0.00234064f, -0.02770825f, -0.05331351f, 0.01142065f, 0.04918592f, 0.04725625f, 0.02808172f,
    0.04145629f, -0.03179806f, -0.06572826f, 0.02528552f, 0.01382057f, -0.06563671f, 0.02356431f, 0.03515040f,
    -0.04799389f, 0.04606143f, -0.01153934f, -0.06367105f, -0.04165531f, 0.03053599f, 0.03777777f, 0.02700658f,
    0.00784834f, 0.04456136f, 0.02739965f, -0.05572629f, 0.03311633f, 0.00459587f, -0.04357733f, -0.04894559f,
    0.02094707f, 0.04902406f, 0.04729507f, -0.06567239f, 0.04893074f, -0.05675045f, -0.04405706f, -0.00306535f,
    -0.02319328f, -0.00620686f, -0.02079382f, -0.04158196f, -0.05708534f, -0.04577079f, -0.01751215f, -0.05624426f,
    -0.05692173f, 0.03989879f, -0.05362152f, -0.00666429f, 0.02666057f, 0.02412633f, 0.03692421f, 0.01719792f,
    -0.05675270f, -0.05122406f, 0.01312096f, -0.01804155f, -0.04350175f, 0.02092755f, -0.02768511f, -0.04281365f,
    0.04083401f, 0.05016622f, 0.02822374f, -0.02077759f, -0.02254265f, 0.03000213f, 0.00640648f, -0.00932884f,
    -0.02836231f, 0.03432630f, 0.01070232f, -0.02864661f, 0.02129714f, -0.01367494f, 0.04450093f, -0.02827078f,
    0.00451797f, 0.00766601f, -0.01297132f, -0.06013253f, -0.04743819f, 0.04172732f, -0.04716306f, -0.03653657f,
    0.02725872f, -0.06096225f, -0.02864720f, -0.01898500f, -0.04397556f, -0.00168868f, -0.05812750f, -0.04301393f,
    0.03198819f, 0.03486147f, 0.04183394f, 0.11654250f, 0.13517459f, 0.23416106f, 0.08606735f, 0.02400636f,
    -0.01868634f, 0.00722834f, -0.03481281f, 0.05904682f, 0.11336008f, 0.12841555f, 0.17944930f, 0.09974151f,
    0.06530184f, 0.01506010f, -0.00084294f, 0.05415273f, 0.23386838f, 0.31383345f, 0.17283572f, 0.11980636f,
    -0.04850672f, -0.17833981f, -0.16035435f, 0.02012533f, 0.05198064f, -0.01344230f, 0.03782606f, 0.17868303f,
    0.24368224f, 0.17685823f, 0.02744408f, -0.06644402f, 0.10554982f, 0.16271733f, 0.13496564f, -0.04464697f,
    -0.23668894f, -0.10610732f, 0.06833260f, 0.21296690f, 0.14726274f, -0.01081386f, -0.02618209f, -0.28122154f,
    -0.24524818f, -0.17179762f, 0.00898687f, 0.19331707f, 0.23263028f, 0.18385725f, 0.07286052f, -0.04038667f,
    -0.11455417f, -0.18400840f, -0.19956324f, -0.11292020f, -0.06995285f, -0.02709181f, 0.05329717f, -0.02005624f,
    0.04743543f, 0.03044695f, 0.09333230f, 0.15973839f, 0.14981277f, 0.00887918f, 0.01535112f, 0.00930966f,
    0.04940503f, 0.03904788f, 0.00596295f, -0.05388667f, -0.16971734f, -0.21241748f, -0.16764532f, -0.01962973f,
    0.05669896f, 0.08173560f, -0.02491479f, -0.08960985f, -0.10960951f, -0.25761217f, -0.28192610f, -0.15435751f,
    -0.06993437f, 0.04825637f, 0.00409718f, -0.02972429f, -0.10008588f, -0.15050739f, -0.19440897f, -0.13535301f,
    -0.14934568f, -0.01532523f, -0.01416195f, -0.17490388f, 0.05938396f, 0.24142016f, 0.14222588f, 0.00468690f,
    -0.11115145f, -0.10093021f, -0.06149721f, 0.17160642f, 0.06409344f, 0.13395151f, 0.05931215f, 0.02766293f,
    0.02653443f, -0.15737870f, -0.10471468f, -0.06941830f, -0.01357431f, 0.03457744f, 0.00075549f, -0.00074830f,
    0.02016237f, 0.03383188f, -0.05415047f, 0.02776593f, 0.05217065f, -0.02186712f, -0.02583572f, 0.06102285f,
    0.07505688f, 0.14045642f, 0.22252789f, 0.33615828f, 0.24942815f, 0.09907466f, 0.01168877f, 0.03973721f,
    0.01555246f, 0.04964882f, -0.06047360f, -0.02962546f, -0.08411282f, -0.17079395f, -0.08577783f, -0.05483969f,
    -0.03050907f, 0.05865288f, -0.03237623f, -0.03962491f, 0.01118407f, 0.00619952f, 0.04046331f, 0.00253414f,
    0.05276774f, 0.02874018f, 0.02028834f, -0.02621321f, -0.04870292f, -0.16065048f, -0.21500698f, -0.21094131f,
    -0.13673925f, 0.03183163f, 0.02386243f, -0.04115042f, 0.04883156f, 0.33489326f, 0.30550295f, 0.07139713f,
    -0.02613354f, -0.06777490f, -0.09344961f, -0.02379311f, 0.07707169f, 0.21669920f, 0.04419855f, -0.16272174f,
    -0.13047180f, -0.01552682f, 0.21114111f, 0.11976970f, 0.01890716f, -0.02554025f, -0.08421963f, -0.08342246f,
    -0.20401384f, -0.13381980f, -0.09611805f, -0.00524229f, 0.12013796f, 0.09376515f, 0.07151341f, -0.00313678f,
    -0.05890455f, -0.07518331f, -0.16564888f, -0.20342647f, -0.05941569f, 0.02997823f, -0.01077332f, 0.00508815f,
    -0.06041855f, 0.03962914f, 0.20334834f, 0.22051308f, 0.13348362f, 0.02742140f, -0.06891329f, 0.02237891f,
    -0.00234827f, 0.00475376f, 0.07980115f, 0.16411580f, 0.21416040f, 0.07087445f, 0.01701806f, -0.01340037f,
    0.01402565f, 0.04688019f, 0.05354624f, 0.14987354f, 0.20883894f, 0.21324873f, 0.04197883f, 0.00949831f,
    -0.03363619f, 0.16764049f, -0.12620048f, -0.09663419f, 0.12330154f, 0.28790143f, 0.21067995f, -0.00080115f,
    -0.09220982f, -0.04803015f, 0.07111328f, 0.05781193f, 0.01942310f, 0.00992283f, -0.10641795f, -0.27073842f,
    -0.23860835f, -0.20046608f, -0.04675182f, 0.09048571f, 0.00126779f, 0.00841548f, -0.04207082f, -0.17423058f,
    -0.21400578f, -0.18149173f, -0.14874259f, -0.04805614f, 0.05623689f, 0.02539012f, 0.08109739f, 0.27468234f,
    0.17033856f, 0.12267567f, 0.02759236f, -0.10212539f, -0.03607732f, 0.00480508f, -0.01496611f, 0.01000370f,
    0.25308841f, 0.27163434f, 0.11658287f, 0.02822792f, -0.10533573f, -0.08775333f, 0.00327444f, 0.04864460f,
    0.02630881f, 0.13548614f, 0.24366641f, 0.13732544f, 0.07289059f, -0.04098264f, 0.00134106f, -0.05596679f,
    -0.02211766f, -0.00776327f, -0.03874636f, -0.05626615f, -0.00579856f, 0.00971350f, 0.05735781f, -0.02536881f,
    -0.04087187f, 0.00834808f, 0.05002462f, 0.05292203f, 0.15714751f, 0.15263385f, 0.09165851f, 0.05374854f,
    0.01964215f, -0.01143669f, -0.06332286f, -0.02428372f, 0.04519851f, 0.15983009f, 0.07065793f, 0.02824983f,
    0.06619594f, -0.00300412f, 0.00612735f, 0.02840250f, 0.26125023f, 0.26342747f, 0.18980703f, 0.05978949f,
    -0.08818746f, -0.03599955f, -0.02882574f, 0.00953169f, -0.00217659f, 0.01801733f, 0.01770028f, 0.13731900f,
    0.28278694f, 0.13305956f, 0.08751300f, 0.02299924f, 0.09330901f, 0.26082841f, 0.19447601f, -0.04182274f,
    -0.19828703f, -0.07230274f, 0.10113538f, 0.25834188f, 0.21595365f, -0.07883671f, -0.13243951f, -0.37859550f,
    -0.31513825f, -0.16561601f, 0.06211945f, 0.18750072f, 0.28813583f, 0.19073188f, 0.07421745f, -0.01621183f,
    -0.13814248f, -0.13386935f, -0.25991100f, -0.21252625f, -0.09771175f, -0.07194354f, 0.08833947f, 0.03367186f,
    0.02246218f, 0.04009762f, 0.05566208f, 0.02402246f, -0.01818115f, -0.02129489f, -0.00803782f, -0.03804322f,
    0.10519025f, 0.02371872f, -0.02082361f, -0.06532606f, -0.17467614f, -0.27044162f, -0.16291171f, -0.10323516f,
    -0.00625720f, 0.02692624f, 0.02846058f, -0.03741743f, -0.21562794f, -0.37822935f, -0.32074246f, -0.13912092f,
    -0.00497536f, 0.02650126f, 0.00332862f, -0.08935876f, -0.03781821f, -0.18955773f, -0.26089954f, -0.28921464f,
    -0.16580357f, -0.08576319f, -0.01655207f, -0.10055894f, 0.08364525f, 0.19650957f, 0.23308207f, 0.07431211f,
    -0.06810779f, -0.17025304f, 0.00224245f, 0.13103624f, 0.05933375f, 0.03488437f, 0.09378424f, 0.00210445f,
    -0.07244983f, -0.19298434f, -0.21248890f, -0.02690645f, 0.03253551f, 0.01956486f, 0.03403762f, -0.03551289f,
    0.02356263f, -0.01940416f, -0.00491139f, 0.04342420f, -0.05890067f, 0.01166151f, 0.01171654f, -0.03725036f,
    0.04610196f, 0.11154339f, 0.23175193f, 0.38858446f, 0.21072587f, 0.09912974f, -0.00111116f, 0.09296174f,
    0.08688192f, -0.00423620f, 0.00196426f, -0.14197448f, -0.18234646f, -0.21622978f, -0.13133503f, -0.03081743f,
    0.00414476f, 0.02146948f, -0.01255366f, -0.01722882f, -0.01824900f, 0.00097825f, -0.01834029f, -0.04289231f,
    0.04466358f, 0.02282524f, 0.03938528f, -0.07070360f, -0.08397581f, -0.19406575f, -0.24166411f, -0.14015946f,
    -0.14249350f, -0.01646449f, -0.02402586f, 0.08425544f, 0.16477004f, 0.27728832f, 0.39081594f, 0.11951455f,
    0.05856373f, -0.04577915f, 0.04184141f, 0.03336019f, 0.09828989f, 0.25765720f, 0.10063515f, -0.05358917f,
    -0.01741763f, 0.13453810f, 0.28734165f, 0.25592402f, 0.02773051f, -0.01767047f, -0.12261529f, -0.15659486f,
    -0.25313541f, -0.13253781f, -0.03977288f, 0.06740835f, 0.06954830f, 0.07150872f, 0.06680118f, -0.00388005f,
    -0.04499513f, -0.11854538f, -0.25870681f, -0.25675389f, -0.04725941f, 0.00410455f, 0.03223816f, -0.02982201f,
    0.01789014f, 0.04317424f, 0.10443473f, 0.26226601f, 0.17204326f, 0.07709908f, -0.07527463f, 0.00586140f,
    0.01908975f, -0.07109599f, 0.04443401f, 0.14494865f, 0.10585456f, 0.03006470f, 0.06485634f, 0.02953172f,
    -0.03083924f, 0.05062146f, 0.00670849f, 0.08028334f, 0.13841911f, 0.18185417f, 0.07208189f, -0.02913621f,
    0.03587136f, 0.21566083f, -0.08658557f, -0.05516509f, 0.07916905f, 0.31296030f, 0.22926210f, 0.09118845f,
    -0.01563010f, 0.07973193f, 0.07884143f, 0.12936160f, 0.03589362f, -0.03985388f, -0.22302920f, -0.32702440f,
    -0.33223748f, -0.17525361f, -0.06856193f, 0.02348026f, -0.02782289f, -0.06557411f, -0.06823997f, -0.13100435f,
    -0.22929689f, -0.16375245f, -0.03270964f, -0.02972510f, 0.03770840f, 0.09008165f, 0.02782236f, 0.20521811f,
    0.25716352f, 0.09160108f, 0.03755502f, 0.03306540f, 0.01524918f, 0.06727559f, 0.05865674f, 0.03124635f,
    0.21675032f, 0.20861439f, 0.17706850f, 0.02696558f, 0.02595928f, -0.04063620f, -0.08092958f, -0.01280016f,
    -0.02387877f, 0.10537815f, 0.19422735f, 0.10650697f, 0.01715868f, 0.03747058f, 0.00407354f, 0.00352087f,
    0.03716002f, 0.03718940f, -0.00656082f, -0.05400304f, 0.01224672f, -0.00466752f, 0.00652956f, -0.02074032f,
    0.14293219f, 0.06039769f, 0.01288302f, -0.09034980f, -0.22930205f, -0.17596503f, -0.12674792f, -0.02936139f,
    0.00720709f, 0.00395011f, -0.01108960f, -0.08461341f, -0.15763348f, -0.24007775f, -0.20371525f, -0.09834141f,
    -0.00222902f, 0.08263630f, -0.02736299f, -0.10233565f, -0.28927448f, -0.38661426f, -0.23271380f, -0.06193705f,
    0.14866729f, 0.22454736f, 0.10872801f, 0.07548086f, 0.15978073f, 0.13044450f, -0.01174158f, -0.13877697f,
    -0.33914256f, -0.24785860f, -0.05309000f, 0.06238683f, 0.00250947f, -0.13965870f, -0.02267252f, 0.17659254f,
    0.34477600f, 0.24038680f, 0.02655001f, -0.03273674f, -0.05115251f, -0.00439381f, 0.09120700f, 0.23570092f,
    0.35007590f, 0.17973949f, 0.07968216f, -0.12326738f, -0.21600091f, -0.14257419f, 0.02726573f, -0.03285589f,
    0.00638296f, 0.05886939f, 0.11120390f, 0.11651859f, 0.06659118f, 0.06232750f, 0.00899446f, 0.05279119f,
    0.05474752f, -0.05407048f, -0.11202876f, -0.09571049f, -0.16710305f, -0.01941025f, -0.00812673f, -0.00507765f,
    -0.00638252f, 0.00228969f, 0.02427026f, -0.03324611f, 0.11506689f, 0.05626630f, 0.09146569f, 0.00372642f,
    -0.01915505f, 0.01661107f, 0.02644018f, 0.01361129f, 0.10867964f, 0.18563798f, 0.14411949f, 0.14159507f,
    0.05545105f, -0.04574170f, 0.01434478f, 0.03567833f, -0.03201089f, -0.04809829f, 0.01629350f, 0.07290044f,
    0.11819541f, -0.02652426f, 0.01082881f, 0.16121885f, -0.01750929f, -0.15258257f, -0.13638045f, 0.09529535f,
    0.25351137f, 0.28236288f, 0.13537613f, -0.08083937f, 0.05118087f, -0.04968008f, -0.00213515f, 0.02297264f,
    -0.01297929f, 0.09445307f, -0.00716669f, 0.01375185f, -0.06382826f, -0.05082185f, -0.04603534f, 0.04996428f,
    -0.02229040f, -0.05429165f, -0.03593832f, 0.05576094f, -0.01125568f, -0.04935171f, 0.19712253f, 0.07130842f,
    0.00491818f, -0.02755780f, -0.28478837f, -0.42197004f, -0.29739761f, -0.07054541f, 0.06009660f, 0.06810898f,
    0.06544124f, -0.01201331f, 0.00186477f, 0.01594373f, 0.07482432f, 0.08137799f, 0.08325787f, -0.02887500f,
    0.00262637f, 0.00471738f, -0.05046596f, -0.01881739f, -0.05291207f, -0.04842437f, -0.05636768f, -0.00043220f,
    -0.05647800f, 0.04891104f, -0.02695548f, 0.02949265f, -0.00695784f, 0.02517050f, 0.04566918f, 0.08388076f,
    0.10135719f, 0.05167734f, 0.05450092f, 0.03648073f, -0.10283554f, -0.32370394f, -0.34537810f, 0.01049557f,
    0.11383232f, 0.16334663f, 0.05870345f, 0.09034798f, -0.10895561f, -0.11253343f, 0.12107409f, 0.25787503f,
    0.22921713f, 0.06002521f, -0.06384791f, -0.02179971f, 0.02996447f, 0.02111373f, 0.05298819f, 0.09711718f,
    0.13050130f, 0.02589996f, 0.06880262f, 0.04547601f, 0.04617205f, 0.02791953f, 0.05789014f, 0.00570054f,
    0.03593254f, -0.02141458f, 0.07639248f, 0.08972444f, 0.05907668f, 0.04903712f, 0.12707806f, 0.16527632f,
    0.15737195f, 0.00985670f, -0.16574654f, -0.34401599f, -0.23092078f, -0.04333245f, 0.02954706f, 0.00077825f,
    0.03980359f, -0.01279157f, -0.01089836f, -0.21599251f, -0.17878574f, -0.10234295f, 0.04696557f, 0.06964240f,
    0.05229000f, 0.02911350f, 0.01997225f, -0.16730604f, -0.22704300f, -0.25480345f, -0.00801290f, 0.01336270f,
    0.06518527f, -0.02533862f, 0.20976061f, 0.19148670f, 0.06543408f, -0.11083309f, -0.01445238f, 0.12348270f,
    0.22422367f, 0.15927294f, -0.12593414f, -0.15121695f, -0.02238032f, 0.05990551f, 0.10474267f, 0.22771329f,
    0.23024008f, 0.12511198f, 0.10377730f, -0.04947728f, -0.01472613f, 0.04715652f, 0.00142493f, 0.05038900f,
    0.01636584f, 0.05062146f, 0.10757877f, -0.01887333f, 0.04114341f, -0.00329799f, -0.11623713f, -0.25046384f,
    -0.25090632f, -0.12020092f, 0.05078272f, 0.16182820f, 0.20632862f, -0.01978908f, -0.04287894f, -0.03244131f,
    -0.30425736f, -0.28299460f, -0.18688253f, 0.02697821f, 0.10156775f, 0.14870507f, 0.06005555f, -0.00540907f,
    -0.05451104f, -0.18900791f, -0.28800198f, -0.20005716f, -0.01460269f, 0.08737143f, 0.07268707f, 0.04165872f,
    0.01984700f, -0.00043622f, -0.03515961f, -0.00063847f, 0.06313338f, -0.04863905f, 0.03058490f, -0.00244328f,
    -0.12824968f, -0.03985615f, -0.10106395f, 0.04211340f, 0.14271268f, 0.08736847f, 0.06971416f, 0.06415045f,
    0.05131653f, -0.02690919f, -0.11480251f, -0.03733128f, 0.10436019f, 0.19067182f, 0.06627240f, 0.10389693f,
    -0.02214232f, -0.03028201f, 0.04600979f, 0.00825034f, 0.31669688f, 0.34896818f, 0.22910735f, 0.09630812f,
    -0.00616355f, -0.06018350f, -0.06302186f, 0.01788730f, -0.01605147f, 0.02385228f, 0.05359364f, 0.25178596f,
    0.26609486f, 0.19481456f, 0.07935178f, 0.02234685f, 0.03121729f, 0.12183722f, 0.17309333f, -0.06731895f,
    -0.13433681f, -0.07237533f, 0.04027012f, 0.22735605f, 0.22860628f, -0.06694979f, -0.16639218f, -0.23162887f,
    -0.24566916f, -0.13208401f, 0.04779470f, 0.22522801f, 0.25195676f, 0.18527260f, 0.06545811f, -0.06545287f,
    -0.13873665f, -0.20756453f, -0.22196276f, -0.26418003f, -0.15979338f, -0.09542402f, 0.04608194f, -0.07198124f,
    -0.09077291f, -0.07216190f, 0.00059337f, 0.09242172f, 0.08414106f, 0.08322628f, 0.05325432f, 0.05013185f,
    0.01589778f, 0.02162855f, -0.00072476f, -0.07775319f, -0.14820257f, -0.25109866f, -0.21246071f, -0.07810175f,
    0.02541675f, 0.06110767f, 0.02088097f, -0.09368799f, -0.12214516f, -0.27955788f, -0.33501333f, -0.24577564f,
    -0.11334726f, 0.04420396f, -0.01237409f, -0.07124691f, -0.06328961f, -0.08464094f, -0.24493974f, -0.25233155f,
    -0.24451040f, -0.09638669f, 0.04396850f, -0.13377881f, 0.05232083f, 0.19109219f, 0.09085047f, 0.06617910f,
    -0.07977577f, -0.18125747f, -0.05770350f, 0.11724792f, 0.08299056f, 0.09107199f, 0.03886383f, 0.05212728f,
    -0.07122494f, -0.20951068f, -0.23623197f, -0.16168632f, -0.05969065f, -0.04674419f, -0.01625129f, -0.04343289f,
    -0.01122530f, -0.03221820f, -0.05496380f, 0.01001674f, 0.02830682f, -0.04601156f, -0.09367742f, -0.02779242f,
    0.03886046f, 0.05554114f, 0.26348791f, 0.39777470f, 0.21858378f, 0.04534331f, -0.00494091f, 0.09108717f,
    -0.01703330f, 0.05773838f, -0.05560672f, -0.10667101f, -0.09886707f, -0.14724912f, -0.17591058f, -0.03715418f,
    0.03445328f, -0.02177783f, -0.04369466f, 0.01990492f, 0.04409615f, -0.04315941f, -0.02332718f, -0.00856496f,
    0.05565187f, 0.10314919f, 0.02393101f, -0.05933051f, -0.07834363f, -0.18894960f, -0.23451743f, -0.25883046f,
    -0.22782719f, -0.04606470f, 0.02485168f, -0.00690405f, 0.10132742f, 0.28955773f, 0.24647912f, 0.11851226f,
    0.06255440f, 0.02028494f, -0.04026074f, 0.00663823f, 0.13187817f, 0.23588452f, 0.12187419f, -0.01512287f,
    -0.05948344f, 0.01747631f, 0.21226881f, 0.14420386f, 0.01252400f, 0.00020336f, -0.04704965f, -0.16115874f,
    -0.29425609f, -0.20397194f, -0.13644658f, -0.02869163f, 0.06407434f, 0.10449495f, 0.08463750f, 0.00435015f,
    -0.03872174f, -0.03657045f, -0.16439229f, -0.29676387f, -0.13749801f, -0.03128638f, -0.08128805f, -0.09551068f,
    -0.06581871f, -0.01930401f, 0.19490902f, 0.24855790f, 0.17347957f, 0.06005522f, -0.03105461f, -0.05922883f,
    -0.03599337f, -0.13313270f, 0.02945288f, 0.13865334f, 0.19767198f, 0.04386906f, 0.03402242f, 0.02003287f,
    -0.06127824f, -0.06651058f, -0.00599225f, 0.10582402f, 0.15345284f, 0.10200547f, 0.01731739f, 0.02390272f,
    0.00301492f, 0.09740775f, -0.04187312f, -0.08550596f, -0.04061205f, 0.18034621f, 0.12758017f, -0.00014239f,
    -0.02187036f, 0.01732554f, 0.08665476f, 0.07336731f, 0.10047695f, -0.01181205f, -0.21224797f, -0.34719709f,
    -0.40863305f, -0.33947343f, -0.15343080f, 0.04133577f, 0.02745923f, 0.00048220f, -0.08765914f, -0.19430284f,
    -0.25206122f, -0.19067101f, -0.15722790f, -0.14772950f, -0.00297835f, 0.00574277f, 0.08121499f, 0.35797301f,
    0.16978799f, 0.12345622f, -0.00035419f, -0.02825220f, 0.03722592f, 0.04714223f, 0.06387755f, 0.04147873f,
    0.31768164f, 0.21988004f, 0.19581579f, 0.09802874f, -0.06823797f, -0.02668419f, -0.09195781f, -0.11734290f,
    -0.05133901f, 0.08608775f, 0.13106056f, 0.13052198f, 0.03618027f, 0.00299464f, -0.00217152f, 0.03788974f,
    -0.05802318f, 0.00350072f, 0.01434429f, 0.01966092f, -0.00764604f, 0.03708159f, -0.04709840f, -0.02480468f,
    0.01515485f, 0.05921512f, 0.07285520f, 0.07674666f, 0.23388498f, 0.27199951f, 0.16670248f, 0.07649864f,
    -0.05889267f, 0.05064398f, 0.00832289f, 0.07876222f, 0.17871647f, 0.25119847f, 0.15428698f, 0.12839691f,
    0.02520313f, -0.07794618f, 0.09310506f, 0.09376053f, 0.26747084f, 0.42217511f, 0.20966202f, 0.08199036f,
    -0.05883154f, -0.10500642f, -0.09164295f, 0.08103526f, 0.03894668f, 0.07978773f, 0.09315581f, 0.19734588f,
    0.38055614f, 0.27268821f, 0.06940658f, -0.06392992f, 0.11458804f, 0.17886162f, 0.14170209f, -0.12924701f,
    -0.28190058f, -0.18549447f, 0.07387699f, 0.24016590f, 0.21258025f, -0.03636469f, -0.14445567f, -0.34385961f,
    -0.31051081f, -0.18046066f, 0.01082403f, 0.15085745f, 0.29532894f, 0.17008308f, 0.01018640f, -0.02532935f,
    -0.05803706f, -0.14049923f, -0.17353119f, -0.22262415f, -0.20062234f, -0.05100908f, 0.05643875f, 0.02044482f,
    0.05562117f, 0.09099212f, 0.12459292f, 0.14272578f, 0.14522484f, 0.11385169f, -0.00944455f, -0.01076284f,
    0.06663320f, 0.00020676f, -0.06744707f, -0.02181309f, -0.20500721f, -0.22604573f, -0.19341573f, -0.05170474f,
    0.01550057f, 0.03669564f, 0.00135482f, -0.02086044f, -0.22021484f, -0.27739269f, -0.30789533f, -0.19644047f,
    -0.06701619f, 0.10036894f, -0.01594874f, -0.02199888f, -0.07905419f, -0.12740006f, -0.18564509f, -0.27923131f,
    -0.21336573f, -0.07829911f, 0.07186544f, -0.13968107f, 0.03733958f, 0.26974359f, 0.19616577f, 0.00434182f,
    -0.08611203f, -0.16645285f, -0.04236893f, 0.11576691f, 0.06777991f, 0.09344484f, 0.05726573f, -0.00562311f,
    -0.11245608f, -0.18222709f, -0.14671312f, -0.06841883f, -0.00967142f, 0.01515470f, -0.05100416f, 0.03161891f,
    0.05591489f, 0.05730545f, 0.05112001f, -0.05113021f, -0.04325596f, 0.04807598f, -0.00292461f, 0.04612735f,
    0.05665536f, 0.09106989f, 0.32474157f, 0.43595785f, 0.29934856f, 0.01151644f, -0.08308071f, 0.09671509f,
    0.04050531f, 0.03269409f, -0.00600152f, -0.09415839f, -0.22164470f, -0.19127759f, -0.09301934f, -0.09311966f,
    0.00414766f, 0.02406036f, -0.03900484f, 0.00320317f, 0.00760319f, -0.04985285f, -0.04782533f, -0.03794606f,
    0.03062927f, 0.01314034f, -0.02900009f, 0.00796639f, -0.05466810f, -0.18175979f, -0.17727181f, -0.13978474f,
    -0.09530112f, 0.00739947f, 0.06581551f, 0.09723184f, 0.20974067f, 0.34873548f, 0.42235291f, 0.13077024f,
    0.04579269f, -0.07198313f, -0.01561943f, -0.03489876f, 0.17900854f, 0.19412340f, 0.04268418f, -0.19964203f,
    -0.15891117f, 0.08495837f, 0.15261801f, 0.14262062f, -0.05222006f, -0.04730922f, -0.05332284f, -0.23096058f,
    -0.28019655f, -0.17929070f, -0.10209162f, -0.02561404f, 0.04727759f, 0.06438442f, 0.01796341f, 0.00945141f,
    -0.00864472f, -0.12491450f, -0.19183850f, -0.25035423f, -0.11352322f, -0.02779789f, -0.02752508f, 0.04426618f,
    -0.04592391f, 0.02014813f, 0.16989595f, 0.34849250f, 0.23710923f, 0.07108078f, -0.07333310f, -0.04283327f,
    -0.02870284f, 0.01877100f, 0.02926404f, 0.24969067f, 0.20304544f, 0.19295605f, 0.07122135f, -0.03825107f,
    -0.01546259f, 0.04716006f, 0.00902363f, 0.12227397f, 0.26492640f, 0.19007646f, 0.09635348f, -0.04158458f,
    -0.09114658f, 0.16006161f, -0.11636717f, -0.17044173f, 0.10907041f, 0.26160237f, 0.16535091f, -0.01522272f,
    -0.07764666f, -0.04622351f, 0.12788212f, 0.08784050f, 0.09321909f, -0.04465003f, -0.12370957f, -0.26616660f,
    -0.33804244f, -0.26630649f, -0.12120622f, 0.01048028f, 0.02027971f, 0.00109244f, -0.03049161f, -0.11899494f,
    -0.15852158f, -0.16893920f, -0.12027709f, -0.05792123f, -0.01289625f, 0.02789273f, 0.13062744f, 0.30396530f,
    0.27058098f, 0.15613969f, -0.00804755f, -0.14749339f, -0.13144620f, 0.07970168f, 0.00266726f, 0.08878923f,
    0.35759094f, 0.36556974f, 0.17883301f, 0.07812782f, -0.08243983f, -0.10783397f, -0.01466202f, -0.02079552f,
    0.10174555f, 0.25909108f, 0.26251352f, 0.24601535f, 0.07775109f, -0.00146157f, -0.10782039f, 0.04705987f,
    0.00462629f, -0.00948552f, 0.04796956f, -0.01475905f, -0.01121614f, 0.00946887f, 0.04190419f, 0.01245758f,
    0.05148770f, -0.03255139f, -0.02843465f, 0.05354514f, 0.11666749f, 0.18674424f, 0.16282149f, 0.05114068f,
    -0.04960181f, 0.04687600f, -0.04224943f, -0.01312299f, 0.15359856f, 0.17219859f, 0.17116877f, 0.10990172f,
    0.04124522f, 0.03706416f, 0.06907207f, 0.02670093f, 0.25754789f, 0.32406178f, 0.20967072f, 0.12578981f,
    -0.11740743f, -0.13178809f, -0.12051426f, 0.06658552f, -0.01796760f, 0.02664512f, 0.04206151f, 0.20375176f,
    0.27567974f, 0.19120209f, 0.00331624f, -0.00859041f, 0.05673661f, 0.22482491f, 0.07248630f, -0.11383975f,
    -0.23723483f, -0.14914137f, 0.01708487f, 0.11310477f, 0.17678623f, 0.02966309f, -0.02780250f, -0.24957672f,
    -0.24748991f, -0.19505274f, 0.06955165f, 0.13892329f, 0.26769418f, 0.15471615f, 0.00569590f, -0.08036415f,
    -0.10841988f, -0.15743364f, -0.13781954f, -0.14193815f, -0.18367942f, -0.07589980f, 0.04706312f, 0.02899553f,
    0.01362138f, 0.08839513f, 0.06070985f, 0.14740004f, 0.07096836f, 0.05159920f, 0.07360505f, -0.04957737f,
    0.07191083f, 0.02752430f, -0.04415675f, -0.00793692f, -0.19492601f, -0.21807644f, -0.14204934f, -0.03748672f,
    -0.00014481f, -0.03154719f, 0.02348490f, -0.04320313f, -0.18345651f, -0.28018898f, -0.20686634f, -0.17513920f,
    -0.06352197f, 0.04735224f, -0.01699481f, -0.00698391f, -0.04906951f, -0.11515156f, -0.22410673f, -0.21928836f,
    -0.15005873f, -0.05526520f, 0.01849443f, -0.13979769f, -0.04428829f, 0.20001309f, 0.18517731f, 0.01902790f,
    -0.05880288f, -0.09964249f, -0.03759560f, 0.14946502f, 0.02275448f, 0.12939987f, 0.11974048f, 0.04137869f,
    0.00140807f, -0.07759245f, -0.10855879f, -0.03431903f, 0.02563136f, 0.05757797f, -0.04395842f, 0.00856229f,
    0.01840658f, 0.02375979f, 0.05386909f, -0.02423697f, -0.05791399f, -0.02397873f, -0.05472678f, -0.04081424f,
    0.00695621f, 0.05747933f, 0.31428948f, 0.39245248f, 0.21661285f, 0.06371161f, -0.08381020f, 0.04465482f,
    -0.01721266f, 0.04140389f, 0.03570988f, 0.01411550f, -0.06692872f, -0.14483012f, -0.06038910f, -0.01206124f,
    0.00043067f, 0.01473277f, -0.01460580f, -0.04240694f, -0.00823948f, -0.00999123f, 0.02178103f, 0.05304055f,
    0.04835808f, -0.00649336f, 0.01828629f, -0.02403816f, -0.00329545f, -0.07950859f, -0.20296261f, -0.19358516f,
    -0.09084822f, 0.03231930f, -0.06288619f, 0.01838703f, 0.11958542f, 0.29483709f, 0.27334017f, 0.06032791f,
    -0.04172577f, -0.08503886f, -0.02924906f, 0.00389703f, 0.09392175f, 0.13259591f, -0.02019448f, -0.16469014f,
    -0.08994913f, -0.02181855f, 0.19641830f, 0.09943607f, 0.01957462f, 0.00608877f, -0.08722810f, -0.15674594f,
    -0.22609924f, -0.11246148f, -0.03532350f, 0.06018607f, 0.08424746f, 0.06964897f, 0.03625406f, 0.03370334f,
    -0.03465800f, -0.03414398f, -0.19601880f, -0.21776818f, -0.02052309f, -0.01811804f, -0.04486319f, 0.04236394f,
    0.00912299f, 0.02638156f, 0.16392124f, 0.27126688f, 0.20521326f, 0.06853117f, -0.03335600f, -0.00920822f,
    -0.02527827f, 0.01661557f, -0.00932757f, 0.13448466f, 0.15862013f, 0.12032799f, 0.07031414f, -0.07379231f,
    0.05696912f, 0.03170499f, -0.01758985f, 0.07641947f, 0.17155893f, 0.23344456f, 0.01451443f, -0.03900408f,
    -0.10615986f, 0.12539731f, -0.07677019f, -0.14514221f, 0.09799991f, 0.23494719f, 0.18864858f, -0.04691218f,
    -0.03800876f, 0.01010196f, 0.15053466f, 0.09454258f, 0.00780690f, 0.02315223f, -0.17927852f, -0.24784547f,
    -0.27209651f, -0.22427411f, -0.03036877f, 0.06483111f, 0.03611210f, -0.02093452f, -0.03019668f, -0.16701721f,
    -0.12212897f, -0.07479975f, -0.07069585f, -0.05994350f, 0.06697521f, 0.06321405f, 0.04408565f, 0.26032025f,
    0.19412258f, 0.03494023f, -0.07696594f, -0.03744413f, -0.03368830f, -0.00799829f, 0.07581156f, 0.04389715f,
    0.27854919f, 0.27494365f, 0.09244890f, -0.02178023f, -0.03625616f, -0.01106674f, 0.03233955f, 0.05037532f,
    0.07286739f, 0.14894775f, 0.26145506f, 0.18253535f, 0.03449441f, -0.04823006f, -0.11567369f, 0.03822216f,
    -0.05292310f, 0.02784555f, -0.01603395f, 0.03632384f, 0.01375310f, 0.04235329f, 0.02093473f, 0.02406217f,
    0.04706881f, -0.02817926f, -0.01492422f, 0.03076046f, 0.11535416f, 0.19058970f, 0.14088258f, 0.04007122f,
    -0.05881087f, 0.05937528f, -0.02343255f, -0.00887292f, 0.09154460f, 0.17097372f, 0.14539330f, 0.02592635f,
    0.04652142f, 0.03780350f, 0.05340838f, 0.04442517f, 0.24681652f, 0.35920334f, 0.24282245f, 0.06351823f,
    -0.03901555f, -0.10583184f, -0.16631432f, -0.02688367f, 0.06774025f, 0.04802126f, 0.01080411f, 0.19721211f,
    0.26657042f, 0.24608734f, 0.04758167f, -0.07459295f, 0.10575962f, 0.15573660f, 0.14480728f, -0.16182955f,
    -0.22538523f, -0.13031216f, 0.07595831f, 0.25084987f, 0.23324588f, 0.07852523f, -0.10659260f, -0.29771361f,
    -0.24594027f, -0.17599709f, 0.02747810f, 0.18946350f, 0.22744833f, 0.16195640f, 0.05312049f, -0.02170760f,
    -0.09560772f, -0.17112692f, -0.14984840f, -0.14261366f, -0.17768678f, -0.03599968f, 0.02311047f, 0.03372879f,
    0.04142576f, 0.07110645f, 0.04783436f, 0.07485354f, 0.05170463f, 0.06436049f, 0.00989471f, 0.01544680f,
    -0.01760601f, 0.01788392f, -0.08573747f, -0.08949012f, -0.12277933f, -0.22189003f, -0.10323863f, -0.05187821f,
    0.00874599f, -0.02549371f, -0.08720876f, -0.05095294f, -0.10355131f, -0.34723085f, -0.31015703f, -0.18491648f,
    -0.00929416f, 0.11304730f, -0.05624124f, -0.03432382f, -0.02748631f, -0.07221416f, -0.24804120f, -0.14106758f,
    -0.16865598f, 0.00376692f, 0.09539073f, -0.15104996f, -0.02926249f, 0.15708444f, 0.18819377f, 0.07492831f,
    -0.07651275f, -0.17368832f, 0.00266608f, 0.11915749f, 0.10948831f, 0.03555275f, 0.13926418f, 0.03188822f,
    -0.09407867f, -0.10205422f, -0.14458416f, 0.01882370f, 0.01163605f, -0.02070969f, -0.01881508f, 0.01027539f,
    0.04791202f, 0.00276376f, -0.00433767f, -0.01197495f, 0.00318492f, 0.03610772f, -0.04291978f, -0.03958151f,
    0.05758658f, 0.13067824f, 0.31967351f, 0.36497071f, 0.22027022f, 0.03948780f, -0.07081103f, 0.00160058f,
    0.07122403f, -0.01268073f, 0.01648475f, -0.03215348f, -0.14956936f, -0.07518679f, -0.12533176f, -0.05425873f,
    -0.04919536f, 0.04686277f, -0.00218995f, 0.02930303f, 0.02555865f, 0.02993611f, -0.03240685f, 0.03375448f,
    0.00086662f, 0.00307764f, 0.07455200f, 0.03750710f, -0.00225232f, -0.11970845f, -0.21576378f, -0.15376160f,
    -0.14781697f, -0.02652024f, 0.03888276f, 0.01476314f, 0.10989302f, 0.32194340f, 0.29274192f, 0.02030797f,
    0.00828854f, -0.07298858f, -0.07716101f, -0.03389120f, 0.14632756f, 0.21030302f, -0.00234906f, -0.19913520f,
    -0.16846094f, 0.07119301f, 0.18051197f, 0.10336509f, -0.00100544f, -0.04245765f, -0.10982570f, -0.20099559f,
    -0.20877676f, -0.15096715f, -0.01084578f, 0.04528532f, 0.04956837f, 0.00175041f, -0.01542232f, 0.03814236f,
    0.03352150f, -0.07857782f, -0.14286055f, -0.16966142f, -0.09762567f, 0.02895613f, 0.02340629f, -0.00597161f,
    0.04970685f, 0.02135475f, 0.18205518f, 0.24141255f, 0.16216736f, 0.05071123f, -0.02693646f, -0.03284819f,
    -0.02824812f, 0.05407897f, 0.08512530f, 0.19712886f, 0.20575853f, 0.13324280f, 0.05318325f, 0.01465779f,
    0.07413695f, 0.02029341f, 0.03721255f, 0.09032624f, 0.21631445f, 0.22480172f, 0.07931122f, -0.08621454f,
    -0.02456622f, 0.14468317f, -0.08423775f, -0.18016584f, 0.05341014f, 0.23059909f, 0.19018210f, 0.08405530f,
    -0.09616809f, -0.06431207f, 0.15223685f, 0.14849478f, 0.09115504f, 0.03051955f, -0.12745202f, -0.29339966f,
    -0.30496624f, -0.22739542f, -0.07879751f, 0.10079107f, 0.06308063f, 0.05370726f, -0.04933905f, -0.16837627f,
    -0.23328431f, -0.10810242f, -0.07146230f, -0.05320453f, -0.03126663f, 0.04317138f, 0.09655528f, 0.29823610f,
    0.22616480f, 0.05139535f, -0.00559432f, -0.11462090f, -0.08842496f, 0.00704797f, -0.00787681f, 0.01454796f,
    0.28576270f, 0.26669192f, 0.13249058f, 0.04670791f, -0.10560021f, -0.04597445f, -0.02751736f, -0.00028810f,
    0.06047384f, 0.09154236f, 0.25266528f, 0.24853145f, 0.04810929f, -0.00733671f, -0.10545139f, 0.01904676f,
    0.00260364f, -0.03677827f, 0.01722432f, -0.03217573f, -0.02891326f, 0.01704245f, -0.00772395f, 0.05242737f,
    0.03685915f, 0.13287199f, 0.01721315f, -0.06128550f, -0.15507767f, -0.17871162f, -0.08739857f, 0.02824832f,
    0.04210576f, 0.08449976f, -0.02385289f, -0.03140229f, -0.10829797f, -0.21797277f, -0.10118214f, -0.06437474f,
    0.06771423f, 0.08094643f, -0.04072179f, 0.00582773f, -0.26932955f, -0.34792876f, -0.21118167f, 0.06114636f,
    0.12437908f, 0.19824745f, 0.16721867f, 0.06302721f, 0.04328463f, 0.07488315f, -0.04770405f, -0.22953069f,
    -0.29074976f, -0.16526650f, -0.03049159f, 0.11606851f, -0.00210211f, -0.14055732f, -0.06696932f, 0.19639099f,
