// Auto-généré par export_weights.py — NE PAS ÉDITER
// Modèle : TinyCpaTCN  (3× Conv1d k=9 + Linear)
#pragma once

namespace TcnWeights {

// Conv1d  1→16, k=9
static const float conv0_weight[144] = {
    0.26361540f, -0.25593036f, -0.02228104f, -0.16637696f, -0.00571348f, -0.19744818f, -0.23802263f, -0.05131061f,
    -0.42511150f, 0.06451750f, 0.00079061f, 0.03973885f, 0.41064996f, 0.46095020f, 0.38894075f, 0.30550918f,
    0.24934381f, 0.29655591f, -0.24322970f, -0.44159347f, -0.20395438f, -0.38065434f, 0.12597148f, 0.41212252f,
    0.00111228f, 0.34336030f, 0.22996098f, 0.04513110f, -0.03734099f, -0.23026375f, -0.27219272f, -0.37819859f,
    -0.10674145f, -0.21354870f, -0.38881576f, 0.24844231f, 0.19943877f, -0.24036695f, -0.32323945f, -0.40884787f,
    -0.19797282f, -0.10137554f, -0.04608556f, -0.35641804f, 0.25174347f, -0.29885030f, 0.19656786f, 0.15079950f,
    0.18943109f, 0.22246149f, 0.29295301f, 0.26535559f, 0.25229979f, 0.33294040f, 0.25046599f, 0.25756344f,
    -0.10923440f, 0.04065059f, 0.39982367f, 0.12838486f, 0.16133942f, 0.08330450f, 0.10222050f, 0.40950307f,
    0.34094340f, -0.02426353f, -0.37233159f, -0.09388962f, -0.42633191f, -0.38239330f, 0.08154058f, -0.26684496f,
    -0.22317633f, 0.12045410f, -0.13912135f, 0.44392121f, 0.47083476f, 0.45927292f, 0.01052850f, -0.02824067f,
    0.25243649f, -0.19561146f, 0.16807175f, -0.30036461f, -0.18344085f, -0.38898498f, 0.01177574f, -0.11835474f,
    -0.20516457f, 0.19040875f, -0.30151761f, -0.10812161f, 0.03466244f, 0.23577216f, -0.19417500f, 0.14770307f,
    0.18860592f, -0.10581292f, -0.17803733f, -0.15533838f, -0.06848741f, -0.23431534f, -0.47274995f, -0.45429400f,
    0.06731766f, 0.17881577f, -0.17856921f, 0.23257910f, -0.24524666f, -0.22210039f, -0.07738462f, -0.48071930f,
    -0.26765448f, 0.06468321f, -0.10698972f, 0.12064977f, -0.19104803f, 0.25601041f, 0.16310138f, 0.44847050f,
    0.31003511f, 0.11277076f, -0.37311271f, -0.33409789f, -0.34924096f, -0.26437587f, -0.06644417f, 0.08951388f,
    -0.19240516f, -0.37328741f, -0.30084214f, -0.13085468f, -0.26286653f, 0.34337145f, 0.15710123f, -0.31004468f,
    0.16854802f, 0.42716914f, 0.00961249f, 0.10404856f, -0.02591228f, -0.25277144f, -0.04784231f, -0.29049486f
};

static const float conv0_bias[16] = {
    0.24040267f, -0.09099929f, 0.09245237f, 0.13047777f, 0.27035823f, 0.24132913f, 0.23447321f, -0.05900257f,
    0.08793268f, -0.04220159f, -0.26034439f, 0.13250065f, 0.16776869f, -0.08099210f, 0.08583061f, 0.43793795f
};

// Conv1d 16→32, k=9
static const float conv2_weight[4608] = {
    0.11378337f, 0.12537366f, 0.05761974f, 0.09914038f, 0.14513572f, 0.09706364f, 0.00998723f, 0.15584114f,
    0.16559377f, 0.07554071f, -0.02888552f, 0.03873826f, -0.12165199f, -0.14011240f, -0.09218862f, -0.02120434f,
    0.02214601f, 0.04646030f, 0.04198478f, -0.01339195f, -0.02109096f, 0.01541138f, 0.02141806f, 0.13263126f,
    0.12008708f, 0.18990521f, 0.04909893f, 0.02258546f, 0.05204869f, 0.10728671f, -0.00329555f, 0.02104496f,
    0.12110798f, 0.12826210f, 0.06941555f, 0.11694581f, 0.07945722f, -0.01852033f, 0.03160773f, 0.06996433f,
    0.02993673f, 0.14793670f, 0.10356803f, 0.01852856f, 0.04626654f, -0.07412504f, 0.01819500f, -0.09981336f,
    -0.14196129f, -0.16537060f, -0.09629729f, 0.06602478f, 0.08309256f, 0.11826352f, 0.06528287f, -0.00149950f,
    -0.06633590f, -0.04636427f, -0.14492564f, -0.12646411f, -0.14094581f, 0.00729731f, -0.01847331f, -0.09723744f,
    -0.07168637f, 0.11483666f, 0.08960382f, 0.04103529f, 0.02927184f, 0.12023672f, -0.04913232f, -0.02402482f,
    -0.10821799f, -0.12478185f, -0.14773919f, -0.16356963f, -0.12515807f, -0.11219576f, -0.05171453f, 0.07582836f,
    0.02431169f, 0.02035455f, 0.07893196f, 0.08163444f, 0.13383457f, 0.19230774f, 0.12421136f, 0.07983741f,
    0.03921647f, 0.10495526f, 0.05586214f, 0.02188815f, -0.04939448f, -0.08057651f, 0.01017851f, 0.07866548f,
    -0.01126691f, -0.00603302f, 0.07343154f, 0.11492244f, 0.12493233f, 0.05421324f, 0.03749246f, 0.07535624f,
    0.10217562f, 0.16106947f, 0.14253817f, -0.00920829f, 0.11924975f, 0.13479465f, 0.01950287f, 0.01383453f,
    0.01072370f, 0.09714127f, 0.11679993f, 0.14400342f, 0.09038835f, 0.05038061f, 0.04259653f, 0.16122267f,
    0.09890449f, 0.12985714f, -0.02081158f, -0.08016013f, -0.04305890f, -0.01306563f, 0.09802523f, 0.06390935f,
    0.03426193f, 0.11279418f, 0.07079808f, 0.21764545f, 0.17574461f, 0.12172269f, -0.00937520f, 0.07381534f,
    0.01561685f, 0.03749312f, 0.11316550f, 0.09835862f, 0.05067276f, -0.05087244f, 0.06559141f, -0.00727062f,
    0.12763014f, 0.05269416f, 0.07888982f, 0.09998876f, 0.06803880f, 0.07387617f, 0.14218163f, 0.15537868f,
    0.20286481f, -0.23562723f, -0.15876071f, -0.08330254f, 0.04288904f, 0.03864315f, 0.02968705f, 0.02226040f,
    -0.08698349f, -0.00329449f, -0.09494559f, -0.00213890f, 0.11329056f, 0.05744113f, 0.15209879f, 0.14728151f,
    -0.01430973f, -0.10503394f, -0.03288484f, 0.07658952f, 0.14523368f, 0.06305213f, 0.02430686f, 0.11265298f,
    -0.00334074f, -0.00971287f, 0.07094461f, 0.10283314f, 0.05185815f, 0.00206881f, 0.11992659f, 0.05763208f,
    0.04936609f, 0.02444608f, 0.00616349f, -0.02181746f, -0.00497510f, -0.16256504f, -0.14081842f, -0.02280683f,
    -0.02426898f, 0.06787051f, 0.02445283f, -0.00825406f, 0.06693928f, -0.02058508f, -0.06310920f, -0.06614000f,
    -0.00795876f, -0.05856796f, -0.06845399f, -0.01123361f, 0.07215685f, 0.09565672f, -0.00727846f, 0.16150627f,
    0.11022476f, 0.12951802f, -0.00328814f, -0.07165691f, -0.13775788f, -0.13069440f, -0.09836994f, -0.02536437f,
    -0.18977290f, -0.13400555f, -0.08392670f, 0.06131306f, 0.10408534f, 0.11067832f, 0.11593837f, 0.01502368f,
    -0.03259825f, 0.08561324f, 0.15342467f, 0.34721452f, 0.16732101f, 0.08234573f, 0.01395376f, -0.00051490f,
    0.07070143f, 0.05585771f, -0.06028476f, -0.00583939f, -0.06686562f, -0.05182574f, 0.03721533f, 0.00737236f,
    -0.03989182f, 0.00289747f, -0.00887049f, -0.02876682f, 0.02294016f, 0.07240964f, 0.01970659f, 0.04690864f,
    -0.02022102f, -0.02175718f, 0.06668086f, 0.02800214f, 0.04278823f, 0.05313181f, 0.06797459f, 0.02205795f,
    0.06873904f, 0.07505647f, 0.04894275f, -0.02815313f, 0.09038204f, 0.13851959f, 0.00673172f, 0.01981618f,
    -0.10595724f, -0.12908942f, -0.23308751f, -0.12190419f, 0.20474330f, 0.38977289f, 0.02486876f, 0.14061128f,
    0.11047054f, 0.23569173f, 0.07682141f, -0.06595249f, 0.00752229f, 0.00066131f, -0.02866238f, 0.09876734f,
    -0.00225329f, -0.04048944f, -0.00066858f, 0.02421570f, -0.01223337f, 0.04567751f, 0.22742407f, 0.15274106f,
    0.08694129f, 0.00858911f, -0.08371519f, -0.03745184f, 0.01274498f, -0.02554479f, 0.00678901f, -0.00904521f,
    0.06751841f, -0.02032276f, 0.07926776f, 0.15513864f, 0.02802848f, 0.13759685f, 0.13863690f, -0.01014254f,
    0.05578459f, -0.01502050f, 0.12823667f, 0.13164118f, 0.05060169f, 0.01264789f, -0.04544732f, 0.01465263f,
    -0.13374415f, -0.19552182f, -0.18386783f, 0.00501593f, -0.02283526f, 0.04400758f, -0.12537923f, -0.05692098f,
    -0.07541733f, -0.01701288f, -0.06093641f, 0.04689972f, 0.07185237f, 0.06587198f, 0.06704573f, -0.03041512f,
    0.02852621f, -0.12547641f, -0.13622949f, -0.05955906f, -0.05305551f, 0.10889409f, 0.13121666f, 0.04882278f,
    0.13708179f, 0.15667947f, 0.09435577f, 0.13028048f, 0.00122581f, 0.01684193f, 0.09885194f, 0.10552756f,
    0.03133503f, 0.13605244f, 0.00139410f, 0.11463331f, 0.10663318f, 0.01572167f, 0.11143441f, 0.18555285f,
    0.11567935f, -0.00679096f, -0.18837382f, -0.12501000f, -0.04918067f, -0.06685729f, 0.02642383f, 0.02570669f,
    0.08223084f, 0.08755947f, 0.17776665f, 0.07420582f, 0.18649958f, 0.13337426f, 0.00821317f, 0.05223879f,
    0.01322829f, 0.10626709f, 0.07772980f, 0.07267405f, -0.06454059f, -0.15782815f, -0.22692440f, -0.28496325f,
    -0.08228264f, 0.04409871f, -0.05905978f, 0.05207269f, 0.07231474f, -0.02008905f, -0.08249213f, -0.04696154f,
    0.05179080f, -0.03722551f, -0.07639080f, 0.03497474f, -0.01075579f, -0.00216770f, -0.00936107f, 0.01148713f,
    -0.09010193f, -0.13695528f, -0.04758872f, -0.00181612f, -0.07618574f, 0.07158340f, 0.01159961f, 0.02872427f,
    0.10353242f, 0.06980388f, 0.00113054f, 0.01271966f, -0.04323874f, -0.02833386f, -0.21619794f, -0.16176105f,
    -0.20704333f, -0.05895109f, 0.00532459f, 0.09790400f, 0.12769987f, 0.04698427f, -0.00425075f, 0.01465339f,
    0.00814660f, -0.01448180f, -0.08234468f, -0.13224815f, -0.24855298f, -0.07910819f, 0.01212831f, -0.05787475f,
    0.04109318f, -0.05335897f, 0.11967193f, 0.15369135f, 0.05934038f, 0.20286898f, 0.19500788f, 0.14187482f,
    0.17999619f, 0.03456866f, 0.08686826f, -0.06823359f, -0.10146693f, -0.04083982f, 0.01870758f, 0.10582437f,
    0.03505999f, -0.00154760f, -0.05575344f, 0.07665292f, 0.08897726f, 0.07653824f, 0.09758812f, 0.14093450f,
    0.05553805f, -0.01659799f, 0.09421300f, 0.17091092f, 0.06538132f, 0.12693971f, 0.05727496f, 0.06838538f,
    -0.01592285f, -0.09947993f, -0.24818514f, -0.04028767f, -0.00002725f, -0.07454841f, -0.09114692f, -0.17905475f,
    -0.15584892f, -0.13716950f, -0.11987869f, 0.11510728f, 0.02054572f, 0.05678417f, 0.13816205f, 0.04429842f,
    -0.07295576f, -0.09357954f, -0.11078513f, -0.11069814f, 0.01740089f, -0.00614723f, 0.10473250f, 0.09759496f,
    0.19259167f, 0.16030262f, 0.14272624f, 0.05295558f, 0.03831898f, 0.04706577f, 0.03101263f, -0.01814209f,
    0.14204752f, 0.11794575f, 0.02639519f, 0.17643595f, 0.14833288f, 0.03535839f, 0.08237512f, 0.28845409f,
    0.16903694f, 0.01558282f, -0.21180210f, -0.25829268f, -0.13504845f, -0.03149455f, 0.06829423f, 0.20094961f,
    0.14725174f, 0.01174795f, 0.10988571f, 0.08947647f, 0.16790317f, 0.15882380f, 0.09581934f, 0.07338933f,
    0.07496188f, 0.13395496f, 0.08084428f, 0.12344340f, -0.03593607f, -0.12621313f, -0.16705482f, -0.44169250f,
    -0.15058474f, -0.13337666f, -0.01495699f, 0.00659282f, 0.07428579f, 0.00050867f, -0.05576887f, 0.07937443f,
    0.03630161f, 0.02923712f, 0.03059588f, 0.00717472f, 0.06012243f, 0.03340486f, -0.05752075f, -0.04105811f,
    -0.07366014f, -0.13687462f, -0.14729454f, -0.07208683f, 0.07718800f, -0.03017902f, 0.03739183f, 0.07842086f,
    0.00022818f, -0.06036784f, -0.07286836f, -0.14224197f, -0.09500924f, 0.16079454f, -0.16761056f, -0.13884826f,
    -0.12949350f, -0.12406057f, 0.03096003f, 0.19169532f, 0.09778021f, 0.15799066f, 0.01621253f, 0.06187635f,
    0.01213393f, -0.05380653f, -0.06495632f, -0.15627456f, -0.25938478f, -0.19238281f, -0.04840790f, -0.00642660f,
    0.12388401f, 0.05159149f, 0.07442378f, 0.03549749f, 0.04897652f, 0.14051425f, 0.12860073f, 0.14108787f,
    0.00345376f, -0.04814177f, -0.14381027f, 0.00768692f, 0.02512944f, 0.07104431f, 0.06254692f, 0.06228056f,
    0.01177441f, -0.04807173f, 0.01379778f, 0.04131620f, 0.18339938f, 0.10333905f, 0.02385028f, 0.02081904f,
    0.12880708f, 0.00483749f, 0.24571384f, 0.23884250f, 0.12609318f, -0.00219848f, -0.07516421f, -0.23518708f,
    -0.33583379f, -0.26683110f, -0.24803554f, -0.12220544f, -0.05947405f, -0.10515319f, -0.21345809f, -0.22317778f,
    -0.14174587f, -0.02238353f, 0.05651397f, 0.09786803f, 0.08032387f, 0.06608622f, -0.02840170f, -0.04820760f,
    -0.19732884f, -0.08438529f, -0.11730094f, -0.06172572f, 0.11027275f, 0.11864444f, 0.08031670f, 0.18535429f,
    0.15798986f, 0.04013383f, 0.10583268f, 0.10670456f, 0.02516269f, -0.03836480f, -0.02917623f, -0.02815789f,
    0.04116593f, 0.13660443f, 0.03405822f, 0.15006438f, 0.02570631f, 0.02056305f, 0.12771322f, 0.15816045f,
    -0.07427196f, -0.13060944f, -0.12944265f, 0.00950637f, 0.02638333f, 0.02765616f, 0.05397138f, 0.15643962f,
    0.10308802f, 0.16674340f, 0.17781676f, 0.15056321f, 0.07637496f, 0.13765015f, 0.03901501f, -0.00860397f,
    0.02570129f, 0.14621182f, 0.21114652f, 0.08421260f, -0.14759710f, -0.29545337f, -0.04321165f, 0.03747450f,
    0.08354460f, 0.17101900f, 0.04373271f, 0.01160937f, -0.03579113f, -0.04127853f, 0.00577693f, 0.02657305f,
    -0.01746093f, -0.04879064f, 0.01793743f, 0.14901471f, 0.03342253f, -0.12605187f, -0.08004612f, -0.13855793f,
    -0.23242794f, -0.24229796f, -0.04797764f, -0.04710468f, 0.05939435f, 0.00597612f, 0.07560806f, -0.03178134f,
    -0.07813195f, -0.08515048f, -0.14559804f, 0.01514883f, 0.06640184f, -0.05877911f, -0.03917867f, -0.12328888f,
    -0.06523340f, -0.05122938f, 0.07227078f, 0.08935193f, 0.02629491f, 0.05282425f, 0.02637686f, -0.02551909f,
    -0.16870344f, -0.27551764f, -0.47509792f, -0.41295469f, -0.13217318f, 0.09429985f, 0.19855478f, -0.08205562f,
    0.03928354f, 0.06314058f, 0.06119996f, 0.13873121f, 0.04192360f, 0.02601457f, 0.07291002f, 0.08367886f,
    0.01550506f, 0.07871187f, -0.09843740f, -0.06051661f, 0.01259588f, -0.01062845f, 0.01260767f, 0.12634602f,
    0.03490454f, -0.02662175f, 0.01263342f, 0.17398445f, 0.12906252f, 0.10071070f, 0.02350258f, 0.09282273f,
    0.08173926f, -0.01518354f, 0.22871825f, 0.20937794f, 0.10489658f, 0.10168036f, 0.05830262f, -0.17889710f,
    -0.20504104f, -0.19407861f, -0.19819583f, -0.07290168f, -0.03856868f, -0.17975278f, -0.18464261f, -0.12871841f,
    -0.06130298f, -0.00535328f, -0.00006325f, 0.08712442f, 0.13234974f, 0.11690392f, -0.00254779f, -0.05543640f,
    0.00910738f, -0.12040359f, -0.12617861f, -0.09910662f, 0.12236428f, 0.01487398f, 0.06913345f, 0.16241798f,
    0.14709502f, 0.08238916f, -0.01980133f, 0.10774508f, 0.06747700f, 0.03481340f, 0.07367298f, 0.12447319f,
    0.01980017f, 0.06225547f, 0.13590920f, 0.17150608f, 0.06378444f, 0.11071866f, 0.04974821f, 0.16914089f,
    -0.01321772f, -0.18070473f, -0.15262131f, -0.09253870f, 0.06245625f, 0.10196220f, 0.05605259f, 0.04980463f,
    0.11542344f, 0.09033668f, 0.15274811f, 0.23044387f, 0.11026962f, 0.03054558f, -0.03306153f, -0.05207920f,
    -0.02916301f, 0.10703062f, 0.10304833f, 0.05893331f, -0.06393485f, -0.24553981f, -0.18763308f, -0.04117788f,
    -0.02602835f, 0.07403091f, 0.01569713f, -0.04959854f, 0.03209384f, 0.03094850f, 0.04419246f, 0.02962479f,
    0.06948137f, 0.02854031f, 0.03246148f, 0.06858685f, -0.01753857f, -0.02695678f, 0.00965970f, -0.12112305f,
    -0.26804918f, -0.23510420f, -0.17307477f, 0.06650783f, -0.01532628f, 0.06053121f, 0.15456873f, 0.08689095f,
    -0.03716974f, 0.02188122f, 0.01217863f, 0.02862900f, 0.07561070f, -0.16989744f, -0.09316900f, -0.08793055f,
    -0.06661035f, -0.04549837f, 0.11979210f, 0.05271734f, 0.17678902f, 0.06539905f, 0.14007653f, 0.03350053f,
    -0.07868206f, -0.14720897f, -0.16550322f, -0.29971552f, -0.11056411f, -0.05007451f, 0.05434489f, 0.01183055f,
    0.10738306f, 0.02547297f, 0.10382086f, 0.16558573f, 0.22689126f, 0.06736456f, 0.04069688f, 0.13912214f,
    -0.10460194f, -0.00623852f, -0.07761800f, -0.02351259f, 0.05479433f, 0.05795887f, 0.09339552f, 0.01481310f,
    0.03645574f, 0.03922683f, 0.12790442f, 0.05814243f, 0.10610374f, 0.06945636f, 0.13575426f, 0.17188281f,
    0.04549478f, 0.13113241f, 0.12570792f, 0.07201267f, 0.09242326f, -0.00738379f, -0.20697267f, -0.33808723f,
    -0.40200621f, -0.27248177f, -0.17996840f, -0.13517962f, -0.14485313f, -0.25538498f, -0.15886354f, -0.12670334f,
    0.06288143f, 0.07441150f, 0.06324773f, 0.14211592f, 0.11837500f, -0.04116066f, -0.10185014f, -0.17310685f,
    -0.06007233f, -0.02846267f, -0.00748828f, -0.00583602f, 0.05656473f, 0.12468211f, 0.14894181f, 0.07404698f,
    0.09437074f, 0.07403471f, 0.10811990f, 0.08981140f, -0.00206565f, -0.02427060f, 0.09363578f, -0.00188788f,
    0.11615787f, 0.08273663f, 0.13923156f, 0.10381535f, 0.04546021f, 0.04121722f, 0.06779642f, -0.08012436f,
    -0.08296382f, -0.18843484f, 0.00944787f, -0.01271127f, 0.17750180f, 0.16232055f, 0.19452740f, 0.00830679f,
    0.07405833f, 0.12959634f, 0.10352501f, 0.11895603f, 0.01047873f, 0.08984055f, 0.01832957f, -0.08447830f,
    -0.03786416f, 0.12006254f, 0.07312107f, -0.18113965f, -0.23199625f, -0.12956963f, -0.00290143f, 0.01222944f,
    0.01415920f, 0.18308510f, -0.02235178f, -0.02443791f, -0.01932347f, 0.05216482f, 0.05614870f, 0.05750773f,
    0.02526264f, 0.01343811f, 0.01149006f, 0.10407431f, -0.09269857f, -0.14234158f, -0.20556980f, -0.29251325f,
    -0.25633380f, -0.01411968f, 0.09106743f, 0.10706204f, 0.13490896f, -0.01098341f, -0.00157706f, 0.00587629f,
    -0.05124336f, -0.10650857f, 0.00960578f, 0.02609247f, 0.04377228f, -0.08238285f, -0.12822932f, -0.03207170f,
    0.02218958f, 0.05240671f, 0.07000726f, 0.17623264f, -0.00713414f, -0.10047580f, -0.01857550f, -0.07838114f,
    -0.25190794f, -0.48958054f, -0.36702374f, -0.05795935f, 0.03723218f, 0.04389238f, 0.23269910f, -0.01966141f,
    0.02697708f, 0.13000762f, 0.12719007f, 0.18547848f, 0.05987704f, 0.01369908f, 0.02207830f, 0.08753484f,
    0.00102459f, 0.04963541f, 0.03030836f, 0.02942312f, -0.04314112f, -0.00047691f, 0.08389082f, 0.06820365f,
    0.06692749f, 0.02496506f, 0.13929394f, 0.13972580f, 0.17339306f, 0.05828702f, 0.04545164f, 0.08715586f,
    0.08726721f, 0.04146694f, 0.08627875f, 0.06200787f, 0.11114728f, 0.08044163f, -0.10372727f, -0.17393452f,
    -0.18703358f, -0.21437415f, -0.26658264f, 0.01498857f, 0.05549451f, -0.06778919f, -0.06257918f, -0.15394858f,
    -0.10957146f, 0.03541388f, 0.08329690f, 0.09520201f, 0.08856205f, 0.15657581f, -0.01418196f, -0.00676196f,
    -0.10080315f, -0.08327684f, -0.07969063f, 0.00265471f, 0.08858655f, -0.00087907f, 0.02256707f, 0.12985888f,
    0.14505474f, 0.08112417f, 0.09079527f, 0.10410488f, 0.00578951f, 0.07324393f, 0.03879917f, 0.12277409f,
    -0.00124845f, 0.02428073f, 0.11149268f, 0.07227789f, 0.09334990f, 0.14024407f, 0.03293202f, 0.07081315f,
    -0.09121611f, -0.26356745f, -0.10847436f, -0.00928963f, -0.08884736f, 0.12283088f, 0.13850951f, 0.06726614f,
    0.09994176f, 0.11268829f, 0.15450217f, 0.12865317f, 0.08765055f, 0.04261604f, -0.00836840f, -0.04614034f,
    0.00569115f, 0.08948740f, 0.04986395f, 0.03861431f, -0.14160800f, -0.18618508f, -0.16444641f, -0.12699622f,
    -0.00887871f, 0.01067100f, -0.00681611f, -0.07939526f, 0.03904543f, 0.03825082f, -0.08306759f, -0.04264103f,
    -0.00479736f, 0.06547552f, -0.02152303f, 0.11693324f, 0.00842841f, -0.07855036f, -0.09268741f, -0.06576202f,
    -0.16986975f, -0.20209903f, -0.01801111f, -0.01142121f, 0.07380006f, 0.03072122f, -0.01442269f, -0.01788665f,
    -0.01511294f, -0.10831228f, -0.07349715f, 0.02913200f, 0.03315644f, -0.18587866f, -0.22317414f, -0.09923208f,
    -0.05596837f, -0.06771519f, 0.06878330f, 0.15087660f, -0.02900433f, -0.02603659f, 0.13564593f, 0.05443147f,
    0.06311507f, -0.12457174f, -0.11544744f, -0.18725292f, -0.09642527f, 0.07500707f, 0.02623810f, -0.05843687f,
    0.09456670f, 0.10000186f, 0.02933533f, 0.07036012f, 0.15282471f, 0.18782240f, 0.08367234f, 0.09144419f,
    -0.04383445f, -0.07509504f, -0.00578912f, -0.09438362f, -0.00394299f, -0.09918431f, 0.00680182f, -0.08312900f,
    -0.03696354f, -0.00698076f, -0.08053112f, 0.01098577f, 0.06491827f, 0.02552988f, -0.07662006f, -0.03958564f,
    0.02577210f, 0.00781145f, 0.02602408f, 0.04069458f, 0.02962556f, 0.06693327f, 0.01508587f, -0.08526492f,
    -0.06242771f, -0.08839446f, -0.07634961f, -0.00369426f, -0.02794413f, 0.06057096f, -0.02848363f, 0.06550641f,
    -0.01249755f, -0.01160895f, -0.05576425f, -0.07303004f, 0.00929023f, -0.08068427f, 0.02803593f, -0.05371965f,
    -0.05096627f, -0.04361648f, -0.06176834f, 0.03645635f, -0.00272653f, 0.05917281f, -0.04065597f, -0.00253747f,
    -0.06503288f, -0.08762848f, 0.00977367f, -0.09430422f, -0.03978240f, -0.03478692f, -0.08713545f, -0.06422708f,
    0.06039934f, -0.02236221f, 0.03821635f, 0.05795142f, -0.05540543f, 0.00957225f, 0.05414206f, 0.01876521f,
    0.06191294f, 0.07484039f, -0.04055372f, -0.03423756f, -0.00981537f, 0.00291944f, 0.05531189f, 0.04451324f,
    -0.06203669f, 0.06703524f, -0.08741345f, -0.04962385f, 0.02546161f, 0.00166018f, 0.00903951f, 0.02588656f,
    -0.00377586f, -0.00424381f, 0.04525791f, 0.03305878f, 0.05336932f, -0.02921208f, 0.00938432f, 0.09564908f,
    -0.06333640f, -0.06289356f, 0.01760038f, 0.06685004f, 0.05141047f, 0.03703840f, -0.08156376f, 0.00192498f,
    -0.02595614f, 0.01164418f, 0.01849612f, 0.05040625f, 0.04375172f, -0.05489578f, 0.04694680f, -0.01358410f,
    0.00624434f, -0.07800846f, 0.00298963f, -0.06278175f, -0.02513803f, 0.01437290f, -0.02896376f, -0.05776763f,
    -0.09679456f, 0.02672768f, 0.04940955f, 0.07196841f, -0.03099336f, 0.01832160f, -0.02328360f, 0.00510321f,
    -0.06715728f, -0.06734207f, -0.06811351f, 0.03037813f, 0.05829341f, 0.07485911f, -0.08716719f, -0.06476585f,
    0.04828965f, -0.01564115f, 0.06412166f, 0.02829473f, -0.04752474f, 0.02329391f, -0.01787885f, -0.09226075f,
    0.06124032f, 0.04424850f, -0.00853458f, -0.04086106f, 0.00094327f, -0.06890612f, -0.05212708f, -0.05949594f,
    0.09240656f, 0.11247510f, 0.02609846f, 0.02908857f, 0.03087759f, 0.14891241f, 0.15545680f, 0.12961671f,
    0.02687209f, 0.02894990f, 0.01315896f, 0.01528891f, -0.12029171f, -0.24413119f, -0.16391917f, -0.12667252f,
    -0.08001827f, -0.05736656f, 0.19275482f, 0.09591852f, 0.05637499f, -0.01624286f, 0.07819115f, 0.10080907f,
    0.11232974f, 0.12696122f, 0.04063565f, 0.10369740f, 0.10711551f, -0.00213229f, 0.11673810f, 0.04227659f,
    0.09838663f, 0.04168486f, 0.01049054f, -0.01407479f, 0.09814561f, 0.05945766f, -0.01567507f, -0.01494424f,
    0.07124022f, 0.09522951f, 0.15602145f, 0.14056396f, 0.13320352f, -0.07531726f, -0.13726711f, -0.06936197f,
    -0.17723592f, -0.16070090f, -0.05806039f, -0.07494178f, -0.02504271f, 0.05539809f, 0.12345163f, -0.02584652f,
    0.01004362f, -0.06797659f, -0.11221164f, -0.16088259f, -0.03950433f, -0.12834160f, 0.03462361f, -0.01781728f,
    -0.03796989f, 0.10863052f, 0.04073171f, 0.05231093f, 0.08544524f, 0.11457775f, 0.04539526f, 0.02341040f,
    -0.06191169f, -0.16032197f, -0.15346111f, -0.22824229f, -0.18336158f, -0.17702883f, -0.10991830f, -0.02384722f,
    0.11278197f, -0.01134605f, 0.00015049f, -0.05572063f, 0.11833671f, 0.11421239f, 0.16228260f, 0.10130581f,
    0.13188207f, 0.08892481f, 0.08515219f, -0.03646740f, -0.03106104f, -0.04938048f, 0.01475398f, -0.04510666f,
    -0.02451195f, 0.03501588f, -0.05181926f, 0.17862935f, 0.02044779f, 0.07609595f, 0.07719303f, 0.04379819f,
    0.15787743f, 0.10688607f, 0.04747103f, 0.12186845f, 0.15979561f, 0.02179767f, 0.04186667f, 0.06796870f,
    0.10226519f, 0.10576383f, 0.01576987f, 0.04959328f, 0.04749829f, 0.08038025f, 0.11422186f, 0.16971326f,
    0.13186944f, 0.05296327f, 0.00007278f, -0.00812300f, -0.09199884f, -0.11974464f, 0.07573977f, -0.04040308f,
    0.03424559f, 0.04809768f, 0.17705083f, 0.11356326f, 0.08290384f, 0.03244354f, -0.01196416f, 0.01574512f,
    0.14857967f, 0.10758255f, 0.05676274f, 0.06988194f, 0.04056416f, 0.03093143f, 0.08386064f, 0.00102869f,
    -0.00190011f, -0.04951127f, -0.07761583f, 0.07233396f, 0.03920740f, 0.07718579f, 0.07048921f, 0.00238074f,
    -0.03890031f, 0.06248287f, 0.16072205f, 0.06403679f, 0.13835382f, 0.02761531f, -0.02225800f, 0.05253915f,
    0.13910714f, 0.12085959f, 0.11181813f, 0.09542030f, -0.00971310f, -0.11871187f, -0.09906777f, -0.10218554f,
    -0.01963135f, 0.05196912f, 0.07744230f, -0.04293028f, -0.17137639f, -0.19041821f, 0.01874759f, 0.06237495f,
    0.10236824f, 0.13270824f, 0.02205447f, -0.02296163f, -0.01498946f, -0.02372078f, -0.19373533f, -0.04042327f,
    -0.03508245f, -0.01801654f, 0.09410492f, 0.10428188f, 0.03306584f, 0.16072077f, 0.03461781f, 0.16263978f,
    0.12396440f, -0.01349905f, -0.05219523f, 0.07066365f, 0.01579176f, -0.00307196f, 0.06392311f, 0.12894650f,
    0.01878898f, 0.16235948f, 0.10365241f, 0.16433755f, -0.01000621f, 0.08146093f, 0.01947874f, -0.25390115f,
    -0.23733318f, -0.11173901f, 0.09208518f, 0.05039285f, 0.19159704f, 0.10630485f, 0.07368981f, -0.14400136f,
    0.07963336f, 0.09803487f, 0.08495952f, 0.07490871f, 0.07368373f, -0.06170453f, -0.13664280f, 0.02551983f,
    -0.06311633f, 0.02460353f, -0.24864461f, -0.37591738f, -0.17733106f, -0.07657567f, -0.10187554f, -0.03773196f,
    0.06785528f, 0.05307528f, 0.03823323f, -0.02674879f, -0.04052506f, 0.02188134f, -0.06279555f, 0.01631849f,
    -0.01631484f, 0.05241889f, 0.08310047f, 0.01584291f, -0.06233833f, -0.06991615f, -0.10834420f, -0.17440508f,
    -0.05370834f, 0.05162487f, 0.05031396f, 0.16976434f, 0.14851919f, 0.06357619f, 0.01989365f, -0.12106376f,
    -0.05966973f, -0.09431137f, 0.05265468f, -0.00773124f, 0.11397420f, -0.13467979f, 0.03007192f, 0.04076589f,
    0.09933457f, 0.22741412f, 0.12246876f, -0.07548366f, -0.17263606f, -0.22347100f, -0.09919515f, -0.24076375f,
    -0.36345318f, -0.25400272f, -0.00779997f, 0.10654258f, 0.12914278f, 0.09098221f, 0.11725628f, 0.02496488f,
    0.16459402f, 0.06283490f, 0.19249256f, 0.17407586f, 0.16238856f, 0.05215594f, -0.05535558f, -0.06993672f,
    0.01613600f, -0.08152012f, 0.05563766f, -0.07186617f, -0.01025389f, -0.02485643f, -0.00484372f, 0.01697727f,
    -0.07954638f, 0.05738756f, -0.07751112f, -0.06216426f, 0.07331716f, -0.05709928f, 0.01529447f, -0.06789868f,
    -0.02187069f, 0.01532518f, -0.00616262f, -0.05181304f, -0.06602467f, -0.04440400f, -0.00052834f, 0.06869863f,
    0.07361447f, -0.07226001f, -0.07584045f, -0.01707547f, -0.04011013f, -0.06270197f, 0.00433773f, -0.08619441f,
    0.05801219f, 0.00882809f, 0.00337428f, -0.06401917f, 0.01515662f, 0.06407430f, -0.00926927f, -0.04294644f,
    0.01875729f, 0.04836604f, 0.02664805f, -0.07460616f, -0.07342581f, 0.03284721f, -0.03169344f, -0.07283834f,
    0.05147801f, 0.03910301f, 0.05716100f, -0.06354105f, -0.04281851f, 0.02689569f, 0.02896511f, 0.01388072f,
    -0.07917585f, 0.07051086f, 0.02074278f, -0.04976710f, -0.05084329f, 0.04603627f, -0.04318387f, 0.01311910f,
    0.05854721f, -0.05059944f, 0.04462890f, -0.02955398f, -0.08251429f, -0.02604899f, -0.02130530f, -0.08521049f,
    -0.07555459f, 0.04775897f, 0.00602027f, 0.06718860f, -0.05255008f, -0.05486776f, -0.01482102f, 0.07374208f,
    0.01608834f, -0.02485828f, -0.06334321f, 0.06886071f, -0.02366145f, -0.04586161f, -0.03854487f, -0.00362195f,
    0.01242301f, -0.07626434f, -0.04162449f, 0.04911445f, 0.01979342f, -0.06691411f, 0.01016968f, 0.00454781f,
    0.03237036f, 0.03549235f, 0.04960464f, 0.03178888f, 0.03241993f, -0.08134644f, -0.07427115f, 0.00955568f,
    -0.08280475f, 0.06080744f, 0.03545759f, -0.01871369f, 0.01247916f, -0.09051440f, 0.03763191f, 0.05945553f,
    -0.08579598f, 0.03062335f, -0.08073061f, 0.06477909f, -0.03293791f, -0.06780100f, 0.00464074f, 0.03787006f,
    -0.04252104f, 0.07102992f, 0.06947365f, 0.06435127f, 0.00313831f, 0.00856752f, 0.01631665f, -0.00570063f,
    -0.07802495f, 0.00715670f, -0.08341640f, 0.05210771f, 0.02833240f, 0.01221777f, -0.06083919f, 0.03634408f,
    -0.08367452f, 0.07094221f, -0.05754476f, -0.05201482f, -0.02092159f, -0.01307929f, -0.01746231f, -0.06700241f,
    0.06907197f, 0.07945933f, 0.03779797f, 0.16568515f, 0.06491318f, 0.11889294f, 0.02676213f, 0.14510657f,
    0.09054060f, -0.09832728f, -0.05310421f, -0.14780147f, -0.10287495f, -0.03050413f, 0.00806793f, -0.04709398f,
    0.07694656f, 0.04173209f, -0.05535145f, -0.08365364f, -0.09162493f, 0.03785371f, 0.04193830f, 0.11065661f,
    0.15094042f, 0.12348127f, 0.08859242f, -0.01577515f, -0.00296257f, 0.09118512f, 0.14116815f, 0.15758558f,
    0.10626455f, 0.06099862f, 0.06810716f, 0.02314047f, -0.07725200f, 0.00720391f, 0.11727068f, 0.14603598f,
    0.12994659f, 0.11125387f, 0.16432326f, 0.13659851f, 0.05921901f, -0.12158723f, -0.09356093f, -0.14969257f,
    -0.06792477f, -0.04139776f, 0.05427241f, 0.11919022f, 0.09507247f, 0.12923397f, -0.05050454f, -0.05590094f,
    -0.07242844f, -0.07527614f, -0.02103609f, -0.12247138f, 0.02794675f, 0.01066345f, -0.04621617f, 0.02412565f,
    0.12596308f, 0.13532545f, 0.18280745f, 0.04746667f, 0.13834442f, 0.00145736f, -0.05629941f, -0.11012802f,
    -0.09240963f, -0.13918231f, -0.10203328f, -0.18823697f, -0.11166035f, 0.07910027f, 0.02036878f, 0.05430534f,
    0.18047437f, 0.01158733f, 0.07438246f, 0.12794790f, 0.22042315f, 0.20482761f, 0.13884760f, 0.13581859f,
    0.14475606f, 0.15545426f, -0.00106567f, 0.01853188f, 0.03493372f, 0.03577475f, -0.07599359f, 0.01755099f,
    -0.04155711f, -0.06819594f, 0.06939407f, 0.06855792f, -0.00749870f, 0.05807630f, 0.03650081f, 0.14132969f,
    0.08050147f, 0.17308119f, 0.02932237f, 0.09475191f, 0.04331347f, -0.02965013f, -0.04609096f, 0.04564484f,
    0.04198968f, 0.02538362f, 0.03433322f, 0.10415871f, 0.14953867f, 0.18549201f, 0.20651263f, 0.15066071f,
    0.12150075f, -0.00074856f, -0.06625857f, -0.19137584f, -0.11587682f, -0.04335625f, 0.08689285f, 0.00552037f,
    0.04859890f, 0.04264156f, 0.19138730f, 0.08355784f, 0.13187012f, 0.07971083f, 0.07817725f, 0.10116301f,
    0.15098901f, 0.00232060f, 0.11161027f, 0.00796491f, -0.06706331f, -0.07608839f, 0.10540640f, 0.08877263f,
    0.00436490f, -0.07735988f, -0.11467946f, 0.03406937f, 0.00382248f, -0.04145639f, 0.02875875f, 0.04941873f,
    0.03673954f, 0.03983873f, 0.05580669f, 0.11856199f, 0.14194115f, 0.01515040f, 0.13254258f, 0.12437630f,
    0.08817316f, 0.08580670f, 0.17193331f, 0.07220985f, 0.03700788f, -0.03211787f, -0.15607578f, -0.19597650f,
    -0.24975459f, -0.24102859f, -0.09250268f, -0.00814757f, -0.11023024f, -0.02594226f, -0.14943333f, -0.06260031f,
    0.03424428f, 0.06246050f, 0.17883587f, 0.10050733f, 0.12683852f, -0.02613329f, -0.00354166f, -0.10293553f,
    -0.05291368f, -0.09974129f, -0.10029198f, 0.09834989f, 0.10458189f, 0.04227293f, 0.17127040f, 0.16214722f,
    0.01634083f, -0.00804138f, 0.12625980f, 0.11099893f, 0.03440754f, -0.01426324f, 0.11325970f, -0.00144051f,
    0.06795833f, 0.14496796f, 0.11842156f, 0.04471127f, 0.00778979f, 0.02715130f, 0.09122271f, -0.08644584f,
    -0.18025433f, -0.06756421f, -0.03284135f, -0.04640684f, 0.11070810f, 0.19877744f, 0.17351222f, 0.06279869f,
    0.15522601f, 0.08817252f, 0.20762704f, 0.19519760f, 0.01246200f, 0.08619122f, 0.00523998f, -0.06402277f,
    -0.11507226f, 0.12486599f, 0.10639193f, -0.01964245f, -0.22366007f, -0.20146394f, -0.09059550f, 0.02332862f,
    0.00953477f, 0.09345651f, 0.03104818f, 0.05010702f, 0.03834004f, 0.03839463f, 0.05585149f, -0.07803822f,
    0.05698435f, -0.06123201f, -0.06903681f, 0.05073309f, -0.05074243f, -0.08690687f, -0.10946899f, -0.10341929f,
    -0.18356197f, -0.09734461f, -0.05254278f, 0.03314110f, 0.08053550f, 0.10338399f, -0.04473352f, 0.08229268f,
    0.01148688f, -0.04339025f, -0.00578825f, -0.04610507f, 0.12029672f, -0.18099518f, -0.16671368f, -0.04698543f,
    -0.02391996f, 0.14643611f, 0.14085582f, 0.11499427f, -0.03433063f, -0.11459529f, -0.02746782f, 0.00848268f,
    -0.17814869f, -0.24210969f, -0.27612391f, -0.13689755f, -0.03468269f, 0.12040779f, 0.18068263f, 0.06486170f,
    0.00036145f, 0.03552339f, 0.06009469f, 0.05884185f, 0.05441791f, 0.14566179f, 0.03776864f, 0.07089680f,
    0.11888778f, 0.01456521f, 0.15622336f, 0.04169272f, 0.01963633f, 0.05318962f, 0.15232877f, 0.07833374f,
    0.08316870f, 0.10404705f, -0.02679307f, -0.10399053f, -0.44199994f, -0.68983495f, -0.37352726f, -0.20138694f,
    -0.11163570f, -0.17853494f, 0.10931367f, 0.10136558f, 0.13141483f, 0.06417140f, 0.03053335f, -0.06155330f,
    -0.01505393f, 0.15022674f, 0.11789039f, 0.01591043f, 0.10572414f, 0.06019371f, 0.00691092f, 0.14111321f,
    0.08751408f, 0.19902016f, 0.06782969f, -0.02439572f, -0.00294641f, 0.05166722f, 0.09734954f, -0.03282741f,
    0.16624001f, 0.18517758f, 0.07387836f, 0.07632193f, 0.03183855f, -0.05911000f, -0.02670638f, -0.09267167f,
    -0.24191615f, -0.18812934f, -0.11758557f, -0.05766945f, 0.02317985f, 0.03450929f, 0.01559930f, 0.02626482f,
    0.02200582f, 0.02064767f, -0.08465695f, -0.08336059f, -0.14572854f, -0.01723483f, -0.03614644f, -0.16759577f,
    -0.07170296f, 0.02914736f, 0.03595590f, 0.13693820f, 0.11337560f, 0.04430665f, -0.06679773f, -0.07212950f,
    -0.09450211f, -0.11107308f, -0.20983416f, -0.29812044f, -0.21627982f, -0.09158434f, -0.06926990f, -0.10415614f,
    0.03818890f, 0.07523093f, -0.00343750f, -0.09000719f, -0.00638545f, 0.00655351f, 0.08986802f, 0.06391343f,
    0.16821702f, 0.10234572f, 0.07672768f, -0.06361431f, 0.06220230f, -0.04876044f, -0.01106835f, -0.02155672f,
    0.03294574f, 0.04503426f, 0.07872538f, 0.22746240f, 0.14846331f, 0.08920673f, 0.04635747f, 0.02912385f,
    0.08854540f, 0.10084697f, 0.15255390f, 0.13080037f, 0.21139205f, 0.19207752f, 0.13706745f, 0.13931055f,
    0.06138120f, 0.04589983f, 0.05285859f, 0.19012921f, 0.03522186f, 0.05606934f, -0.01977220f, -0.00177978f,
    0.12309039f, -0.06218806f, -0.11529608f, -0.16111967f, -0.17381929f, -0.23937662f, 0.02312344f, 0.03087142f,
    -0.04299444f, -0.03680600f, 0.04724893f, 0.12472869f, 0.23616083f, 0.05868760f, 0.14995342f, 0.09391833f,
    0.03953936f, -0.00636994f, 0.02578825f, 0.05623077f, 0.06003651f, 0.10129435f, -0.05448652f, -0.07690568f,
    0.15245838f, 0.05857548f, 0.03180533f, 0.10013822f, 0.10157518f, 0.07392068f, 0.08077955f, 0.04026713f,
    0.04421819f, -0.11264905f, -0.11582993f, -0.12483548f, -0.15645774f, -0.00211533f, 0.02884557f, -0.02451487f,
    0.10885620f, 0.07072879f, -0.06403297f, -0.03026549f, 0.01050839f, 0.01252688f, 0.05377059f, 0.20829929f,
    0.09722870f, 0.13870117f, 0.12829015f, 0.07411129f, 0.08640069f, 0.04774256f, 0.07030839f, 0.13674696f,
    0.05660275f, 0.07094785f, -0.02866104f, -0.01110722f, 0.00609721f, 0.00303959f, 0.07310063f, 0.15829636f,
    0.11560359f, 0.12351108f, 0.16558507f, 0.08188657f, 0.11070569f, -0.16749501f, -0.19790557f, -0.18101847f,
    -0.16163944f, 0.01804701f, 0.07808054f, 0.08852243f, 0.11237783f, 0.06750870f, -0.02398164f, 0.01263984f,
    -0.07401358f, -0.14102608f, -0.19634098f, -0.11547104f, -0.04580145f, -0.03925895f, 0.06152141f, 0.09256118f,
    0.16423045f, 0.17154020f, 0.11635708f, 0.09067493f, 0.08485635f, -0.06003457f, -0.01132425f, -0.14598133f,
    -0.13516580f, -0.12854184f, -0.09765824f, -0.07042318f, -0.11105528f, 0.04406335f, 0.03322570f, 0.21284072f,
    0.12034935f, -0.00967359f, -0.06106485f, 0.00844090f, 0.21819665f, 0.19863786f, 0.10748526f, 0.04168336f,
    0.10595387f, 0.01213917f, 0.05469044f, -0.07303727f, 0.01207570f, -0.02253268f, 0.07737898f, 0.02972993f,
    -0.03713190f, -0.04226413f, -0.02226733f, 0.04865365f, 0.11174606f, -0.03542414f, 0.05010817f, 0.13467576f,
    0.07295756f, 0.02937686f, 0.00294996f, 0.03782606f, 0.06381670f, 0.02221984f, 0.01284382f, 0.02525230f,
    0.09203450f, 0.06298224f, 0.08420072f, 0.04663864f, 0.00353869f, 0.12249665f, 0.07613258f, 0.01570734f,
    -0.02718738f, -0.09079317f, -0.16653353f, -0.25434786f, -0.16459644f, -0.16719878f, 0.01178956f, 0.03351454f,
    0.14035664f, 0.07012720f, 0.21060780f, 0.08961131f, -0.00442094f, 0.01165450f, -0.04866397f, 0.07697833f,
    -0.00452062f, 0.11244405f, 0.10621921f, 0.05137723f, -0.02777385f, -0.06962681f, 0.01486891f, 0.11110465f,
    0.02524943f, -0.12265719f, 0.01149881f, 0.03683610f, -0.04190451f, -0.00123441f, -0.02636821f, 0.04207180f,
    0.04340570f, -0.00302981f, 0.14990808f, 0.17727259f, 0.09176844f, 0.05845166f, 0.11148083f, -0.02663730f,
    0.01694110f, 0.05533635f, 0.15632191f, 0.16161667f, 0.07636579f, -0.01868650f, -0.06067274f, -0.23829104f,
    -0.20331703f, -0.25739354f, -0.11595122f, -0.03602699f, -0.04381419f, -0.06811373f, -0.09326182f, -0.05688142f,
    0.02131496f, 0.08135310f, 0.14683776f, 0.07923083f, 0.10971049f, 0.08031949f, 0.00261798f, -0.11263989f,
    -0.12284923f, -0.10415355f, -0.05791822f, 0.10030645f, 0.12195052f, 0.12835892f, 0.16212600f, 0.13441075f,
    0.03574673f, 0.06799934f, 0.08574805f, 0.02207112f, 0.02712822f, 0.06677395f, 0.12625231f, 0.05612214f,
    0.01748930f, 0.00940803f, 0.10299204f, 0.07664337f, -0.02784238f, 0.08087344f, 0.11242241f, 0.00155230f,
    -0.21305537f, -0.18374480f, -0.14794829f, 0.00614528f, 0.01730231f, 0.06981699f, -0.00477799f, -0.03782469f,
    0.02873712f, 0.18030007f, 0.17930020f, 0.12113246f, 0.11835638f, -0.06216814f, 0.01097979f, -0.00624695f,
    0.01460101f, 0.03759663f, -0.02763645f, -0.15931664f, -0.30321297f, -0.36877379f, -0.18655168f, -0.12006679f,
    0.05774511f, -0.00728229f, -0.00196949f, 0.05952748f, -0.06124008f, 0.03009383f, -0.04899239f, -0.07835766f,
    -0.05673829f, 0.03454510f, 0.00938002f, 0.12396210f, 0.00031413f, -0.02674695f, -0.08871359f, -0.12515393f,
    -0.17633891f, -0.03457115f, 0.06483616f, 0.02117137f, -0.00592147f, 0.07914925f, -0.00850539f, 0.09153646f,
    -0.03033701f, -0.07286660f, -0.05361740f, 0.01943175f, 0.00790758f, -0.16544484f, -0.07117694f, -0.01977721f,
    0.00774452f, 0.10074470f, 0.12422770f, 0.11016835f, -0.12601991f, -0.24062112f, 0.04771958f, -0.03430146f,
    -0.10104128f, -0.13540083f, -0.19815016f, -0.12541832f, -0.03804911f, 0.01672589f, 0.22045280f, 0.07930211f,
    0.03451384f, 0.06405728f, 0.10189655f, 0.12220670f, 0.17328037f, 0.06015671f, -0.00129653f, 0.08719303f,
    0.01098105f, 0.15306713f, 0.03597025f, 0.10859413f, 0.14017892f, 0.11678050f, 0.16961582f, 0.11649767f,
    0.04081366f, -0.05814694f, -0.13415658f, -0.14025153f, -0.08493491f, -0.05896991f, -0.01326614f, 0.04145994f,
    -0.04099010f, 0.04793732f, 0.00477522f, -0.02584627f, 0.00743411f, -0.06314606f, 0.00699531f, 0.02991119f,
    0.03282304f, 0.11156470f, 0.01134012f, 0.05895489f, 0.01982583f, 0.13470225f, 0.10254490f, 0.05404139f,
    0.13310850f, 0.00828634f, 0.12057937f, 0.00603611f, 0.05478149f, -0.02463643f, 0.11481318f, 0.07061907f,
    0.03217189f, 0.17786242f, 0.15167162f, 0.01042479f, 0.15272662f, -0.12578250f, -0.11902910f, -0.07529924f,
    -0.14254551f, -0.13734597f, -0.04600823f, 0.05248038f, 0.09890041f, 0.00785387f, 0.03912557f, -0.06967562f,
    -0.12640451f, -0.12227631f, -0.13262996f, -0.02789001f, -0.01834232f, -0.07212778f, -0.05843014f, -0.00267035f,
    0.09663605f, 0.12350889f, 0.03863863f, 0.05599031f, 0.00600261f, 0.06216309f, -0.12088194f, -0.12955265f,
    -0.04661618f, -0.05015820f, -0.07969309f, -0.07635768f, -0.15937409f, 0.01387845f, -0.04019534f, 0.08163691f,
    0.08574089f, -0.03947463f, 0.02884963f, 0.02356823f, 0.06008517f, 0.06034478f, 0.21312092f, 0.17818141f,
    0.02744548f, 0.08307208f, 0.00059186f, -0.05256073f, 0.02947941f, -0.03813091f, 0.06506329f, -0.01280869f,
    0.03052146f, 0.04735518f, 0.01520239f, 0.10567075f, 0.11561951f, 0.05428295f, 0.03537274f, 0.12019631f,
    0.10821712f, 0.08645624f, 0.08660468f, 0.13201535f, 0.11933556f, 0.05092578f, 0.08856034f, -0.02059105f,
    0.05677199f, 0.04088514f, 0.06491374f, 0.10627109f, 0.15423027f, 0.04924211f, 0.06770828f, 0.15812111f,
    0.10673744f, -0.01724694f, -0.14235465f, -0.20322795f, -0.13368247f, -0.13274062f, 0.06605576f, 0.00954170f,
    0.06796221f, 0.15262176f, 0.20530860f, 0.12684675f, 0.18446328f, 0.10618259f, 0.08718427f, 0.02661784f,
    0.12843531f, 0.12409851f, -0.01050942f, 0.06134922f, 0.00049198f, 0.01266974f, -0.00662865f, -0.00755437f,
    -0.06525345f, -0.04385054f, -0.07629241f, -0.07196023f, 0.00396158f, -0.07310355f, -0.00180586f, 0.03663048f,
    -0.05824135f, -0.00364434f, 0.04839240f, -0.02935972f, 0.00983803f, 0.02742619f, -0.04913811f, 0.00812090f,
    -0.00827123f, -0.02171506f, -0.06074620f, -0.05473999f, -0.08154307f, -0.04065695f, -0.04012468f, 0.00645827f,
    -0.05364266f, 0.02089838f, 0.02255128f, -0.07000133f, 0.06424993f, -0.03855851f, 0.02456349f, 0.06779733f,
    0.01118649f, -0.01588429f, 0.07725146f, 0.05390324f, -0.05373308f, 0.00452929f, -0.02233113f, -0.02472413f,
    0.07686021f, -0.06059974f, -0.06262834f, 0.03232242f, -0.05049747f, -0.00861296f, -0.08165596f, 0.03430122f,
    0.00530428f, -0.03624205f, 0.04851634f, -0.05055376f, -0.03580236f, -0.07402238f, 0.03577381f, -0.07704555f,
    -0.06845383f, 0.01561485f, -0.05079470f, -0.03131358f, -0.01585963f, 0.05435117f, 0.04261604f, -0.01887582f,
    -0.06732567f, 0.05219716f, -0.01439908f, -0.00729978f, -0.04540099f, 0.03921882f, 0.03799506f, -0.07610779f,
    0.07595956f, 0.00250302f, 0.06904634f, 0.02032324f, -0.02428572f, 0.01642748f, -0.05891554f, -0.07842708f,
    0.06977154f, -0.01098639f, 0.01563422f, 0.03902004f, 0.02624553f, -0.04144182f, -0.04220204f, -0.00806649f,
    0.00538399f, 0.05458822f, 0.01027676f, -0.06530978f, -0.02401889f, -0.04535836f, -0.05037166f, -0.03760133f,
    0.00536816f, 0.03453925f, 0.01347818f, -0.01282773f, -0.08082913f, 0.02068914f, -0.07373055f, -0.03851346f,
    0.01513975f, 0.06779637f, 0.01795311f, -0.06259528f, -0.05314813f, 0.02274424f, 0.05449337f, 0.04288894f,
    0.01656355f, -0.02071374f, -0.02448156f, 0.00790599f, -0.05715445f, 0.03832169f, -0.01410193f, -0.04218303f,
    -0.01349478f, -0.05054101f, 0.03048392f, -0.01759622f, 0.00967692f, 0.05806050f, -0.04301690f, -0.03578971f,
    -0.07229508f, -0.05865186f, -0.04937113f, 0.00949963f, -0.07096469f, -0.06196666f, -0.04587716f, -0.03537519f,
    -0.06877840f, 0.03764238f, -0.03893756f, -0.06243674f, 0.06030900f, -0.03456331f, 0.06043407f, 0.07354946f,
    0.11198832f, 0.00658510f, -0.09073478f, -0.10357128f, 0.04683649f, -0.00564780f, 0.07147220f, 0.04352871f,
    0.06966195f, -0.01362565f, 0.11183770f, 0.14887163f, 0.18802777f, 0.05796127f, 0.06463826f, -0.03950375f,
    0.04916040f, 0.05768320f, 0.14873467f, 0.17021769f, 0.09572382f, 0.11669014f, -0.00266906f, -0.09680309f,
    -0.20716783f, -0.22310524f, -0.24672136f, 0.04230626f, -0.10269148f, -0.05257295f, -0.13645872f, -0.19315381f,
    -0.17190182f, -0.05957182f, -0.04398670f, 0.15196121f, 0.04762477f, 0.10903250f, 0.11740164f, -0.04928405f,
    -0.09725343f, -0.15146911f, -0.07748625f, -0.08864786f, -0.01354296f, 0.05911504f, 0.14006858f, 0.09967554f,
    0.04304372f, 0.02613680f, -0.02055006f, -0.01263575f, 0.03847893f, 0.04559553f, 0.11420212f, 0.08896591f,
    0.02876295f, 0.14599182f, 0.00175711f, 0.14393564f, 0.09830584f, 0.02954214f, 0.11041844f, 0.09196599f,
    -0.16590770f, -0.26196197f, -0.22694133f, -0.17579383f, -0.00548193f, 0.00784714f, 0.00830223f, 0.07218222f,
    0.00342679f, 0.00636082f, 0.14503796f, 0.09269716f, 0.18373235f, 0.15098073f, -0.04030104f, -0.07935040f,
    -0.02358866f, 0.12710759f, 0.12988463f, 0.01321715f, -0.02541754f, -0.15106550f, -0.35593414f, -0.16098528f,
    -0.00957288f, -0.04745452f, 0.06292792f, 0.00998658f, -0.07546442f, 0.04999837f, 0.03400132f, 0.02855727f,
    -0.06210037f, -0.01726258f, -0.04425773f, 0.07805945f, 0.07171695f, -0.03278403f, 0.04291921f, -0.10498358f,
    -0.09541310f, -0.12266910f, -0.18425283f, -0.09075976f, 0.06670163f, -0.00453664f, 0.09988484f, 0.13859504f,
    0.00039548f, 0.01963724f, -0.07663520f, -0.01926331f, -0.08875748f, -0.11669111f, -0.18100148f, -0.16870776f,
    -0.19840054f, -0.10599358f, 0.02604267f, 0.07158881f, 0.14896409f, -0.00212064f, 0.04665162f, 0.10030504f,
    -0.04567361f, -0.03111435f, -0.09721478f, -0.20208424f, -0.15535629f, 0.00470493f, 0.02900258f, 0.07508050f,
    0.09292644f, 0.04559472f, 0.05820552f, 0.13294530f, 0.19205682f, 0.19889127f, 0.20922022f, 0.13352706f,
    0.17324935f, 0.12516071f, -0.00617172f, 0.12973496f, 0.02110768f, 0.04715089f, 0.11105759f, 0.09283731f,
    0.06665931f, -0.09462703f, 0.03684330f, 0.02859029f, -0.01032287f, 0.06655329f, 0.10544461f, 0.02274813f,
    -0.01212040f, -0.20321584f, -0.00220541f, 0.03458427f, 0.04323053f, 0.11407255f, 0.20058751f, -0.00467046f,
    -0.14297344f, -0.08491971f, -0.12645109f, 0.10421813f, 0.10087837f, 0.00170971f, 0.08727828f, 0.01210210f,
    -0.06079223f, 0.02738502f, -0.01831618f, 0.06517896f, 0.10835044f, 0.08654243f, 0.18471107f, 0.10516779f,
    0.09793531f, 0.06613288f, 0.06580632f, 0.07698043f, 0.10955208f, -0.04367861f, -0.00458679f, 0.05932688f,
    0.02905362f, 0.14302023f, 0.13427025f, -0.02723623f, -0.02961935f, -0.03183712f, 0.05550488f, 0.06589171f,
    0.03614184f, 0.04551043f, -0.04703666f, -0.04195039f, -0.01357957f, 0.03405704f, -0.06011243f, 0.12847568f,
    0.14520809f, 0.07597302f, -0.09477679f, -0.08724049f, -0.14078942f, -0.04503043f, -0.03946253f, 0.31742799f,
    0.02428464f, 0.00193202f, 0.04463737f, 0.01908095f, 0.02682615f, 0.09381164f, 0.08303629f, -0.00486792f,
    -0.14737746f, 0.01901646f, 0.21204695f, 0.26070473f, 0.13041101f, 0.04441832f, 0.03135146f, -0.07338148f,
    -0.09044636f, 0.05356855f, 0.03963025f, -0.03164767f, -0.02904654f, 0.02830852f, -0.04321776f, 0.04171052f,
    0.00170699f, -0.04552828f, -0.01392540f, -0.08404408f, -0.01340121f, 0.12049817f, 0.17258433f, 0.02774023f,
    0.06781006f, -0.02577148f, -0.03203388f, 0.05130547f, -0.10047822f, -0.03220138f, 0.06970116f, 0.03794139f,
    0.06599134f, 0.07394078f, -0.02175727f, 0.08206748f, -0.03591068f, 0.07248906f, -0.08038761f, -0.07587571f,
    -0.27479666f, -0.31213284f, -0.15207930f, 0.16291283f, 0.47755083f, 0.49190772f, 0.04527099f, 0.19888686f,
    0.21240665f, 0.07323448f, 0.02282922f, -0.01738015f, -0.17983375f, -0.06211042f, -0.00209081f, 0.04793978f,
    0.07007974f, -0.07937721f, -0.10628257f, 0.00370918f, 0.09164418f, 0.17106511f, 0.09567979f, 0.19538654f,
    0.11358846f, 0.07977398f, 0.16671270f, 0.04609378f, 0.01374354f, 0.05322560f, 0.16488528f, 0.12423951f,
    0.12177776f, -0.35696515f, -0.16218598f, -0.12320695f, -0.11564753f, -0.04143125f, 0.08477269f, 0.07394782f,
    0.03870347f, -0.06097629f, -0.13916662f, -0.02844170f, 0.13611527f, 0.13132168f, 0.27135178f, 0.21956676f,
    0.11498525f, -0.11049800f, -0.04974272f, 0.18204622f, 0.20663905f, 0.11865636f, 0.13080804f, -0.00193761f,
    0.02829494f, -0.03258669f, -0.02528722f, -0.00705799f, 0.09735651f, 0.19227594f, 0.23981096f, 0.14780216f,
    0.05723881f, 0.12670219f, -0.02657579f, -0.01869439f, 0.07996894f, -0.18717764f, -0.04609324f, -0.09040856f,
    0.06272549f, 0.05584867f, 0.11124390f, 0.05999899f, -0.06013411f, -0.13537943f, -0.12674758f, -0.13593222f,
    -0.19535911f, -0.16421202f, -0.00428559f, 0.02082436f, -0.01163095f, -0.02333990f, -0.00253810f, 0.24573639f,
    0.20929198f, 0.09029521f, -0.01537067f, -0.11427092f, -0.05131001f, -0.09699137f, -0.12761340f, 0.12819682f,
    -0.17164306f, -0.09008746f, -0.04464394f, 0.05982887f, 0.09406252f, 0.15080558f, 0.08461157f, 0.13754433f,
    -0.02471114f, 0.10883521f, 0.55153930f, 0.26448974f, 0.23083700f, 0.14022216f, 0.11250707f, 0.01723594f,
    -0.02216623f, 0.04105589f, -0.07794106f, 0.07254943f, 0.06795548f, -0.04157345f, -0.06477820f, 0.02143278f,
    0.01176672f, 0.05285121f, -0.01405040f, -0.09945697f, -0.02309860f, 0.25141692f, 0.18167621f, 0.16425243f,
    0.11618757f, 0.03296477f, 0.03791313f, 0.06501852f, -0.01890584f, 0.01074941f, 0.05920459f, 0.19400342f,
    0.08276670f, 0.01840451f, 0.06037177f, 0.11228216f, 0.02023844f, 0.16324818f, -0.05771512f, -0.04588574f,
    -0.16900223f, -0.25885689f, -0.28280559f, 0.06576166f, 0.50508326f, 0.51693994f, 0.09428975f, 0.24012347f,
    0.50057727f, 0.27447844f, 0.06873547f, 0.06221799f, -0.08197883f, -0.10975141f, -0.09387840f, 0.02297978f,
    -0.06237614f, -0.06998898f, -0.02284783f, -0.02885327f, 0.05688707f, 0.00737920f, 0.22750928f, 0.19652867f,
    -0.02821635f, -0.07579389f, -0.02159834f, -0.00046166f, -0.00334459f, 0.09022463f, 0.08839153f, 0.08497354f,
    0.10926432f, 0.01440379f, 0.06287553f, 0.07792666f, 0.12727728f, 0.08170278f, 0.15745996f, -0.00253772f,
    0.13637975f, 0.14640231f, 0.18121418f, 0.20563495f, 0.08474308f, -0.05576939f, -0.16478415f, -0.15192468f,
    -0.22746457f, -0.40460312f, -0.20652771f, -0.12645011f, -0.24631105f, -0.15516768f, -0.13314055f, -0.17606424f,
    -0.03942725f, 0.00685900f, 0.14084703f, 0.12101389f, 0.06344689f, -0.04754218f, -0.07517009f, -0.17729558f,
    -0.19800320f, -0.19597661f, -0.00824678f, 0.01530587f, -0.00453594f, 0.10092694f, 0.13372889f, 0.04636206f,
    0.03658855f, 0.01520902f, 0.02944989f, 0.09850532f, -0.01065148f, -0.00667531f, 0.10593157f, 0.11521703f,
    0.08080891f, 0.14696741f, -0.00475782f, 0.14656046f, 0.03795230f, 0.12883548f, 0.08292159f, 0.12300877f,
    -0.04289497f, -0.08725383f, -0.13670288f, 0.05834949f, 0.06924935f, 0.18838608f, 0.17083065f, 0.06361125f,
    0.12401897f, 0.07169472f, 0.22055551f, 0.21645954f, 0.07489355f, 0.09546106f, -0.05207787f, 0.03426882f,
    -0.02230224f, 0.11654868f, 0.01314321f, -0.07088819f, -0.27835390f, -0.12243053f, 0.05561129f, 0.05344994f,
    0.08121377f, 0.03222935f, 0.05111950f, -0.05362848f, 0.07929911f, -0.06133313f, -0.00910764f, -0.00268968f,
    0.01396626f, 0.00619426f, -0.00909953f, 0.00976776f, -0.06360810f, -0.11089557f, -0.24464551f, -0.29367217f,
    -0.28729498f, -0.19723287f, -0.12747501f, 0.02204414f, 0.03947284f, 0.09217349f, 0.06368839f, -0.11857466f,
    -0.13316773f, -0.07837804f, -0.06278439f, 0.05027887f, 0.04780741f, -0.06639014f, -0.06563283f, -0.01481635f,
    0.02366321f, 0.09913177f, 0.21394759f, 0.17879468f, 0.00449098f, -0.16992734f, -0.01653288f, -0.03382764f,
    -0.17911461f, -0.34294200f, -0.48912734f, -0.18520270f, -0.03831663f, -0.01679235f, 0.15792306f, -0.00055448f,
    -0.05134955f, 0.01829014f, 0.02202470f, 0.04599986f, 0.02231414f, 0.06023585f, 0.01036966f, -0.02751926f,
    0.14100632f, -0.03902221f, 0.01858114f, -0.06874947f, -0.05154162f, -0.02697439f, 0.10296734f, 0.05892088f,
    0.02758090f, 0.08969787f, 0.12761682f, 0.05579526f, 0.18613428f, 0.13373831f, 0.06820379f, 0.00944197f,
    -0.03182961f, 0.12462144f, 0.06160096f, 0.11795398f, 0.14651328f, 0.08568002f, -0.01524009f, -0.14221515f,
    -0.12579699f, -0.28727117f, -0.20554371f, -0.05060619f, -0.11500604f, -0.04641595f, -0.19349591f, -0.22890358f,
    -0.01861189f, 0.00033593f, 0.02296365f, 0.08660603f, 0.08795830f, 0.17525269f, 0.03231296f, -0.03018961f,
    -0.16608283f, -0.09857268f, -0.02434719f, -0.06553916f, 0.08333433f, 0.04313761f, 0.05168420f, 0.04847173f,
    0.05390405f, 0.16330631f, -0.00772184f, 0.02573728f, 0.02268437f, 0.04323093f, 0.04973350f, 0.01090366f,
    0.13898785f, 0.05914944f, 0.12297461f, 0.10201145f, 0.11078985f, 0.09681930f, 0.13781953f, 0.20292847f,
    -0.09413406f, -0.16092761f, -0.07521659f, -0.09185837f, 0.10972651f, 0.08809654f, 0.08243219f, 0.19896176f,
    0.10469762f, 0.07066642f, 0.07663450f, 0.10266554f, 0.18093933f, 0.07693353f, 0.02362945f, 0.04954255f,
    0.01774264f, 0.11302425f, 0.01053899f, -0.05695534f, -0.16571397f, -0.18014862f, -0.04756385f, 0.02789388f,
    0.06236038f, 0.14219469f, -0.04550704f, 0.04210606f, -0.05618047f, 0.00059703f, -0.05619433f, -0.03901505f,
    0.06986263f, 0.01532176f, 0.06028215f, 0.12093291f, 0.01619354f, 0.06723197f, -0.13036934f, -0.08456350f,
    -0.23023279f, -0.12751287f, -0.06580883f, -0.04488688f, 0.13487455f, 0.13560322f, 0.02617877f, 0.00333593f,
    -0.03128318f, -0.03857967f, 0.00112738f, -0.08375436f, 0.07657015f, -0.12233409f, -0.06327204f, -0.04041073f,
    -0.00410237f, 0.00640713f, 0.13852070f, 0.16962060f, 0.09741341f, 0.04490635f, 0.03903522f, 0.09398118f,
    -0.08071274f, -0.18068840f, -0.23493540f, -0.20683937f, -0.08867817f, 0.07453646f, 0.08651473f, 0.01903651f,
    -0.04428720f, -0.01735109f, 0.09963548f, 0.12964900f, 0.21683714f, 0.09105547f, 0.10311781f, 0.04532687f,
    0.09744835f, -0.01521377f, 0.07062519f, 0.10156929f, 0.09847269f, 0.01170771f, 0.12998866f, 0.12178437f,
    0.07956567f, 0.01264911f, -0.01142242f, -0.02656778f, -0.07121883f, -0.21983168f, -0.10273553f, -0.11457554f,
    -0.06656654f, -0.02638727f, 0.05011239f, -0.04746683f, -0.07402771f, -0.03534200f, 0.05398557f, 0.04971641f,
    0.17491561f, 0.20340604f, 0.04620619f, 0.00446403f, 0.12662704f, 0.02274648f, 0.04408597f, 0.07230939f,
    0.02772744f, 0.15278223f, 0.09888579f, 0.11408973f, 0.09118146f, -0.02299285f, 0.10223930f, 0.10026546f,
    0.07242903f, 0.02920454f, 0.11279330f, 0.12833297f, 0.01059026f, 0.00883673f, -0.09609950f, -0.14072506f,
    -0.10497589f, -0.20958892f, -0.15991981f, -0.06379530f, 0.09886775f, 0.02691843f, -0.02678474f, -0.03384946f,
    -0.01781643f, -0.09458270f, -0.16240375f, -0.04563188f, -0.09135362f, -0.14024231f, 0.00219300f, -0.10746160f,
    -0.06012368f, 0.11216267f, 0.13957076f, 0.18325184f, 0.08261638f, 0.02893247f, 0.07013960f, -0.06154359f,
    -0.04343357f, -0.12754920f, -0.04581477f, -0.07722908f, -0.10534215f, -0.02418038f, -0.09618365f, -0.03296918f,
    0.15615292f, -0.04385729f, -0.01307232f, -0.07166068f, -0.02073116f, 0.06906630f, 0.11651950f, 0.22055848f,
    0.16133560f, 0.03605092f, -0.00655587f, -0.02445059f, 0.03267205f, -0.08088247f, -0.04676170f, -0.01748759f,
    -0.00140228f, -0.01720967f, -0.01131800f, 0.17956823f, 0.06318359f, 0.08937417f, -0.01407379f, 0.01718332f,
    0.09181035f, 0.03646482f, 0.10014140f, 0.10097553f, 0.15406211f, 0.10374154f, 0.04646584f, 0.08237299f,
    -0.00537530f, 0.05519895f, 0.06338628f, 0.00393450f, 0.06867648f, 0.02274251f, 0.07116034f, 0.07337108f,
    0.06332787f, 0.12116558f, 0.08366133f, -0.03849027f, -0.14797807f, -0.20498708f, -0.01461574f, -0.01342383f,
    -0.00609604f, 0.07392005f, 0.10139027f, 0.16963258f, 0.22157158f, 0.11642458f, 0.05196783f, 0.09514762f,
    0.03137942f, 0.07649795f, 0.15411934f, 0.12834233f, 0.06873341f, -0.04269172f, -0.01761438f, 0.07959883f,
    0.00225322f, 0.10105972f, 0.10422307f, 0.17931178f, 0.13363244f, 0.06040785f, 0.16738512f, 0.15668191f,
    0.07803788f, -0.00233914f, 0.10134923f, 0.03253490f, -0.06088740f, -0.05100641f, -0.12947832f, -0.01032488f,
    -0.02379054f, -0.04973221f, 0.05822919f, 0.06749589f, 0.08521722f, -0.03912836f, -0.11324289f, 0.06509863f,
    0.09961905f, 0.15116858f, 0.26606074f, 0.13497531f, 0.07960607f, 0.03520100f, 0.04456455f, 0.20692986f,
    0.24417493f, 0.27405795f, 0.18992959f, 0.02468172f, -0.03120556f, -0.07294704f, 0.07932984f, -0.03008170f,
    0.02503221f, 0.17235710f, 0.20758592f, 0.14104295f, 0.11261690f, 0.02968207f, -0.00918322f, -0.13694601f,
    -0.11668817f, -0.18754603f, -0.20969374f, -0.07753124f, 0.05042604f, 0.11061195f, 0.04167845f, 0.08091746f,
    0.05846339f, -0.05629041f, 0.00872323f, -0.10340337f, -0.11189538f, -0.20357189f, -0.12966970f, -0.28746316f,
    -0.12295360f, -0.07043725f, 0.04917419f, 0.18550076f, 0.09774452f, 0.14153557f, 0.13765435f, 0.12036267f,
    0.03735616f, -0.09641567f, -0.09952322f, -0.17444780f, -0.25641972f, -0.21252939f, -0.14130200f, -0.05690340f,
    0.02770695f, 0.04568514f, -0.07517208f, -0.14168271f, -0.05789605f, -0.09290120f, 0.14066015f, 0.21883681f,
    0.27457356f, 0.21776624f, 0.02681418f, -0.08230191f, 0.07575705f, 0.07067177f, -0.02739144f, 0.04013323f,
    -0.02053493f, -0.06073645f, -0.00311065f, 0.09635762f, 0.04882444f, -0.04248763f, 0.05835793f, 0.02206250f,
    0.05104476f, 0.21097153f, 0.13453256f, 0.15442008f, 0.13387093f, 0.07947070f, 0.08965591f, -0.01698826f,
    0.03573697f, 0.02211042f, 0.07044997f, 0.20695029f, 0.19364855f, -0.03596590f, 0.01828940f, 0.16075639f,
    0.25394744f, 0.16664070f, 0.16342038f, 0.02176942f, -0.08390830f, -0.08166728f, 0.14758477f, 0.09405528f,
    -0.04728010f, -0.01389396f, 0.08311494f, 0.19976577f, 0.34161785f, 0.35074285f, 0.17689392f, 0.01490357f,
    0.05814129f, 0.16984104f, 0.05340181f, 0.03171033f, 0.02345585f, 0.02238366f, -0.04090627f, -0.03390296f,
    0.10619227f, 0.11110811f, 0.03957467f, 0.12551841f, 0.09754705f, 0.06864045f, 0.14311455f, 0.09444627f,
    -0.01084601f, -0.03214718f, -0.01853936f, -0.17112949f, -0.16771366f, -0.09727075f, -0.07472097f, 0.01598781f,
    0.01234592f, -0.02003877f, 0.02447898f, 0.01304561f, -0.05186256f, 0.04596688f, 0.00232155f, 0.01633043f,
    0.10973808f, 0.16117704f, 0.07889980f, 0.04748124f, 0.06316444f, 0.01457089f, 0.14153698f, 0.13391823f,
    0.08384817f, 0.00103510f, 0.01851693f, -0.00970517f, 0.08897392f, 0.08759720f, 0.04273965f, -0.01381062f,
    0.08486311f, 0.11725593f, 0.15030305f, 0.14718029f, 0.10921657f, 0.00951088f, -0.15979916f, -0.09434666f,
    -0.19018389f, -0.05900111f, -0.05872737f, -0.00481282f, 0.05238431f, 0.00912604f, -0.08441307f, 0.01098173f,
    -0.04294012f, -0.06468073f, -0.12945977f, -0.12624957f, -0.05918296f, -0.01754999f, 0.01021818f, 0.05115803f,
    0.10880181f, 0.00109578f, 0.07420120f, 0.05331585f, 0.09102327f, -0.04151533f, 0.00336566f, -0.12119653f,
    -0.10085499f, -0.04306769f, -0.14063483f, -0.09087688f, -0.03094648f, -0.02483211f, 0.05117782f, 0.06480551f,
    0.04823644f, -0.03169066f, 0.05582256f, 0.12609407f, 0.18969817f, 0.19341058f, 0.14646985f, 0.14427041f,
    0.02744677f, 0.03383121f, 0.02375617f, 0.02912095f, 0.03209219f, -0.00359008f, 0.01173939f, 0.04953067f,
    0.05486577f, -0.02943679f, -0.04460414f, 0.11614521f, 0.06393442f, 0.05931338f, -0.00987416f, 0.02465066f,
    0.15787335f, 0.11563911f, 0.13491069f, 0.08381919f, 0.11426251f, 0.05901607f, 0.08594616f, 0.11524414f,
    0.06125717f, 0.05190709f, 0.02533685f, 0.11126298f, 0.14694338f, 0.03736174f, 0.07344043f, 0.05059128f,
    0.00656464f, -0.09476007f, -0.03774561f, -0.08217806f, -0.08068683f, -0.20309739f, 0.01914344f, 0.00011659f,
    -0.00430758f, 0.10060046f, 0.07607526f, 0.14249595f, 0.12418029f, 0.08296718f, -0.03179712f, 0.08928414f,
    0.11975156f, 0.13064148f, 0.05559225f, 0.11099416f, 0.05205289f, -0.06911197f, -0.06218827f, 0.05955273f,
    0.17053266f, 0.05760898f, 0.05594651f, -0.08040480f, -0.12269468f, -0.06942432f, 0.03744685f, 0.00922861f,
    0.06127122f, -0.04855976f, -0.05041150f, 0.09068575f, 0.13615271f, 0.05086338f, 0.18797097f, 0.04394612f,
    0.07934643f, -0.05183356f, 0.09759611f, 0.14042610f, 0.04222916f, 0.13398255f, 0.02887845f, 0.04889919f,
    0.02240328f, -0.04091286f, -0.28016731f, 0.00688184f, 0.06067702f, -0.09553979f, -0.09064687f, -0.15366171f,
    -0.14005218f, -0.23366345f, -0.15184507f, 0.08179158f, 0.09924600f, 0.01639071f, 0.12233088f, 0.04566478f,
    -0.02937785f, -0.06058218f, -0.02526300f, -0.12566131f, -0.04535031f, 0.00996842f, 0.13970011f, 0.04014673f,
    0.18668075f, 0.16550121f, 0.13707417f, -0.01101452f, 0.00273759f, -0.00670394f, 0.08251785f, 0.01187432f,
    0.06731012f, 0.01335050f, 0.07471114f, 0.16528097f, 0.01582657f, 0.15891723f, 0.05514628f, 0.26887143f,
    0.22758338f, -0.02037759f, -0.23504044f, -0.15207180f, -0.12024044f, 0.04628617f, 0.05029401f, 0.06657390f,
    0.00856170f, 0.09243306f, 0.11396018f, 0.12829907f, 0.08258323f, 0.23408914f, 0.16392587f, 0.07341200f,
    0.04997060f, 0.08157135f, 0.05296273f, 0.12689851f, 0.11408261f, -0.07542582f, -0.18876575f, -0.42515919f,
    -0.26973563f, -0.10637811f, -0.06964070f, -0.03817722f, -0.03581726f, 0.02812843f, -0.02965623f, -0.05599232f,
    -0.06438060f, 0.06225580f, -0.04323557f, 0.03194438f, 0.09398334f, 0.12564437f, -0.00554709f, 0.01631253f,
    -0.04320301f, -0.07008674f, -0.19491337f, -0.23464265f, -0.05789366f, -0.04845971f, 0.00853552f, -0.01631854f,
    -0.00126408f, -0.03665166f, -0.03432062f, -0.11661695f, -0.13915618f, 0.22458498f, -0.03129597f, -0.14729425f,
    -0.08569137f, -0.07638144f, 0.10743599f, 0.14886700f, 0.21820392f, 0.23712032f, 0.01788145f, 0.09643496f,
    0.13675471f, 0.04946007f, -0.08090603f, -0.09675733f, -0.26976240f, -0.27888283f, -0.03549498f, 0.01441251f,
    0.08391178f, 0.07659304f, -0.03734026f, 0.05882850f, 0.06411401f, 0.13842663f, 0.21992102f, 0.23517747f,
    0.05100129f, 0.04856577f, 0.13298069f, 0.03458644f, 0.12311881f, 0.09798560f, 0.02266844f, 0.12620412f,
    0.12641597f, 0.01391288f, -0.01391309f, -0.03206906f, -0.12955774f, -0.17940864f, -0.18823969f, -0.16443442f,
    -0.12321220f, -0.10298479f, 0.12031645f, -0.05005199f, -0.04553612f, -0.05503633f, 0.00285694f, 0.14422910f,
    0.05855809f, 0.19269276f, 0.10312495f, 0.04592738f, 0.08920405f, 0.05922386f, 0.10140783f, 0.06242121f,
    0.07646805f, 0.03842080f, 0.04835645f, 0.05870177f, 0.00161456f, -0.01059559f, 0.01470861f, 0.06951502f,
    0.00214706f, 0.03909024f, 0.01649003f, 0.06518708f, 0.10281712f, -0.05459913f, -0.07923919f, -0.11190229f,
    -0.08705292f, -0.17967276f, -0.05813112f, -0.10142253f, 0.04906304f, 0.14672737f, -0.05862953f, -0.00844188f,
    -0.00320755f, 0.02020750f, -0.08766650f, -0.15310381f, -0.16357170f, -0.06871524f, -0.07665396f, -0.11451061f,
    -0.06257793f, 0.03309288f, 0.15802294f, 0.12027442f, 0.05044951f, 0.05195739f, 0.06879388f, -0.04891419f,
    -0.07370139f, -0.13040760f, -0.18285291f, -0.04851432f, -0.06123039f, -0.06556043f, -0.02575305f, -0.01799335f,
    0.17191339f, -0.08232164f, 0.03144506f, 0.01059402f, 0.12165607f, 0.18993652f, 0.23601650f, 0.08459515f,
    0.17362030f, 0.14727902f, -0.01350622f, -0.02357292f, 0.01661665f, -0.00850620f, -0.06540835f, -0.05275168f,
    -0.00537905f, 0.05399308f, -0.08135217f, 0.10292152f, 0.05829833f, 0.11499427f, -0.02420707f, 0.09084152f,
    0.11063889f, 0.05664392f, 0.14622471f, 0.12331813f, 0.13137673f, 0.08288200f, -0.02964564f, 0.07506842f,
    -0.01834641f, 0.08218279f, 0.02364198f, 0.16476314f, 0.12718959f, 0.11883710f, 0.15131433f, 0.10773621f,
    0.09221463f, 0.08983412f, 0.02883975f, -0.12827362f, -0.07820017f, -0.20252651f, -0.01042521f, 0.00017855f,
    0.07813856f, 0.01488942f, 0.17101315f, 0.20612834f, 0.07895344f, 0.02815546f, -0.00292299f, 0.09622094f,
    0.15568176f, 0.08087380f, 0.01009129f, 0.03313912f, 0.11891567f, 0.10876431f, 0.07713926f, 0.05629079f,
    0.01714649f, -0.00722490f, -0.08505762f, 0.03050541f, -0.04679376f, -0.01619719f, -0.04840525f, 0.06774224f,
    0.00984902f, -0.06319248f, -0.08135678f, -0.02116063f, 0.02358685f, 0.05404555f, 0.06388865f, -0.03314224f,
    -0.02552940f, -0.05842507f, 0.04502010f, -0.08731052f, -0.02191112f, 0.04976632f, -0.06148165f, -0.05213596f,
    0.00452380f, 0.00639567f, 0.04659955f, 0.00797163f, -0.03917528f, 0.00257812f, 0.04349582f, 0.03454649f,
    -0.03869956f, -0.05560417f, -0.00405368f, -0.03747301f, 0.05305475f, -0.02387039f, -0.04748064f, -0.02369161f,
    -0.02087060f, -0.07620494f, 0.06076820f, -0.06381720f, 0.05363598f, -0.09056616f, 0.01432007f, -0.01704367f,
    -0.05876152f, -0.00130697f, 0.01189477f, -0.05492873f, 0.04897349f, 0.02338684f, -0.01524328f, -0.08743235f,
    0.00074507f, -0.07478546f, 0.06429005f, -0.08439443f, -0.04664428f, -0.01737386f, 0.05092806f, -0.00961347f,
    0.07205519f, -0.01742282f, -0.02429301f, 0.01634938f, -0.07364925f, 0.03549310f, 0.06355832f, -0.04885679f,
    -0.07344867f, 0.01668970f, 0.01618025f, -0.00497704f, 0.05607937f, 0.01918416f, 0.05643909f, -0.05650565f,
    -0.05574263f, -0.03336443f, 0.01576287f, -0.03104871f, 0.06399299f, -0.06666374f, 0.04577629f, 0.02463370f,
    0.01035896f, -0.07517972f, -0.03623049f, -0.05861854f, 0.04762145f, -0.02847664f, 0.06762995f, 0.06517914f,
    0.05489433f, 0.04821849f, -0.02972524f, 0.03693734f, 0.03026294f, -0.04905399f, -0.08642566f, -0.01636796f,
    0.07171927f, -0.06927686f, -0.05653869f, 0.01358751f, -0.07697215f, -0.09158940f, -0.08390062f, -0.04829410f,
    0.03824582f, 0.05895697f, 0.04848742f, -0.02617281f, -0.01850964f, -0.01174534f, 0.07909793f, -0.07773744f,
    -0.06612311f, -0.01357391f, 0.06336816f, -0.01012986f, -0.02698765f, -0.09270529f, 0.00948986f, 0.00047762f,
    -0.01586511f, -0.07013334f, -0.03550818f, -0.03954937f, -0.06838669f, -0.02053202f, 0.02706128f, -0.01415062f,
    -0.04270890f, 0.02249619f, -0.07715231f, 0.06295878f, 0.05183712f, 0.00734371f, 0.05744636f, 0.05821970f,
    0.03968248f, -0.06364319f, 0.02345987f, -0.02088029f, -0.01997365f, 0.05011732f, -0.03725180f, -0.07272115f,
    -0.03981225f, -0.05149107f, -0.00994915f, -0.07177439f, -0.04074733f, -0.07496840f, -0.05225958f, 0.05818132f,
    -0.06567702f, -0.00662015f, -0.00191394f, 0.06004050f, -0.08032231f, 0.02884682f, 0.05816895f, -0.01687221f,
    0.06107473f, -0.04095887f, 0.06293423f, -0.03844482f, 0.00518276f, -0.05500599f, 0.04836084f, 0.02710990f,
    0.06656284f, -0.03684376f, 0.00959107f, 0.03966292f, -0.00180254f, -0.07124356f, 0.04692662f, 0.06602281f,
    -0.08933628f, -0.03180683f, 0.00285793f, 0.01402101f, -0.04375078f, -0.05297391f, 0.00381213f, 0.07336303f,
    0.01919861f, -0.05061805f, -0.00088196f, 0.05342342f, 0.01532493f, -0.07289304f, 0.02854048f, 0.01702449f,
    0.04178484f, -0.04217812f, -0.04732817f, -0.00336314f, -0.08647674f, -0.09132177f, -0.08423481f, 0.01233584f,
    -0.05441831f, -0.05775828f, 0.03300946f, 0.03941086f, -0.00312764f, 0.06704672f, -0.03887201f, 0.05124413f,
    0.02422105f, -0.07913431f, -0.06095773f, -0.03645868f, 0.04355228f, 0.01959835f, -0.08688800f, 0.06723711f,
    -0.03325471f, -0.03006138f, -0.02125364f, -0.06865140f, 0.06179053f, -0.08761951f, -0.02167702f, -0.06511112f,
    -0.02721074f, 0.05151896f, 0.04548461f, -0.01459183f, 0.04787717f, 0.02145784f, 0.07345027f, 0.01421684f,
    -0.00142956f, -0.05466670f, 0.06753674f, 0.06664147f, 0.03598930f, 0.05166848f, 0.06582308f, -0.04321487f,
    0.05276684f, -0.06926841f, 0.03376867f, 0.01664298f, 0.07364111f, -0.02587956f, -0.06615397f, -0.02683149f,
    -0.06670739f, -0.07738967f, 0.05939938f, -0.02964828f, 0.02588736f, 0.04109234f, 0.00388900f, -0.08150735f,
    0.07920646f, 0.08249123f, -0.01159358f, -0.06287458f, 0.05859741f, 0.05423771f, 0.01706557f, 0.04688855f,
    -0.01325849f, -0.04988214f, -0.07595658f, -0.05804253f, -0.06534843f, 0.00461767f, 0.06969396f, -0.07353549f,
    -0.07981250f, -0.07953458f, -0.08931115f, -0.00510868f, -0.09227619f, 0.03680507f, -0.05944508f, 0.01665944f,
    0.04412640f, 0.15137540f, 0.08102023f, -0.06227020f, -0.10234973f, -0.07935865f, 0.02955471f, 0.06527931f,
    0.10126709f, -0.08093575f, -0.06349223f, 0.03139867f, 0.06011384f, 0.13539353f, 0.03932919f, 0.10634867f,
    0.07978010f, 0.03178594f, -0.02052763f, 0.16073330f, 0.16741332f, 0.17472942f, 0.13915373f, 0.08578262f,
    -0.02657426f, 0.00692219f, -0.11999733f, 0.07459363f, -0.05311540f, 0.01852645f, -0.01265373f, -0.02285690f,
    -0.19483377f, -0.26812127f, -0.16536042f, -0.01592719f, -0.00026103f, 0.00563051f, 0.14161497f, 0.00338212f,
    -0.02139893f, -0.03776809f, -0.01728441f, -0.08197869f, -0.02352986f, 0.07769674f, 0.06344821f, 0.08090246f,
    0.11691569f, 0.06558339f, 0.20649695f, 0.17385671f, 0.05389743f, -0.08100326f, 0.12491882f, 0.01295829f,
    0.06250335f, 0.04944528f, 0.02550916f, 0.14771768f, 0.06313919f, 0.14987996f, 0.05864172f, 0.30047303f,
    0.20945197f, 0.00555918f, -0.10896471f, -0.21646889f, -0.15881619f, -0.08319748f, -0.06854984f, 0.04231378f,
    0.06278085f, 0.03835928f, 0.06173093f, 0.13732485f, 0.19533029f, 0.17704834f, 0.17183612f, -0.00646462f,
    0.05284555f, 0.03996933f, 0.03910671f, 0.18343672f, 0.03277490f, 0.08034434f, -0.14499311f, -0.38110051f,
    -0.53999090f, -0.19352454f, -0.02691013f, 0.01360832f, -0.00068690f, 0.08256220f, -0.00543580f, 0.04612830f,
    0.06222794f, 0.03391604f, 0.00477946f, -0.00987285f, -0.01215849f, 0.05613547f, 0.02429227f, 0.02970213f,
    -0.06121092f, -0.11708950f, -0.13443777f, -0.33766171f, -0.00847009f, 0.05583505f, -0.03771584f, 0.09158365f,
    0.04795343f, 0.05093517f, -0.05766329f, -0.01210879f, -0.07019430f, 0.17836751f, 0.00292296f, -0.19552684f,
    -0.23087993f, -0.12086172f, 0.03693099f, 0.10204367f, 0.15604097f, 0.23921652f, -0.02539118f, 0.07806323f,
    0.06469119f, 0.02779993f, -0.01942877f, -0.13639918f, -0.21275522f, -0.40796772f, -0.24200329f, 0.03580311f,
    0.04427635f, 0.05940646f, -0.06449354f, 0.07850718f, 0.02509329f, 0.10318707f, 0.09455483f, 0.13467380f
};

static const float conv2_bias[32] = {
    0.03294288f, 0.11718108f, 0.12891003f, 0.12470378f, 0.06376438f, 0.06543624f, 0.06982079f, 0.11856769f,
    -0.07198559f, 0.02942399f, 0.11617634f, 0.00358295f, 0.10768276f, 0.14070235f, -0.04962878f, 0.02930825f,
    0.14011377f, 0.09044837f, -0.03444883f, 0.16176097f, -0.01182339f, 0.04194489f, 0.07959116f, 0.05429526f,
    0.03467471f, 0.07401798f, 0.02717049f, 0.08690363f, 0.14209966f, -0.06657420f, 0.05584197f, 0.10894725f
};

// Conv1d 32→16, k=9
static const float conv4_weight[4608] = {
    0.08176930f, 0.08612715f, 0.02019978f, 0.06515806f, 0.04778620f, 0.08590693f, 0.10176935f, 0.06302582f,
    -0.00998070f, -0.05613442f, -0.00327872f, -0.02061970f, 0.03124873f, 0.07821013f, 0.09903283f, 0.10415402f,
    0.07578242f, 0.10537475f, -0.01918714f, -0.01225917f, -0.06338885f, -0.06370289f, -0.08480968f, -0.07831159f,
    -0.01803357f, 0.01462667f, 0.07498179f, -0.05738941f, -0.06480421f, -0.07059035f, -0.17852665f, -0.12527932f,
    -0.02684093f, 0.02895812f, 0.08143800f, 0.07369727f, -0.03104153f, -0.07253665f, -0.09322643f, -0.10578093f,
    -0.19327429f, -0.20913090f, -0.06578637f, -0.07184865f, 0.04673754f, 0.00686407f, -0.06973685f, -0.05332003f,
    -0.20080294f, -0.14126143f, -0.17976840f, -0.15315115f, -0.02031333f, 0.03938448f, 0.01488789f, -0.03916210f,
    -0.03002226f, -0.08794814f, -0.07735154f, -0.24308690f, -0.18202947f, -0.19855426f, -0.09120913f, 0.01821870f,
    -0.04582559f, -0.01835352f, -0.07347325f, -0.15965134f, -0.05784101f, -0.07303101f, -0.09234256f, -0.03243989f,
    -0.02861657f, -0.01566323f, -0.03302108f, -0.01173402f, 0.00105947f, 0.03663161f, 0.01140103f, 0.01497904f,
    0.01601605f, 0.08111202f, -0.00714969f, 0.09908921f, 0.12735189f, 0.15525639f, 0.05669162f, 0.00983290f,
    0.08937871f, 0.04142834f, 0.10965686f, 0.14269301f, 0.07831937f, 0.07996266f, 0.05639267f, -0.03811118f,
    -0.11000694f, -0.14710726f, -0.10800395f, 0.05140528f, 0.02601848f, 0.00843686f, 0.04798777f, 0.05034838f,
    -0.03652892f, -0.01078142f, -0.00367121f, 0.00558401f, 0.03391995f, 0.00982050f, -0.00923446f, 0.05667982f,
    0.10055111f, 0.12095637f, 0.05064634f, 0.09203676f, -0.03250120f, -0.00099892f, 0.02856588f, -0.08794042f,
    -0.07492650f, -0.16936116f, -0.19915226f, -0.17084439f, -0.11037733f, 0.03931623f, 0.13335341f, 0.11159345f,
    0.11769011f, 0.40458098f, 0.24207418f, 0.08438459f, -0.03033965f, 0.00483005f, -0.03769082f, 0.04844800f,
    0.03022253f, 0.05479262f, 0.04272878f, 0.08704157f, 0.13048162f, 0.07310744f, 0.09135111f, 0.00993503f,
    0.04561452f, 0.07184591f, 0.06072580f, 0.02188136f, -0.03424974f, -0.09927766f, -0.08489144f, -0.11485318f,
    -0.04999859f, -0.01162929f, 0.05822475f, 0.05647182f, 0.06546360f, 0.05089662f, 0.09753896f, 0.02225276f,
    -0.00929056f, 0.05340699f, -0.02408557f, -0.04747906f, -0.01775928f, -0.05304079f, 0.01975705f, -0.04758121f,
    -0.04041390f, -0.00672638f, -0.04948775f, 0.05143954f, -0.04504286f, -0.12808283f, -0.13312164f, -0.11519224f,
    -0.17880765f, -0.05375386f, 0.03655506f, -0.00676917f, 0.04480048f, -0.02638913f, 0.00203676f, 0.03032098f,
    0.01779273f, 0.07474870f, 0.12574364f, 0.14823094f, 0.04437185f, -0.02389619f, 0.00350268f, 0.02483827f,
    -0.05873986f, 0.02852637f, 0.03997522f, 0.14843404f, 0.22881627f, 0.17944174f, 0.03171059f, -0.00235337f,
    -0.09427773f, -0.05522462f, -0.17928106f, -0.16406205f, -0.25581795f, -0.10188981f, -0.02905235f, -0.05338665f,
    -0.04575245f, -0.02859303f, -0.16431831f, -0.20791268f, -0.18827774f, -0.13454823f, -0.00519843f, 0.04125428f,
    0.08303636f, -0.00667600f, 0.08465106f, 0.13655630f, 0.12590791f, 0.09730964f, 0.01638176f, 0.01497237f,
    0.07496385f, 0.07334270f, 0.09114837f, 0.13429965f, 0.18817279f, 0.10564832f, -0.00677070f, 0.04326943f,
    -0.06544629f, -0.06382317f, 0.04456539f, 0.02341858f, 0.04283461f, 0.11489415f, 0.08572938f, 0.07969183f,
    0.05889042f, 0.07547931f, 0.06047922f, -0.06217476f, -0.14136322f, -0.13172841f, -0.11350761f, -0.08377500f,
    -0.04508860f, 0.07741974f, 0.10756247f, 0.09706356f, 0.04326613f, -0.01022676f, 0.13275903f, 0.14980935f,
    0.15303181f, 0.10240192f, 0.02207471f, 0.03429013f, 0.05087190f, 0.02107274f, -0.00630278f, 0.04353496f,
    0.00093221f, 0.00852441f, 0.02071440f, 0.01888497f, 0.05588806f, 0.01315805f, 0.02146285f, -0.00160844f,
    -0.01621644f, -0.03693977f, -0.00730533f, 0.05278861f, 0.05086754f, 0.03545189f, -0.02519047f, -0.06641967f,
    -0.16814525f, -0.20405154f, -0.15748553f, 0.00399671f, 0.02700202f, 0.13401332f, 0.14886567f, 0.08871545f,
    0.00118362f, -0.00910590f, 0.09430923f, 0.08662696f, 0.09381567f, 0.06344644f, 0.06520830f, 0.04218470f,
    0.03719782f, 0.04689376f, 0.02800461f, -0.03366274f, -0.04848105f, 0.05262835f, 0.03025003f, 0.11418688f,
    0.15285632f, 0.07624429f, 0.00356702f, -0.06602789f, -0.09784300f, -0.11310873f, -0.17670171f, -0.16040058f,
    -0.02349260f, 0.01763381f, 0.01849700f, -0.00915818f, -0.12095831f, -0.16846538f, -0.22880511f, -0.16443110f,
    -0.09568412f, 0.08935944f, 0.10915902f, 0.13331637f, -0.11314950f, -0.10967729f, -0.07570568f, -0.18600349f,
    -0.25859147f, -0.33099395f, -0.19947180f, -0.09123904f, -0.04211179f, 0.03837515f, -0.03529865f, -0.03951702f,
    -0.21225555f, -0.21247216f, -0.20962152f, -0.14717832f, -0.05224649f, 0.10720506f, 0.02804961f, -0.06030827f,
    -0.09235603f, -0.02504742f, -0.03967351f, -0.14927685f, -0.19297455f, -0.18273771f, -0.03219473f, 0.06473273f,
    -0.01654128f, -0.09367120f, -0.04312345f, -0.11575612f, -0.12342802f, -0.05529222f, -0.01480132f, -0.01391437f,
    -0.06109091f, 0.02304916f, -0.03385494f, -0.04137851f, -0.05470698f, 0.03333868f, 0.00621897f, 0.00825073f,
    -0.01017602f, 0.08198460f, 0.03517293f, 0.06145353f, 0.10051899f, 0.04790495f, 0.05311261f, 0.04634448f,
    0.02421271f, -0.03436452f, 0.09497971f, 0.14082821f, 0.06246610f, 0.03481828f, 0.08391962f, -0.01941046f,
    -0.16657037f, -0.08900545f, -0.10670856f, 0.02446299f, 0.00352376f, -0.05319262f, 0.05495291f, 0.03232598f,
    -0.03209674f, 0.00606877f, -0.04790755f, 0.03890482f, -0.02219338f, -0.05272014f, -0.00460506f, 0.10143118f,
    0.11562002f, 0.05307098f, 0.10722393f, 0.09029161f, 0.05685684f, 0.05699009f, -0.03715114f, -0.03542973f,
    -0.07384190f, -0.09191766f, -0.17101128f, -0.13714236f, -0.16433667f, 0.04675936f, 0.20392025f, 0.13483572f,
    0.11751609f, 0.35488865f, 0.30435467f, 0.06720503f, 0.04624821f, 0.02501094f, 0.03151011f, 0.07134554f,
    0.03012238f, 0.03179562f, 0.00042430f, 0.14525998f, 0.17192473f, 0.06250135f, 0.04877672f, 0.01941547f,
    0.09298690f, 0.04768442f, 0.06232180f, -0.06580404f, -0.04094087f, -0.13760205f, -0.13058791f, -0.08484179f,
    -0.03548624f, 0.01669256f, 0.01748650f, -0.02108288f, 0.11895720f, 0.12123641f, 0.06905471f, 0.04303431f,
    0.08212466f, 0.01373552f, 0.05072488f, -0.05576165f, -0.04485999f, 0.02304372f, 0.02192102f, -0.00303497f,
    0.02840589f, 0.00137507f, 0.05115039f, -0.01611582f, 0.03593989f, -0.11220267f, -0.14194196f, -0.12925155f,
    -0.19586684f, -0.05640361f, 0.04020385f, 0.04515507f, 0.00283258f, 0.03173041f, 0.06341811f, -0.03218455f,
    -0.04063029f, 0.07013677f, 0.07036418f, 0.08508008f, 0.10938401f, 0.06997801f, -0.01477768f, 0.01669577f,
    0.04034529f, 0.01160910f, 0.06816777f, 0.19270775f, 0.23430210f, 0.17686014f, -0.01554526f, 0.00589315f,
    -0.05100285f, -0.07928167f, -0.14888082f, -0.20360097f, -0.25260299f, -0.06329500f, -0.03306989f, -0.00400101f,
    -0.01242945f, -0.04562408f, -0.10468781f, -0.16053823f, -0.15134044f, -0.10984718f, -0.01293073f, 0.07019111f,
    -0.02354063f, 0.06514587f, 0.10363735f, 0.14417255f, 0.13865010f, 0.11068220f, 0.06554495f, -0.00194362f,
    -0.01649186f, 0.11486229f, 0.16134425f, 0.22340763f, 0.14365554f, 0.17310311f, 0.09822515f, -0.00893583f,
    -0.03509187f, -0.03541095f, 0.03549701f, 0.08851372f, 0.08214824f, 0.05844947f, 0.12184849f, 0.07837396f,
    0.03804288f, 0.05249289f, 0.06392080f, -0.03803992f, -0.11767415f, -0.19321863f, -0.20729607f, -0.10494936f,
    -0.01315153f, 0.12439272f, 0.14439364f, 0.07041588f, 0.01750141f, -0.00920445f, 0.11905704f, 0.07954059f,
    0.06027197f, 0.10143923f, 0.08120572f, 0.03137406f, -0.03818420f, 0.02016288f, -0.02735076f, 0.02743628f,
    0.02329053f, 0.00104358f, -0.04621255f, 0.01940834f, -0.04202566f, -0.00179813f, -0.04522783f, -0.05812343f,
    0.01458808f, -0.02169251f, 0.04723215f, 0.05845179f, -0.04241958f, 0.00968236f, 0.00432246f, -0.04989937f,
    -0.15145004f, -0.17883787f, -0.11966473f, -0.06450359f, 0.10536573f, 0.08077381f, 0.12335997f, 0.07199309f,
    0.01780372f, 0.02126260f, 0.12042885f, 0.12349182f, 0.12647419f, 0.10116521f, 0.11544904f, 0.04746028f,
    0.00536430f, 0.02990678f, 0.02707686f, -0.06731121f, 0.00983317f, -0.02231700f, 0.10420383f, 0.14282538f,
    0.15297781f, 0.12746166f, -0.00248416f, -0.06321017f, -0.10473398f, -0.10885248f, -0.06127951f, -0.06385639f,
    -0.07447239f, 0.04277631f, 0.01238059f, -0.08183814f, -0.06807808f, -0.16265349f, -0.15542983f, -0.18664870f,
    -0.00279568f, -0.00733662f, 0.08660446f, 0.09242593f, -0.03324646f, -0.12420036f, -0.09886550f, -0.05965917f,
    -0.17737564f, -0.23988248f, -0.08041057f, -0.04062437f, 0.02063889f, -0.06982117f, 0.02469725f, -0.13198023f,
    -0.11757613f, -0.11980355f, -0.13819975f, -0.10181673f, -0.05536577f, 0.01917339f, -0.02453416f, -0.07186080f,
    -0.06702423f, -0.12332131f, -0.05288092f, -0.17567132f, -0.17219511f, -0.18540023f, -0.01965396f, 0.03827308f,
    0.00623147f, -0.02414934f, -0.05014380f, -0.06664568f, -0.07193629f, -0.09983240f, -0.08798330f, -0.03006104f,
    0.01303991f, -0.01362589f, -0.03830976f, 0.02832129f, 0.05253742f, -0.00304155f, 0.01625186f, 0.03008431f,
    -0.01301568f, -0.01489373f, -0.01138891f, 0.11876276f, 0.12560548f, 0.10311712f, 0.03170275f, -0.01372658f,
    0.04380733f, 0.06078291f, 0.09496054f, 0.13591112f, 0.03738168f, 0.04131067f, -0.03214187f, 0.01653670f,
    -0.12574747f, -0.06069519f, -0.12535319f, 0.01783232f, -0.02132022f, -0.05579985f, 0.05165951f, -0.00192151f,
    -0.00443856f, 0.02144464f, -0.03177007f, -0.03962149f, 0.01495513f, -0.04744831f, 0.00060048f, 0.13290031f,
    0.13542451f, 0.16641101f, 0.07721157f, 0.05259179f, -0.02101757f, 0.03504154f, 0.04701804f, -0.06988768f,
    -0.02752802f, -0.15032193f, -0.17363255f, -0.16475722f, -0.12320126f, -0.05060669f, 0.19116570f, 0.15517242f,
    0.15600061f, 0.41071418f, 0.23569711f, 0.12285598f, 0.06931154f, 0.03571345f, 0.04979111f, 0.03230856f,
    0.03748165f, 0.06183600f, 0.03481230f, 0.13386798f, 0.16848916f, 0.11091200f, 0.12539929f, -0.00289864f,
    0.05485898f, -0.01458607f, 0.05947614f, 0.01840315f, -0.08440734f, -0.08107076f, -0.08403063f, -0.08731287f,
    0.02560176f, -0.02509252f, -0.01114844f, -0.01787607f, 0.11142755f, 0.03149716f, 0.09030765f, 0.00572047f,
    0.05502370f, 0.01724283f, 0.01842024f, 0.05563354f, -0.02612896f, -0.02288628f, 0.01323163f, 0.04875588f,
    -0.00345181f, -0.04958141f, 0.02025327f, 0.07344265f, -0.03170913f, -0.05760996f, -0.13049190f, -0.11575495f,
    -0.20735908f, -0.01630352f, 0.02760756f, 0.09143015f, 0.05751916f, 0.00112516f, 0.00688591f, -0.05593455f,
    -0.04076859f, 0.05064591f, 0.08788992f, 0.12099859f, 0.05458401f, 0.01514409f, 0.00116453f, -0.08103541f,
    -0.04675958f, 0.02618407f, 0.04308099f, 0.20111187f, 0.29399621f, 0.21095915f, -0.02257119f, -0.05906465f,
    -0.06341773f, -0.08332898f, -0.10948924f, -0.21897040f, -0.14147924f, -0.08724785f, -0.04903892f, -0.02492359f,
    0.02874899f, -0.01179057f, -0.13844967f, -0.18747105f, -0.21046120f, -0.14445651f, -0.04987805f, 0.13321231f,
    0.00176258f, 0.04263809f, 0.13898964f, 0.14113219f, 0.15058437f, 0.11978827f, -0.01450959f, 0.01633435f,
    -0.03710083f, 0.04659624f, 0.15855922f, 0.22588424f, 0.21888657f, 0.10250208f, 0.07914335f, -0.04374063f,
    -0.09651571f, -0.11033823f, -0.00484031f, 0.02874811f, 0.03285921f, 0.08308119f, 0.06466087f, 0.05097147f,
    0.07254463f, -0.00926369f, -0.02071064f, -0.01320083f, -0.17085680f, -0.14583305f, -0.21658902f, -0.09152726f,
    -0.05488443f, 0.00817960f, 0.15047005f, 0.16450164f, -0.02130736f, -0.01566721f, 0.02744991f, 0.12349652f,
    0.12128020f, 0.11548993f, 0.05283216f, 0.02199510f, 0.06104919f, -0.03389754f, -0.03223211f, -0.00042428f,
    -0.04579394f, 0.00574276f, 0.04917869f, -0.01276175f, 0.03165202f, -0.03285662f, 0.04352254f, 0.03840747f,
    -0.02525661f, -0.03738210f, 0.04968619f, 0.01580993f, -0.02010492f, -0.00080838f, 0.02841931f, -0.05119329f,
    -0.10773385f, -0.12414277f, -0.15692574f, -0.07127418f, 0.05382330f, 0.12540872f, 0.11668149f, 0.12339365f,
    0.07437116f, 0.07340334f, 0.10151832f, 0.14213768f, 0.13452530f, 0.03616877f, 0.11656355f, 0.05737983f,
    0.06185965f, 0.03764906f, -0.03113414f, 0.02420156f, 0.01481625f, -0.01519204f, 0.02815908f, 0.12673526f,
    0.16637953f, 0.08635570f, -0.01868533f, -0.01015817f, -0.12187211f, -0.14310616f, -0.16286667f, -0.16583692f,
    -0.05882995f, 0.04459682f, 0.03997418f, -0.02685591f, -0.06014816f, -0.12794845f, -0.22917531f, -0.21257186f,
    -0.03606289f, 0.01561220f, 0.04893287f, 0.16568799f, 0.00168855f, -0.05707142f, -0.04929578f, -0.15299600f,
    -0.21243188f, -0.26972833f, -0.09983058f, -0.06584800f, 0.01213520f, -0.03855218f, -0.10199820f, -0.05587089f,
    -0.15311694f, -0.17870173f, -0.23222034f, -0.17562620f, -0.03508242f, 0.05202803f, 0.07180853f, 0.02989803f,
    -0.09976048f, -0.09034806f, -0.10860711f, -0.15028808f, -0.21767661f, -0.22362380f, -0.07346940f, 0.04164039f,
    0.03903330f, -0.06435365f, -0.07607347f, -0.17854592f, -0.13022436f, -0.06530056f, -0.11954508f, -0.00089768f,
    -0.08301616f, 0.00331170f, 0.03417345f, 0.02850843f, -0.03636600f, 0.00426504f, -0.03184710f, -0.00239708f,
    -0.03454777f, 0.08802745f, 0.06371865f, 0.09153344f, 0.16066740f, 0.14937572f, 0.08335537f, 0.10234722f,
    -0.01972938f, 0.01919892f, 0.03442585f, 0.11231576f, 0.10012953f, 0.04235233f, 0.02540225f, -0.05765153f,
    -0.10755850f, -0.15634839f, -0.13401316f, 0.00205413f, 0.02118927f, -0.02341544f, -0.02594588f, -0.05413239f,
    -0.05427799f, 0.00701910f, 0.01683865f, 0.01028692f, -0.01912420f, -0.01863389f, 0.05104904f, 0.10693360f,
    0.15982264f, 0.10431657f, 0.09644147f, 0.04755639f, 0.05207204f, -0.03898714f, 0.02531030f, -0.02538008f,
    -0.09869503f, -0.15758164f, -0.10238630f, -0.19360439f, -0.06587255f, -0.03612550f, 0.17303041f, 0.18015377f,
    0.21025597f, 0.34214598f, 0.29654402f, 0.12699206f, 0.07131814f, 0.02439358f, -0.04268599f, 0.02039347f,
    0.00025025f, -0.00579537f, 0.06734242f, 0.15413715f, 0.16965754f, 0.11072794f, 0.03613096f, 0.01833041f,
    -0.00136356f, 0.06341845f, -0.04541989f, -0.01875416f, -0.11852070f, -0.15197583f, -0.08155477f, -0.15985666f,
    -0.00479356f, 0.06425974f, 0.06127906f, 0.04177849f, 0.12269843f, 0.11619288f, 0.13248730f, 0.04454146f,
    0.05458282f, 0.02262413f, 0.01017105f, -0.00242755f, 0.03672584f, 0.01629202f, -0.01242048f, -0.03329762f,
    0.01505259f, -0.00074898f, 0.00779155f, 0.00759647f, -0.02298735f, -0.11560794f, -0.10818633f, -0.19228950f,
    -0.22640175f, -0.05344691f, -0.03025314f, 0.09386564f, 0.03208526f, 0.00044537f, 0.04341597f, 0.05207818f,
    0.00442008f, -0.00434993f, 0.08144733f, 0.13943213f, 0.12374625f, -0.05117223f, -0.06932273f, -0.04791620f,
    0.02272608f, -0.01966056f, 0.00359498f, 0.20794785f, 0.26224375f, 0.10788722f, 0.00378364f, -0.01900251f,
    -0.13072783f, -0.06966807f, -0.19262975f, -0.17186479f, -0.15595360f, -0.11791667f, -0.03617131f, 0.01168552f,
    0.01661525f, -0.11134406f, -0.08992841f, -0.15134585f, -0.18197241f, -0.11631510f, 0.02809594f, 0.10478653f,
    0.01443481f, 0.03865267f, 0.11011665f, 0.12829898f, 0.11765790f, 0.05568628f, 0.01085595f, 0.01265973f,
    0.06947093f, 0.09778450f, 0.14115974f, 0.24213974f, 0.20509559f, 0.12795278f, 0.09315284f, -0.00199375f,
    -0.09369244f, -0.11478092f, 0.03095406f, -0.00300405f, -0.00041773f, 0.13486663f, 0.16886871f, 0.14639027f,
    0.03285810f, 0.09941535f, -0.00864811f, -0.07417007f, -0.14413753f, -0.12079797f, -0.14444219f, -0.15324368f,
    -0.04371023f, 0.04185314f, 0.16268700f, 0.10801479f, -0.01707288f, -0.02314759f, 0.10226713f, 0.16037650f,
    0.14560254f, 0.09707774f, 0.04615982f, 0.05038211f, 0.01103106f, -0.06619522f, -0.04976520f, -0.02890888f,
    -0.05794466f, 0.03893654f, -0.04273899f, -0.04636035f, -0.05539075f, -0.03427806f, 0.00327215f, -0.02629159f,
    -0.00498230f, 0.02777486f, -0.04346560f, 0.04083444f, -0.04762026f, -0.03764100f, 0.01058724f, -0.09007734f,
    -0.13338922f, -0.15142904f, -0.07537787f, -0.07033759f, -0.00930569f, 0.08638700f, 0.16864599f, 0.14176889f,
    -0.02985804f, 0.01140583f, -0.09635807f, -0.13890529f, -0.09126749f, -0.13241327f, -0.04384318f, 0.07635989f,
    0.11330388f, 0.05781064f, 0.07621612f, 0.10702576f, 0.15699844f, 0.03865478f, -0.02825397f, 0.01394384f,
    -0.02746524f, -0.05395079f, 0.04873671f, 0.04480041f, 0.13345729f, 0.14046240f, 0.10162338f, 0.12723732f,
    0.06513092f, 0.00016535f, 0.03850209f, 0.00137060f, 0.11323263f, 0.07500623f, 0.16000642f, 0.08454054f,
    0.10812902f, -0.01278915f, -0.00574818f, -0.06055976f, 0.05643903f, 0.10751050f, 0.15686196f, 0.06017574f,
    0.19537631f, 0.18848833f, 0.16062860f, 0.04443768f, 0.02566811f, 0.10189077f, 0.03834861f, 0.04384357f,
    0.06900929f, 0.08458134f, 0.17352521f, 0.06662960f, 0.08455711f, -0.03337748f, 0.09188890f, 0.03063863f,
    0.03882303f, 0.04933604f, 0.05850611f, 0.16613220f, 0.16756466f, 0.08281113f, 0.02104662f, 0.08817329f,
    -0.00759929f, -0.00001896f, 0.11485825f, 0.14507484f, 0.11888239f, 0.06220599f, 0.09412184f, -0.01856925f,
    0.01294632f, -0.02629988f, 0.02372696f, -0.02983933f, -0.00301922f, 0.01204934f, -0.00571625f, 0.01344134f,
    0.00338570f, 0.00360721f, -0.03077587f, -0.09948282f, -0.15674129f, -0.20647176f, -0.17228207f, -0.03681442f,
    0.05163195f, 0.11737033f, -0.00282406f, -0.03694150f, 0.07372092f, 0.05332522f, 0.07144752f, 0.01462013f,
    0.08797400f, 0.13722138f, 0.14354026f, 0.04486062f, -0.04398932f, 0.06486518f, 0.02942845f, -0.00401762f,
    0.03498172f, -0.00974896f, 0.04988331f, -0.02606598f, 0.09200806f, 0.01069252f, 0.03322766f, -0.16480291f,
    -0.14202182f, -0.15162848f, -0.09429603f, 0.01786267f, 0.09186716f, 0.01384912f, 0.08351053f, 0.02943857f,
    0.03957002f, 0.11988036f, 0.04079546f, 0.05328270f, 0.11614346f, 0.07811534f, -0.14873762f, -0.16157845f,
    -0.16753726f, -0.31519267f, -0.25418627f, -0.06543376f, 0.03753008f, 0.06371641f, 0.03772481f, 0.05762948f,
    0.08397768f, -0.02105572f, -0.05786047f, -0.17185716f, -0.22375181f, -0.15387249f, -0.10752325f, -0.01120194f,
    0.00167274f, 0.00317981f, 0.03214053f, 0.04889105f, 0.07677851f, 0.11841302f, 0.05456386f, 0.13014512f,
    0.09269191f, 0.04103450f, -0.00284355f, -0.02408363f, -0.16761827f, -0.09196743f, -0.14136897f, -0.04477731f,
    -0.02027182f, 0.04462170f, 0.00907788f, -0.02229689f, -0.03527410f, -0.01620280f, -0.04985030f, -0.02477260f,
    0.01432045f, -0.02341963f, -0.00262905f, 0.00308518f, 0.03453127f, 0.02937856f, 0.11395568f, 0.10298640f,
    0.14612058f, 0.04584288f, 0.07831965f, -0.00869429f, 0.08890097f, 0.06470187f, 0.12070175f, 0.14291970f,
    0.12712470f, 0.05236264f, 0.04989801f, -0.02903931f, -0.01803669f, 0.02292021f, 0.04035155f, 0.01193204f,
    0.07753208f, 0.01946853f, 0.00868927f, -0.22699879f, -0.28500158f, -0.15663509f, 0.07502951f, 0.08160118f,
    0.10341430f, 0.12028473f, 0.06398068f, 0.05822738f, 0.18824655f, 0.13612582f, 0.01568371f, -0.00559658f,
    0.10683206f, 0.10267739f, 0.14638944f, 0.12443563f, 0.10551746f, 0.08005714f, 0.01134390f, 0.01608740f,
    -0.05991158f, 0.01057554f, -0.07875845f, -0.13005733f, -0.17418572f, -0.09145768f, -0.04724294f, -0.00230193f,
    0.08763032f, -0.00651626f, -0.14122590f, -0.17547084f, -0.16396020f, -0.14095759f, -0.06798209f, 0.08776210f,
    0.12052819f, 0.06614066f, -0.00807313f, -0.06900998f, -0.01023387f, -0.13649984f, -0.16977836f, -0.13834997f,
    -0.06652661f, -0.05280307f, -0.01476528f, 0.09510151f, 0.04033868f, 0.14692463f, 0.14384228f, 0.13556315f,
    0.07946699f, 0.07131802f, -0.02616013f, -0.00435230f, -0.04172454f, -0.02125968f, -0.16106582f, -0.16841130f,
    -0.17228408f, -0.10155968f, -0.02124016f, 0.08386029f, 0.04473737f, -0.00678472f, -0.00501656f, 0.03210543f,
    -0.04421728f, 0.04590820f, 0.00151644f, 0.02491843f, -0.02393989f, 0.01853420f, -0.04367941f, -0.04747700f,
    0.06686042f, 0.03721618f, -0.03834429f, 0.06423762f, -0.04828778f, -0.06938209f, 0.04142455f, 0.01034477f,
    0.10575566f, 0.13122515f, 0.05166267f, 0.08813009f, 0.06918319f, -0.06594126f, 0.03123713f, 0.00345124f,
    -0.00250328f, 0.00878063f, 0.04456685f, 0.04732778f, 0.13759214f, 0.02490954f, 0.01762627f, 0.01377929f,
    0.05416696f, -0.01293188f, 0.00082227f, -0.07051261f, 0.04789570f, 0.07700317f, 0.07439677f, 0.14523059f,
    0.09548767f, 0.13108046f, -0.03132731f, -0.08272023f, -0.10872616f, -0.09980065f, -0.13045408f, -0.11605196f,
    -0.01330702f, -0.01064734f, 0.05638493f, -0.07215014f, -0.13032916f, -0.16532959f, -0.15874813f, -0.11028338f,
    -0.08869936f, 0.04937946f, 0.04895069f, 0.13028531f, -0.06281130f, -0.05975660f, -0.13384433f, -0.06987158f,
    -0.17174831f, -0.17837037f, -0.15454073f, -0.05766728f, 0.03301615f, -0.04793390f, -0.04631873f, -0.12603188f,
    -0.13931194f, -0.20120274f, -0.23731656f, -0.15775627f, -0.05978304f, 0.07322388f, 0.07466352f, -0.00840497f,
    -0.00317991f, -0.02008212f, -0.12167369f, -0.21007210f, -0.19160542f, -0.16768280f, -0.10900565f, 0.02218764f,
    0.03828342f, -0.03761745f, -0.12588027f, -0.11501034f, -0.14056973f, -0.04799341f, -0.01698847f, 0.04691844f,
    -0.06588040f, -0.00802713f, 0.00881619f, -0.03432601f, 0.02623161f, 0.02198276f, -0.06215308f, 0.01304518f,
    -0.03240126f, 0.09793815f, 0.07788407f, 0.12592600f, 0.12488196f, 0.07011287f, 0.08137044f, 0.02691940f,
    -0.00735519f, 0.01072048f, 0.05025193f, 0.07698963f, 0.10142864f, 0.06272350f, 0.06246021f, -0.04359611f,
    -0.10961246f, -0.08129173f, -0.12479815f, 0.01073211f, 0.04395938f, -0.03302500f, 0.05002974f, 0.02950530f,
    -0.03720256f, 0.04950526f, 0.01580741f, -0.04496948f, 0.05551345f, 0.02618518f, 0.03762849f, 0.14181761f,
    0.09491992f, 0.09940676f, 0.12115789f, 0.02638521f, -0.02119950f, 0.02057502f, 0.03980989f, -0.01032003f,
    -0.03637374f, -0.10679109f, -0.18647097f, -0.10325023f, -0.05690993f, -0.06214440f, 0.17650209f, 0.14084753f,
    0.17397407f, 0.37010151f, 0.29756087f, 0.10409917f, 0.04418173f, 0.02360430f, -0.00912285f, -0.01364267f,
    0.08807090f, 0.05148129f, 0.05548822f, 0.14409280f, 0.07560071f, 0.10265680f, 0.03748336f, 0.00478841f,
    0.08354933f, 0.07739040f, 0.01050374f, -0.01229478f, -0.11414815f, -0.15772688f, -0.10397143f, -0.08459684f,
    0.02968222f, 0.06026676f, 0.02084253f, 0.05807939f, 0.12210641f, 0.09424432f, 0.11871327f, 0.10643692f,
    0.06213406f, 0.06963632f, -0.04998701f, 0.03336326f, -0.05603634f, -0.03214350f, 0.05714825f, -0.01950135f,
    -0.00398411f, -0.02198210f, 0.05164893f, 0.02201408f, -0.06246305f, -0.05287563f, -0.12203414f, -0.13730256f,
    -0.14829049f, -0.02895949f, -0.01137102f, 0.03279419f, 0.03242346f, -0.02507439f, 0.04822319f, 0.01416689f,
    0.02789821f, 0.05657354f, 0.03387737f, 0.07919742f, 0.06676916f, 0.04876972f, -0.06123338f, -0.03112883f,
    -0.00943931f, -0.00571760f, 0.05090358f, 0.16651559f, 0.20304398f, 0.14467816f, -0.02147671f, -0.03573451f,
    -0.10423391f, -0.11828207f, -0.09428360f, -0.23354824f, -0.21246126f, -0.13917136f, -0.03474324f, -0.06888530f,
    -0.07047469f, -0.04441518f, -0.10620098f, -0.14457217f, -0.24294016f, -0.17003410f, 0.01104859f, 0.09945959f,
    0.07461031f, 0.04036018f, 0.13092215f, 0.06867832f, 0.14634703f, 0.03022726f, 0.09844344f, 0.06823782f,
    0.02096819f, 0.05763261f, 0.16297126f, 0.14923954f, 0.17586084f, 0.14909573f, 0.09588637f, 0.03933071f,
    -0.10043032f, -0.09074159f, -0.01498915f, -0.00720982f, -0.01171836f, 0.12613264f, 0.09601558f, 0.11922297f,
    0.11542024f, 0.09926727f, 0.04887563f, -0.00959650f, -0.14460422f, -0.11132952f, -0.15864576f, -0.07057266f,
    -0.01859340f, -0.02292499f, 0.06873438f, 0.11746978f, 0.07221019f, 0.07100461f, 0.10405637f, 0.10331215f,
    0.07572912f, 0.06703607f, 0.07465053f, 0.05113913f, -0.00834997f, -0.03535870f, -0.06235883f, 0.04899050f,
    -0.04733637f, 0.04662768f, 0.01030922f, -0.01854071f, -0.05002252f, -0.00064675f, 0.00801074f, 0.03160547f,
    0.03359931f, -0.00851865f, -0.00147212f, 0.05355220f, 0.01664764f, -0.01860612f, 0.01982447f, -0.06119472f,
    -0.15745384f, -0.17155385f, -0.07133447f, 0.00945429f, 0.01417868f, 0.09208097f, 0.09246474f, 0.09599112f,
    0.04891369f, -0.05689109f, -0.09890030f, -0.10832135f, -0.17761080f, -0.13161695f, -0.03248604f, -0.00189975f,
    0.14116926f, 0.04456273f, 0.06429291f, 0.07127041f, 0.06521486f, 0.03531233f, 0.03281702f, 0.00352607f,
    0.02901181f, 0.00122326f, -0.02514457f, 0.02239879f, 0.02813842f, 0.11943097f, 0.07509381f, 0.04126057f,
    0.07001349f, 0.07361547f, -0.05058855f, -0.02153133f, 0.11609847f, 0.10937818f, 0.13721572f, 0.12771316f,
    0.01827130f, 0.00351864f, 0.03805365f, 0.02917644f, 0.06046439f, 0.09254426f, 0.12326165f, 0.16966575f,
    0.25949645f, 0.33128333f, 0.23911111f, 0.05170278f, 0.05172215f, -0.00790832f, 0.07690983f, 0.07778262f,
    0.13713613f, 0.11085758f, 0.08238634f, 0.08332929f, 0.08676524f, -0.02045686f, 0.11415213f, 0.08947054f,
    0.06733690f, 0.05044200f, 0.09889332f, 0.17369404f, 0.09962621f, 0.16225962f, 0.00609917f, 0.07163034f,
    0.07826550f, 0.09626738f, 0.08327264f, 0.12612669f, 0.13601567f, 0.03834511f, 0.02932956f, -0.02211519f,
    0.08263778f, 0.02617131f, 0.06878860f, -0.00076683f, -0.01623004f, -0.00372940f, 0.07113125f, 0.03508341f,
    0.02539611f, 0.05017345f, -0.04424354f, -0.05827105f, -0.17451261f, -0.20029525f, -0.07542133f, -0.04379679f,
    0.03752358f, 0.09475667f, 0.03998425f, 0.02257637f, -0.00003778f, 0.03389627f, 0.03719055f, 0.07717025f,
    0.14616910f, 0.08768870f, 0.12688148f, 0.04170894f, -0.03498144f, 0.04320084f, -0.03534247f, 0.05506959f,
    -0.04345936f, -0.04905281f, -0.03426038f, -0.04022641f, 0.05548599f, 0.04673656f, -0.00285980f, -0.15647545f,
    -0.12898403f, -0.10025932f, -0.08222079f, -0.07382431f, 0.03060693f, 0.05104529f, -0.00980493f, 0.07023551f,
    0.04593886f, 0.10118079f, 0.05107509f, 0.16015120f, 0.12139720f, 0.08709875f, -0.15193848f, -0.09627432f,
    -0.15045743f, -0.34715092f, -0.18680903f, -0.03271631f, 0.04312877f, -0.01738453f, 0.06685512f, 0.03059431f,
    0.06886084f, 0.00342017f, -0.00199584f, -0.13609496f, -0.13284837f, -0.09805922f, -0.08660248f, 0.02063788f,
    0.03690885f, 0.07172006f, 0.02481994f, 0.04870006f, 0.10375397f, 0.12630026f, 0.04917860f, 0.03789851f,
    -0.00098495f, -0.01380879f, -0.01206146f, -0.06995408f, -0.11086154f, -0.13092846f, -0.12668487f, -0.11696444f,
    0.00895502f, 0.10152569f, -0.05451939f, 0.02174096f, 0.03479850f, -0.05019042f, 0.05609864f, 0.00740581f,
    0.05522400f, 0.02773423f, -0.02479373f, 0.01121724f, 0.04158617f, 0.09347486f, 0.10620541f, 0.06201581f,
    0.12568924f, 0.06916859f, 0.02328542f, -0.04179544f, 0.01835360f, 0.01208145f, 0.05712200f, 0.14085118f,
    0.07070397f, 0.09873565f, -0.04137529f, -0.01140887f, 0.01584980f, 0.12062785f, 0.06210053f, 0.12819001f,
    0.04508911f, 0.02330587f, -0.00112070f, -0.21785715f, -0.31906688f, -0.20628139f, 0.06161520f, 0.07483233f,
    0.03661719f, 0.06157687f, 0.05525658f, 0.15691441f, 0.15003859f, 0.04348468f, 0.04455741f, 0.08328437f,
    -0.01787639f, 0.03764845f, 0.12265977f, 0.16284277f, 0.12725940f, 0.08889377f, 0.01505894f, -0.03962427f,
    0.03117488f, -0.00161286f, -0.12055704f, -0.19214700f, -0.17118017f, -0.05773134f, -0.07857046f, 0.07707137f,
    0.11551739f, -0.00881781f, -0.08359589f, -0.26091650f, -0.21156570f, -0.14333889f, -0.06372447f, 0.07372799f,
    0.11465696f, 0.16378476f, 0.07700897f, -0.03000062f, 0.00028503f, -0.16269161f, -0.16608235f, -0.14128299f,
    -0.06798640f, -0.09614724f, -0.02358366f, -0.01473461f, 0.11721872f, 0.09577061f, 0.07438312f, 0.03637025f,
    0.00511925f, 0.06012879f, -0.04114353f, -0.06079411f, 0.06013968f, -0.03922416f, -0.06266125f, -0.20336744f,
    -0.18848163f, -0.16205812f, -0.08982637f, 0.07822821f, 0.11623705f, 0.05873671f, 0.03706567f, 0.04649871f,
    0.05416846f, 0.00327407f, 0.03484049f, -0.03839879f, 0.03417836f, 0.05597295f, 0.04566681f, 0.03819253f,
    0.02907202f, -0.04284127f, -0.03329491f, 0.05503223f, -0.01245267f, 0.01081691f, -0.05385288f, 0.11019313f,
    0.14708926f, 0.08608057f, 0.15349637f, 0.03149469f, 0.08377809f, 0.02151237f, -0.04156222f, -0.01678335f,
    0.00302014f, -0.04383108f, 0.04895733f, -0.01007222f, 0.03997485f, -0.05697129f, -0.04919876f, -0.00257193f,
    -0.01936799f, -0.01338540f, -0.05662039f, 0.00601259f, -0.03460631f, 0.03963549f, -0.03704814f, -0.04353970f,
    -0.03642360f, 0.05218989f, 0.03648118f, 0.03767477f, 0.05046583f, -0.06116561f, -0.02561037f, -0.06281991f,
    -0.05068737f, -0.05067361f, 0.02987852f, -0.02847085f, 0.03478831f, 0.02872905f, 0.04018403f, 0.02708589f,
    0.04605345f, 0.03635361f, 0.05263775f, -0.01281102f, 0.04502919f, 0.04051133f, -0.00302203f, 0.01991818f,
    -0.05292511f, -0.04890202f, -0.00620102f, -0.03016432f, -0.05795561f, -0.00262334f, 0.02564071f, 0.00514473f,
    -0.03826711f, -0.00406619f, -0.01063553f, -0.02570034f, 0.06016508f, 0.01265089f, 0.03830217f, 0.04305524f,
    -0.03446860f, 0.05027109f, -0.03633972f, -0.03556038f, -0.06443556f, 0.00531844f, -0.04865695f, -0.04756439f,
    -0.02483925f, 0.04290929f, -0.06339987f, -0.04375605f, -0.05653146f, 0.00111006f, -0.04566600f, -0.04975486f,
    -0.05287511f, 0.02193295f, -0.02559663f, 0.00819472f, -0.04046723f, -0.04350102f, -0.02943203f, -0.04252279f,
    -0.01096354f, 0.01580384f, -0.05660176f, -0.00010578f, 0.01957090f, -0.02639417f, 0.01553340f, -0.06053929f,
    -0.03778860f, -0.02519705f, 0.00029748f, 0.03722325f, 0.00175777f, 0.04937388f, 0.04161851f, -0.01767918f,
    0.00383313f, -0.06175057f, 0.05211642f, -0.04387300f, 0.05421922f, 0.03803927f, 0.05054497f, 0.04560737f,
    0.00981285f, -0.02167236f, 0.00359303f, 0.04803680f, -0.01299220f, -0.04076308f, 0.04489262f, -0.05493559f,
    0.02083234f, 0.03291586f, 0.01428984f, -0.02718381f, 0.03709863f, 0.03306717f, -0.01731399f, -0.04412184f,
    0.00758915f, -0.02344583f, 0.03229872f, 0.04829248f, 0.04011119f, -0.00452261f, -0.03360597f, -0.00448419f,
    0.00449420f, -0.04322746f, -0.05572093f, -0.04829765f, 0.03122055f, 0.05581594f, 0.04765668f, 0.00691938f,
    0.02679894f, -0.03281284f, 0.00786004f, 0.01511146f, -0.05048938f, 0.04129219f, -0.02052538f, -0.02032803f,
    0.04584046f, -0.02349476f, -0.02347407f, 0.04887364f, -0.03045236f, -0.05794552f, -0.00704479f, 0.04178171f,
    -0.01548088f, 0.01918793f, -0.01622200f, -0.00346359f, 0.00234665f, -0.03524539f, 0.05098641f, 0.03064101f,
    0.01824593f, -0.00579906f, 0.05859336f, -0.02255542f, -0.02338061f, 0.03335805f, -0.02872869f, -0.02511415f,
    -0.02044549f, -0.01974369f, -0.03001350f, -0.06065213f, 0.01250971f, 0.02024023f, -0.03026992f, -0.02878592f,
    0.00397614f, -0.05909758f, 0.04152376f, 0.02688031f, 0.01621114f, 0.02784657f, -0.03943049f, -0.00233626f,
    -0.01352385f, -0.05005276f, -0.05645159f, -0.01101457f, -0.03242813f, 0.01295832f, -0.02397920f, 0.04830043f,
    -0.06279761f, 0.01092718f, -0.04640087f, -0.05269539f, 0.04972274f, -0.01967191f, -0.01604030f, 0.01617359f,
    -0.04431454f, -0.03678308f, 0.03088190f, 0.04288901f, -0.03586479f, -0.00546877f, 0.04383696f, -0.05097646f,
    0.01038046f, -0.03105295f, -0.02617902f, -0.00359279f, 0.00126013f, 0.03651207f, -0.05441697f, -0.02810660f,
    0.02082985f, 0.01660267f, 0.02441514f, 0.00865865f, 0.02377070f, 0.03144648f, 0.03754558f, -0.01268148f,
    -0.06286049f, 0.00337688f, 0.04705757f, -0.04851034f, -0.01717650f, -0.04873271f, -0.02759641f, -0.02230796f,
    0.01591587f, 0.01329204f, 0.01529259f, 0.02326843f, 0.01562858f, 0.03071790f, 0.03847456f, -0.04810662f,
    -0.00140851f, 0.00628545f, 0.00653443f, 0.04490168f, -0.04265958f, 0.00013843f, 0.02048559f, 0.00054972f,
    0.00692115f, -0.05740787f, 0.00414731f, -0.00073517f, 0.03431920f, 0.03915115f, -0.03927227f, 0.00728076f,
    -0.04454708f, 0.02061546f, -0.05119522f, -0.01581188f, -0.04913094f, 0.04827708f, 0.05634274f, 0.04947601f,
    0.02686723f, -0.02015993f, 0.03903125f, -0.04196206f, 0.02431119f, -0.05796573f, 0.00327653f, -0.02130448f,
    0.02851196f, 0.00387828f, -0.03489603f, 0.02047623f, 0.04870625f, 0.04665826f, 0.00828615f, -0.01969313f,
    0.03416816f, -0.03775966f, -0.02454566f, -0.03136635f, 0.02015870f, -0.05953020f, -0.00519776f, -0.04901393f,
    -0.01532634f, 0.02237336f, -0.05524347f, -0.13488247f, -0.15380709f, -0.12564598f, -0.04422146f, 0.06028690f,
    0.06465059f, 0.14741203f, 0.07768548f, 0.15069652f, 0.10822272f, 0.03458904f, 0.03706140f, 0.01180525f,
    -0.00886265f, 0.00975524f, -0.01897335f, 0.02384768f, 0.13553891f, 0.05786172f, 0.03643001f, 0.03760643f,
    0.11773608f, 0.06418828f, 0.01916270f, 0.02666530f, 0.09363096f, 0.07933258f, 0.14777675f, 0.15438958f,
    0.11036313f, 0.03732750f, -0.02525723f, 0.01235557f, 0.04099000f, 0.09364805f, 0.06979312f, 0.16443948f,
